=== Run information ===

Scheme:       weka.classifiers.trees.J48 -C 0.25 -M 2
Relation:     MARSYAS_EMPTYm_multi.arff-weka.filters.unsupervised.attribute.Remove-R1,4-11,18-29,32,34-60
Instances:    118215
Attributes:   14
              Mean_Mem20_Centroid_Power_powerFFT_WinHamming_HopSize512_WinSize512_Sum_AudioCh0
              Mean_Mem20_Rolloff_Power_powerFFT_WinHamming_HopSize512_WinSize512_Sum_AudioCh0
              Mean_Mem20_MFCC7_Power_powerFFT_WinHamming_HopSize512_WinSize512_Sum_AudioCh0
              Mean_Mem20_MFCC8_Power_powerFFT_WinHamming_HopSize512_WinSize512_Sum_AudioCh0
              Mean_Mem20_MFCC9_Power_powerFFT_WinHamming_HopSize512_WinSize512_Sum_AudioCh0
              Mean_Mem20_MFCC10_Power_powerFFT_WinHamming_HopSize512_WinSize512_Sum_AudioCh0
              Mean_Mem20_MFCC11_Power_powerFFT_WinHamming_HopSize512_WinSize512_Sum_AudioCh0
              Mean_Mem20_MFCC12_Power_powerFFT_WinHamming_HopSize512_WinSize512_Sum_AudioCh0
              Mean_Mem20_PeakRatio_Average_Chroma_A_Power_powerFFT_WinHamming_HopSize512_WinSize512_Sum_AudioCh0
              Mean_Mem20_PeakRatio_Minimum_Chroma_A_Power_powerFFT_WinHamming_HopSize512_WinSize512_Sum_AudioCh0
              Std_Mem20_Centroid_Power_powerFFT_WinHamming_HopSize512_WinSize512_Sum_AudioCh0
              Std_Mem20_PeakRatio_Average_Chroma_A_Power_powerFFT_WinHamming_HopSize512_WinSize512_Sum_AudioCh0
              Std_Mem20_PeakRatio_Minimum_Chroma_A_Power_powerFFT_WinHamming_HopSize512_WinSize512_Sum_AudioCh0
              output
Test mode:    5-fold cross-validation

=== Classifier model (full training set) ===

J48 pruned tree
------------------

Std_Mem20_PeakRatio_Minimum_Chroma_A_Power_powerFFT_WinHamming_HopSize512_WinSize512_Sum_AudioCh0 <= 2.496173
|   Mean_Mem20_PeakRatio_Minimum_Chroma_A_Power_powerFFT_WinHamming_HopSize512_WinSize512_Sum_AudioCh0 <= 2.234151
|   |   Std_Mem20_PeakRatio_Average_Chroma_A_Power_powerFFT_WinHamming_HopSize512_WinSize512_Sum_AudioCh0 <= 0.0371
|   |   |   Mean_Mem20_PeakRatio_Minimum_Chroma_A_Power_powerFFT_WinHamming_HopSize512_WinSize512_Sum_AudioCh0 <= 1.628118
|   |   |   |   Mean_Mem20_Centroid_Power_powerFFT_WinHamming_HopSize512_WinSize512_Sum_AudioCh0 <= 0.010448
|   |   |   |   |   Mean_Mem20_PeakRatio_Minimum_Chroma_A_Power_powerFFT_WinHamming_HopSize512_WinSize512_Sum_AudioCh0 <= 1.585107
|   |   |   |   |   |   Mean_Mem20_Rolloff_Power_powerFFT_WinHamming_HopSize512_WinSize512_Sum_AudioCh0 <= 0.011673
|   |   |   |   |   |   |   Std_Mem20_PeakRatio_Minimum_Chroma_A_Power_powerFFT_WinHamming_HopSize512_WinSize512_Sum_AudioCh0 <= 0.031828
|   |   |   |   |   |   |   |   Mean_Mem20_MFCC12_Power_powerFFT_WinHamming_HopSize512_WinSize512_Sum_AudioCh0 <= 0.814687
|   |   |   |   |   |   |   |   |   Mean_Mem20_PeakRatio_Average_Chroma_A_Power_powerFFT_WinHamming_HopSize512_WinSize512_Sum_AudioCh0 <= 1.170983: m41 (18.0)
|   |   |   |   |   |   |   |   |   Mean_Mem20_PeakRatio_Average_Chroma_A_Power_powerFFT_WinHamming_HopSize512_WinSize512_Sum_AudioCh0 > 1.170983: m56 (57.0)
|   |   |   |   |   |   |   |   Mean_Mem20_MFCC12_Power_powerFFT_WinHamming_HopSize512_WinSize512_Sum_AudioCh0 > 0.814687: m55 (38.0)
|   |   |   |   |   |   |   Std_Mem20_PeakRatio_Minimum_Chroma_A_Power_powerFFT_WinHamming_HopSize512_WinSize512_Sum_AudioCh0 > 0.031828
|   |   |   |   |   |   |   |   Mean_Mem20_MFCC12_Power_powerFFT_WinHamming_HopSize512_WinSize512_Sum_AudioCh0 <= 0.155944
|   |   |   |   |   |   |   |   |   Mean_Mem20_MFCC11_Power_powerFFT_WinHamming_HopSize512_WinSize512_Sum_AudioCh0 <= 0.097533
|   |   |   |   |   |   |   |   |   |   Mean_Mem20_Rolloff_Power_powerFFT_WinHamming_HopSize512_WinSize512_Sum_AudioCh0 <= 0.009922: m44 (20.0)
|   |   |   |   |   |   |   |   |   |   Mean_Mem20_Rolloff_Power_powerFFT_WinHamming_HopSize512_WinSize512_Sum_AudioCh0 > 0.009922
|   |   |   |   |   |   |   |   |   |   |   Mean_Mem20_Centroid_Power_powerFFT_WinHamming_HopSize512_WinSize512_Sum_AudioCh0 <= 0.009161
|   |   |   |   |   |   |   |   |   |   |   |   Mean_Mem20_MFCC7_Power_powerFFT_WinHamming_HopSize512_WinSize512_Sum_AudioCh0 <= 0.466866: m28 (6.0)
|   |   |   |   |   |   |   |   |   |   |   |   Mean_Mem20_MFCC7_Power_powerFFT_WinHamming_HopSize512_WinSize512_Sum_AudioCh0 > 0.466866: m43 (7.0)
|   |   |   |   |   |   |   |   |   |   |   Mean_Mem20_Centroid_Power_powerFFT_WinHamming_HopSize512_WinSize512_Sum_AudioCh0 > 0.009161: m41 (12.0/1.0)
|   |   |   |   |   |   |   |   |   Mean_Mem20_MFCC11_Power_powerFFT_WinHamming_HopSize512_WinSize512_Sum_AudioCh0 > 0.097533
|   |   |   |   |   |   |   |   |   |   Std_Mem20_PeakRatio_Minimum_Chroma_A_Power_powerFFT_WinHamming_HopSize512_WinSize512_Sum_AudioCh0 <= 0.10978
|   |   |   |   |   |   |   |   |   |   |   Mean_Mem20_MFCC9_Power_powerFFT_WinHamming_HopSize512_WinSize512_Sum_AudioCh0 <= -0.218026
|   |   |   |   |   |   |   |   |   |   |   |   Mean_Mem20_Rolloff_Power_powerFFT_WinHamming_HopSize512_WinSize512_Sum_AudioCh0 <= 0.010117: m48 (18.0)
|   |   |   |   |   |   |   |   |   |   |   |   Mean_Mem20_Rolloff_Power_powerFFT_WinHamming_HopSize512_WinSize512_Sum_AudioCh0 > 0.010117
|   |   |   |   |   |   |   |   |   |   |   |   |   Mean_Mem20_Rolloff_Power_powerFFT_WinHamming_HopSize512_WinSize512_Sum_AudioCh0 <= 0.011284: m41 (2.0)
|   |   |   |   |   |   |   |   |   |   |   |   |   Mean_Mem20_Rolloff_Power_powerFFT_WinHamming_HopSize512_WinSize512_Sum_AudioCh0 > 0.011284: m47 (9.0)
|   |   |   |   |   |   |   |   |   |   |   Mean_Mem20_MFCC9_Power_powerFFT_WinHamming_HopSize512_WinSize512_Sum_AudioCh0 > -0.218026
|   |   |   |   |   |   |   |   |   |   |   |   Mean_Mem20_PeakRatio_Average_Chroma_A_Power_powerFFT_WinHamming_HopSize512_WinSize512_Sum_AudioCh0 <= 1.163555: m47 (110.0/1.0)
|   |   |   |   |   |   |   |   |   |   |   |   Mean_Mem20_PeakRatio_Average_Chroma_A_Power_powerFFT_WinHamming_HopSize512_WinSize512_Sum_AudioCh0 > 1.163555
|   |   |   |   |   |   |   |   |   |   |   |   |   Mean_Mem20_Rolloff_Power_powerFFT_WinHamming_HopSize512_WinSize512_Sum_AudioCh0 <= 0.009339
|   |   |   |   |   |   |   |   |   |   |   |   |   |   Mean_Mem20_Rolloff_Power_powerFFT_WinHamming_HopSize512_WinSize512_Sum_AudioCh0 <= 0.007977: m42 (8.0)
|   |   |   |   |   |   |   |   |   |   |   |   |   |   Mean_Mem20_Rolloff_Power_powerFFT_WinHamming_HopSize512_WinSize512_Sum_AudioCh0 > 0.007977: m44 (9.0)
|   |   |   |   |   |   |   |   |   |   |   |   |   Mean_Mem20_Rolloff_Power_powerFFT_WinHamming_HopSize512_WinSize512_Sum_AudioCh0 > 0.009339
|   |   |   |   |   |   |   |   |   |   |   |   |   |   Mean_Mem20_Centroid_Power_powerFFT_WinHamming_HopSize512_WinSize512_Sum_AudioCh0 <= 0.008992: m47 (7.0)
|   |   |   |   |   |   |   |   |   |   |   |   |   |   Mean_Mem20_Centroid_Power_powerFFT_WinHamming_HopSize512_WinSize512_Sum_AudioCh0 > 0.008992: m41 (4.0)
|   |   |   |   |   |   |   |   |   |   Std_Mem20_PeakRatio_Minimum_Chroma_A_Power_powerFFT_WinHamming_HopSize512_WinSize512_Sum_AudioCh0 > 0.10978
|   |   |   |   |   |   |   |   |   |   |   Mean_Mem20_Rolloff_Power_powerFFT_WinHamming_HopSize512_WinSize512_Sum_AudioCh0 <= 0.009339
|   |   |   |   |   |   |   |   |   |   |   |   Mean_Mem20_Rolloff_Power_powerFFT_WinHamming_HopSize512_WinSize512_Sum_AudioCh0 <= 0.008171: m42 (4.0)
|   |   |   |   |   |   |   |   |   |   |   |   Mean_Mem20_Rolloff_Power_powerFFT_WinHamming_HopSize512_WinSize512_Sum_AudioCh0 > 0.008171
|   |   |   |   |   |   |   |   |   |   |   |   |   Mean_Mem20_Centroid_Power_powerFFT_WinHamming_HopSize512_WinSize512_Sum_AudioCh0 <= 0.008708: m44 (3.0)
|   |   |   |   |   |   |   |   |   |   |   |   |   Mean_Mem20_Centroid_Power_powerFFT_WinHamming_HopSize512_WinSize512_Sum_AudioCh0 > 0.008708: m41 (4.0)
|   |   |   |   |   |   |   |   |   |   |   Mean_Mem20_Rolloff_Power_powerFFT_WinHamming_HopSize512_WinSize512_Sum_AudioCh0 > 0.009339
|   |   |   |   |   |   |   |   |   |   |   |   Std_Mem20_Centroid_Power_powerFFT_WinHamming_HopSize512_WinSize512_Sum_AudioCh0 <= 0.000951: m46 (6.0)
|   |   |   |   |   |   |   |   |   |   |   |   Std_Mem20_Centroid_Power_powerFFT_WinHamming_HopSize512_WinSize512_Sum_AudioCh0 > 0.000951
|   |   |   |   |   |   |   |   |   |   |   |   |   Std_Mem20_Centroid_Power_powerFFT_WinHamming_HopSize512_WinSize512_Sum_AudioCh0 <= 0.001385: m28 (3.0)
|   |   |   |   |   |   |   |   |   |   |   |   |   Std_Mem20_Centroid_Power_powerFFT_WinHamming_HopSize512_WinSize512_Sum_AudioCh0 > 0.001385: m37 (3.0)
|   |   |   |   |   |   |   |   Mean_Mem20_MFCC12_Power_powerFFT_WinHamming_HopSize512_WinSize512_Sum_AudioCh0 > 0.155944
|   |   |   |   |   |   |   |   |   Mean_Mem20_MFCC11_Power_powerFFT_WinHamming_HopSize512_WinSize512_Sum_AudioCh0 <= 0.102237
|   |   |   |   |   |   |   |   |   |   Mean_Mem20_Rolloff_Power_powerFFT_WinHamming_HopSize512_WinSize512_Sum_AudioCh0 <= 0.009144: m43 (48.0)
|   |   |   |   |   |   |   |   |   |   Mean_Mem20_Rolloff_Power_powerFFT_WinHamming_HopSize512_WinSize512_Sum_AudioCh0 > 0.009144: m44 (3.0/1.0)
|   |   |   |   |   |   |   |   |   Mean_Mem20_MFCC11_Power_powerFFT_WinHamming_HopSize512_WinSize512_Sum_AudioCh0 > 0.102237
|   |   |   |   |   |   |   |   |   |   Mean_Mem20_PeakRatio_Average_Chroma_A_Power_powerFFT_WinHamming_HopSize512_WinSize512_Sum_AudioCh0 <= 1.149602
|   |   |   |   |   |   |   |   |   |   |   Mean_Mem20_MFCC8_Power_powerFFT_WinHamming_HopSize512_WinSize512_Sum_AudioCh0 <= 0.489435
|   |   |   |   |   |   |   |   |   |   |   |   Mean_Mem20_Rolloff_Power_powerFFT_WinHamming_HopSize512_WinSize512_Sum_AudioCh0 <= 0.0107: m29 (90.0)
|   |   |   |   |   |   |   |   |   |   |   |   Mean_Mem20_Rolloff_Power_powerFFT_WinHamming_HopSize512_WinSize512_Sum_AudioCh0 > 0.0107: m40 (7.0)
|   |   |   |   |   |   |   |   |   |   |   Mean_Mem20_MFCC8_Power_powerFFT_WinHamming_HopSize512_WinSize512_Sum_AudioCh0 > 0.489435
|   |   |   |   |   |   |   |   |   |   |   |   Std_Mem20_Centroid_Power_powerFFT_WinHamming_HopSize512_WinSize512_Sum_AudioCh0 <= 0.000568: m46 (38.0)
|   |   |   |   |   |   |   |   |   |   |   |   Std_Mem20_Centroid_Power_powerFFT_WinHamming_HopSize512_WinSize512_Sum_AudioCh0 > 0.000568: m48 (3.0/1.0)
|   |   |   |   |   |   |   |   |   |   Mean_Mem20_PeakRatio_Average_Chroma_A_Power_powerFFT_WinHamming_HopSize512_WinSize512_Sum_AudioCh0 > 1.149602
|   |   |   |   |   |   |   |   |   |   |   Std_Mem20_PeakRatio_Average_Chroma_A_Power_powerFFT_WinHamming_HopSize512_WinSize512_Sum_AudioCh0 <= 0.024473: m41 (19.0)
|   |   |   |   |   |   |   |   |   |   |   Std_Mem20_PeakRatio_Average_Chroma_A_Power_powerFFT_WinHamming_HopSize512_WinSize512_Sum_AudioCh0 > 0.024473
|   |   |   |   |   |   |   |   |   |   |   |   Std_Mem20_PeakRatio_Minimum_Chroma_A_Power_powerFFT_WinHamming_HopSize512_WinSize512_Sum_AudioCh0 <= 0.105265
|   |   |   |   |   |   |   |   |   |   |   |   |   Std_Mem20_Centroid_Power_powerFFT_WinHamming_HopSize512_WinSize512_Sum_AudioCh0 <= 0.001097
|   |   |   |   |   |   |   |   |   |   |   |   |   |   Std_Mem20_Centroid_Power_powerFFT_WinHamming_HopSize512_WinSize512_Sum_AudioCh0 <= 0.000409
|   |   |   |   |   |   |   |   |   |   |   |   |   |   |   Mean_Mem20_Centroid_Power_powerFFT_WinHamming_HopSize512_WinSize512_Sum_AudioCh0 <= 0.008554: m41 (2.0)
|   |   |   |   |   |   |   |   |   |   |   |   |   |   |   Mean_Mem20_Centroid_Power_powerFFT_WinHamming_HopSize512_WinSize512_Sum_AudioCh0 > 0.008554: m43 (2.0/1.0)
|   |   |   |   |   |   |   |   |   |   |   |   |   |   Std_Mem20_Centroid_Power_powerFFT_WinHamming_HopSize512_WinSize512_Sum_AudioCh0 > 0.000409
|   |   |   |   |   |   |   |   |   |   |   |   |   |   |   Mean_Mem20_Centroid_Power_powerFFT_WinHamming_HopSize512_WinSize512_Sum_AudioCh0 <= 0.010079: m44 (50.0/1.0)
|   |   |   |   |   |   |   |   |   |   |   |   |   |   |   Mean_Mem20_Centroid_Power_powerFFT_WinHamming_HopSize512_WinSize512_Sum_AudioCh0 > 0.010079: m41 (3.0)
|   |   |   |   |   |   |   |   |   |   |   |   |   Std_Mem20_Centroid_Power_powerFFT_WinHamming_HopSize512_WinSize512_Sum_AudioCh0 > 0.001097: m29 (4.0)
|   |   |   |   |   |   |   |   |   |   |   |   Std_Mem20_PeakRatio_Minimum_Chroma_A_Power_powerFFT_WinHamming_HopSize512_WinSize512_Sum_AudioCh0 > 0.105265
|   |   |   |   |   |   |   |   |   |   |   |   |   Mean_Mem20_MFCC9_Power_powerFFT_WinHamming_HopSize512_WinSize512_Sum_AudioCh0 <= 0.286339: m41 (7.0)
|   |   |   |   |   |   |   |   |   |   |   |   |   Mean_Mem20_MFCC9_Power_powerFFT_WinHamming_HopSize512_WinSize512_Sum_AudioCh0 > 0.286339: m29 (31.0/1.0)
|   |   |   |   |   |   Mean_Mem20_Rolloff_Power_powerFFT_WinHamming_HopSize512_WinSize512_Sum_AudioCh0 > 0.011673
|   |   |   |   |   |   |   Mean_Mem20_PeakRatio_Average_Chroma_A_Power_powerFFT_WinHamming_HopSize512_WinSize512_Sum_AudioCh0 <= 1.154861
|   |   |   |   |   |   |   |   Mean_Mem20_Rolloff_Power_powerFFT_WinHamming_HopSize512_WinSize512_Sum_AudioCh0 <= 0.018288
|   |   |   |   |   |   |   |   |   Mean_Mem20_MFCC9_Power_powerFFT_WinHamming_HopSize512_WinSize512_Sum_AudioCh0 <= -0.224045
|   |   |   |   |   |   |   |   |   |   Mean_Mem20_MFCC10_Power_powerFFT_WinHamming_HopSize512_WinSize512_Sum_AudioCh0 <= 0.137381
|   |   |   |   |   |   |   |   |   |   |   Mean_Mem20_MFCC11_Power_powerFFT_WinHamming_HopSize512_WinSize512_Sum_AudioCh0 <= -0.375429
|   |   |   |   |   |   |   |   |   |   |   |   Mean_Mem20_Rolloff_Power_powerFFT_WinHamming_HopSize512_WinSize512_Sum_AudioCh0 <= 0.014981: m40 (2.0)
|   |   |   |   |   |   |   |   |   |   |   |   Mean_Mem20_Rolloff_Power_powerFFT_WinHamming_HopSize512_WinSize512_Sum_AudioCh0 > 0.014981: m29 (10.0)
|   |   |   |   |   |   |   |   |   |   |   Mean_Mem20_MFCC11_Power_powerFFT_WinHamming_HopSize512_WinSize512_Sum_AudioCh0 > -0.375429
|   |   |   |   |   |   |   |   |   |   |   |   Std_Mem20_PeakRatio_Average_Chroma_A_Power_powerFFT_WinHamming_HopSize512_WinSize512_Sum_AudioCh0 <= 0.022469: m41 (23.0)
|   |   |   |   |   |   |   |   |   |   |   |   Std_Mem20_PeakRatio_Average_Chroma_A_Power_powerFFT_WinHamming_HopSize512_WinSize512_Sum_AudioCh0 > 0.022469
|   |   |   |   |   |   |   |   |   |   |   |   |   Mean_Mem20_MFCC7_Power_powerFFT_WinHamming_HopSize512_WinSize512_Sum_AudioCh0 <= 1.131341
|   |   |   |   |   |   |   |   |   |   |   |   |   |   Std_Mem20_Centroid_Power_powerFFT_WinHamming_HopSize512_WinSize512_Sum_AudioCh0 <= 0.000743: m43 (5.0/1.0)
|   |   |   |   |   |   |   |   |   |   |   |   |   |   Std_Mem20_Centroid_Power_powerFFT_WinHamming_HopSize512_WinSize512_Sum_AudioCh0 > 0.000743
|   |   |   |   |   |   |   |   |   |   |   |   |   |   |   Mean_Mem20_MFCC12_Power_powerFFT_WinHamming_HopSize512_WinSize512_Sum_AudioCh0 <= 0.34361
|   |   |   |   |   |   |   |   |   |   |   |   |   |   |   |   Mean_Mem20_MFCC9_Power_powerFFT_WinHamming_HopSize512_WinSize512_Sum_AudioCh0 <= -0.370539: m42 (58.0/1.0)
|   |   |   |   |   |   |   |   |   |   |   |   |   |   |   |   Mean_Mem20_MFCC9_Power_powerFFT_WinHamming_HopSize512_WinSize512_Sum_AudioCh0 > -0.370539: m41 (3.0)
|   |   |   |   |   |   |   |   |   |   |   |   |   |   |   Mean_Mem20_MFCC12_Power_powerFFT_WinHamming_HopSize512_WinSize512_Sum_AudioCh0 > 0.34361
|   |   |   |   |   |   |   |   |   |   |   |   |   |   |   |   Std_Mem20_Centroid_Power_powerFFT_WinHamming_HopSize512_WinSize512_Sum_AudioCh0 <= 0.001402: m42 (2.0)
|   |   |   |   |   |   |   |   |   |   |   |   |   |   |   |   Std_Mem20_Centroid_Power_powerFFT_WinHamming_HopSize512_WinSize512_Sum_AudioCh0 > 0.001402: m27 (4.0)
|   |   |   |   |   |   |   |   |   |   |   |   |   Mean_Mem20_MFCC7_Power_powerFFT_WinHamming_HopSize512_WinSize512_Sum_AudioCh0 > 1.131341
|   |   |   |   |   |   |   |   |   |   |   |   |   |   Mean_Mem20_Centroid_Power_powerFFT_WinHamming_HopSize512_WinSize512_Sum_AudioCh0 <= 0.009508: m41 (3.0)
|   |   |   |   |   |   |   |   |   |   |   |   |   |   Mean_Mem20_Centroid_Power_powerFFT_WinHamming_HopSize512_WinSize512_Sum_AudioCh0 > 0.009508: m39 (2.0)
|   |   |   |   |   |   |   |   |   |   Mean_Mem20_MFCC10_Power_powerFFT_WinHamming_HopSize512_WinSize512_Sum_AudioCh0 > 0.137381
|   |   |   |   |   |   |   |   |   |   |   Std_Mem20_Centroid_Power_powerFFT_WinHamming_HopSize512_WinSize512_Sum_AudioCh0 <= 0.000862: m43 (23.0)
|   |   |   |   |   |   |   |   |   |   |   Std_Mem20_Centroid_Power_powerFFT_WinHamming_HopSize512_WinSize512_Sum_AudioCh0 > 0.000862: m39 (45.0/1.0)
|   |   |   |   |   |   |   |   |   Mean_Mem20_MFCC9_Power_powerFFT_WinHamming_HopSize512_WinSize512_Sum_AudioCh0 > -0.224045
|   |   |   |   |   |   |   |   |   |   Mean_Mem20_Centroid_Power_powerFFT_WinHamming_HopSize512_WinSize512_Sum_AudioCh0 <= 0.009349
|   |   |   |   |   |   |   |   |   |   |   Std_Mem20_Centroid_Power_powerFFT_WinHamming_HopSize512_WinSize512_Sum_AudioCh0 <= 0.001033
|   |   |   |   |   |   |   |   |   |   |   |   Mean_Mem20_MFCC12_Power_powerFFT_WinHamming_HopSize512_WinSize512_Sum_AudioCh0 <= 0.321602
|   |   |   |   |   |   |   |   |   |   |   |   |   Mean_Mem20_MFCC7_Power_powerFFT_WinHamming_HopSize512_WinSize512_Sum_AudioCh0 <= 0.628083
|   |   |   |   |   |   |   |   |   |   |   |   |   |   Mean_Mem20_Rolloff_Power_powerFFT_WinHamming_HopSize512_WinSize512_Sum_AudioCh0 <= 0.014591: m31 (20.0)
|   |   |   |   |   |   |   |   |   |   |   |   |   |   Mean_Mem20_Rolloff_Power_powerFFT_WinHamming_HopSize512_WinSize512_Sum_AudioCh0 > 0.014591: m28 (2.0)
|   |   |   |   |   |   |   |   |   |   |   |   |   Mean_Mem20_MFCC7_Power_powerFFT_WinHamming_HopSize512_WinSize512_Sum_AudioCh0 > 0.628083: m41 (5.0)
|   |   |   |   |   |   |   |   |   |   |   |   Mean_Mem20_MFCC12_Power_powerFFT_WinHamming_HopSize512_WinSize512_Sum_AudioCh0 > 0.321602: m40 (10.0)
|   |   |   |   |   |   |   |   |   |   |   Std_Mem20_Centroid_Power_powerFFT_WinHamming_HopSize512_WinSize512_Sum_AudioCh0 > 0.001033
|   |   |   |   |   |   |   |   |   |   |   |   Mean_Mem20_MFCC8_Power_powerFFT_WinHamming_HopSize512_WinSize512_Sum_AudioCh0 <= -0.649744: m29 (5.0)
|   |   |   |   |   |   |   |   |   |   |   |   Mean_Mem20_MFCC8_Power_powerFFT_WinHamming_HopSize512_WinSize512_Sum_AudioCh0 > -0.649744
|   |   |   |   |   |   |   |   |   |   |   |   |   Mean_Mem20_MFCC7_Power_powerFFT_WinHamming_HopSize512_WinSize512_Sum_AudioCh0 <= -0.116932
|   |   |   |   |   |   |   |   |   |   |   |   |   |   Mean_Mem20_Rolloff_Power_powerFFT_WinHamming_HopSize512_WinSize512_Sum_AudioCh0 <= 0.016732
|   |   |   |   |   |   |   |   |   |   |   |   |   |   |   Mean_Mem20_Rolloff_Power_powerFFT_WinHamming_HopSize512_WinSize512_Sum_AudioCh0 <= 0.015175: m28 (4.0)
|   |   |   |   |   |   |   |   |   |   |   |   |   |   |   Mean_Mem20_Rolloff_Power_powerFFT_WinHamming_HopSize512_WinSize512_Sum_AudioCh0 > 0.015175: m40 (9.0)
|   |   |   |   |   |   |   |   |   |   |   |   |   |   Mean_Mem20_Rolloff_Power_powerFFT_WinHamming_HopSize512_WinSize512_Sum_AudioCh0 > 0.016732: m39 (6.0)
|   |   |   |   |   |   |   |   |   |   |   |   |   Mean_Mem20_MFCC7_Power_powerFFT_WinHamming_HopSize512_WinSize512_Sum_AudioCh0 > -0.116932
|   |   |   |   |   |   |   |   |   |   |   |   |   |   Std_Mem20_PeakRatio_Minimum_Chroma_A_Power_powerFFT_WinHamming_HopSize512_WinSize512_Sum_AudioCh0 <= 0.109361: m40 (57.0)
|   |   |   |   |   |   |   |   |   |   |   |   |   |   Std_Mem20_PeakRatio_Minimum_Chroma_A_Power_powerFFT_WinHamming_HopSize512_WinSize512_Sum_AudioCh0 > 0.109361
|   |   |   |   |   |   |   |   |   |   |   |   |   |   |   Mean_Mem20_MFCC9_Power_powerFFT_WinHamming_HopSize512_WinSize512_Sum_AudioCh0 <= 0.138613: m30 (2.0)
|   |   |   |   |   |   |   |   |   |   |   |   |   |   |   Mean_Mem20_MFCC9_Power_powerFFT_WinHamming_HopSize512_WinSize512_Sum_AudioCh0 > 0.138613: m40 (7.0)
|   |   |   |   |   |   |   |   |   |   Mean_Mem20_Centroid_Power_powerFFT_WinHamming_HopSize512_WinSize512_Sum_AudioCh0 > 0.009349
|   |   |   |   |   |   |   |   |   |   |   Mean_Mem20_Rolloff_Power_powerFFT_WinHamming_HopSize512_WinSize512_Sum_AudioCh0 <= 0.014786
|   |   |   |   |   |   |   |   |   |   |   |   Mean_Mem20_MFCC9_Power_powerFFT_WinHamming_HopSize512_WinSize512_Sum_AudioCh0 <= 0.173181
|   |   |   |   |   |   |   |   |   |   |   |   |   Mean_Mem20_MFCC7_Power_powerFFT_WinHamming_HopSize512_WinSize512_Sum_AudioCh0 <= 1.053676: m48 (25.0)
|   |   |   |   |   |   |   |   |   |   |   |   |   Mean_Mem20_MFCC7_Power_powerFFT_WinHamming_HopSize512_WinSize512_Sum_AudioCh0 > 1.053676: m41 (5.0)
|   |   |   |   |   |   |   |   |   |   |   |   Mean_Mem20_MFCC9_Power_powerFFT_WinHamming_HopSize512_WinSize512_Sum_AudioCh0 > 0.173181
|   |   |   |   |   |   |   |   |   |   |   |   |   Std_Mem20_Centroid_Power_powerFFT_WinHamming_HopSize512_WinSize512_Sum_AudioCh0 <= 0.000818: m47 (16.0)
|   |   |   |   |   |   |   |   |   |   |   |   |   Std_Mem20_Centroid_Power_powerFFT_WinHamming_HopSize512_WinSize512_Sum_AudioCh0 > 0.000818: m46 (2.0)
|   |   |   |   |   |   |   |   |   |   |   Mean_Mem20_Rolloff_Power_powerFFT_WinHamming_HopSize512_WinSize512_Sum_AudioCh0 > 0.014786: m29 (16.0)
|   |   |   |   |   |   |   |   Mean_Mem20_Rolloff_Power_powerFFT_WinHamming_HopSize512_WinSize512_Sum_AudioCh0 > 0.018288
|   |   |   |   |   |   |   |   |   Mean_Mem20_MFCC12_Power_powerFFT_WinHamming_HopSize512_WinSize512_Sum_AudioCh0 <= 0.140288
|   |   |   |   |   |   |   |   |   |   Mean_Mem20_Centroid_Power_powerFFT_WinHamming_HopSize512_WinSize512_Sum_AudioCh0 <= 0.002963
|   |   |   |   |   |   |   |   |   |   |   Mean_Mem20_Rolloff_Power_powerFFT_WinHamming_HopSize512_WinSize512_Sum_AudioCh0 <= 0.951946: m106 (21.0)
|   |   |   |   |   |   |   |   |   |   |   Mean_Mem20_Rolloff_Power_powerFFT_WinHamming_HopSize512_WinSize512_Sum_AudioCh0 > 0.951946: m77 (15.0)
|   |   |   |   |   |   |   |   |   |   Mean_Mem20_Centroid_Power_powerFFT_WinHamming_HopSize512_WinSize512_Sum_AudioCh0 > 0.002963
|   |   |   |   |   |   |   |   |   |   |   Std_Mem20_PeakRatio_Minimum_Chroma_A_Power_powerFFT_WinHamming_HopSize512_WinSize512_Sum_AudioCh0 <= 0.11393
|   |   |   |   |   |   |   |   |   |   |   |   Mean_Mem20_MFCC10_Power_powerFFT_WinHamming_HopSize512_WinSize512_Sum_AudioCh0 <= -0.32063
|   |   |   |   |   |   |   |   |   |   |   |   |   Mean_Mem20_MFCC7_Power_powerFFT_WinHamming_HopSize512_WinSize512_Sum_AudioCh0 <= 0.629484
|   |   |   |   |   |   |   |   |   |   |   |   |   |   Std_Mem20_Centroid_Power_powerFFT_WinHamming_HopSize512_WinSize512_Sum_AudioCh0 <= 0.001677: m29 (5.0)
|   |   |   |   |   |   |   |   |   |   |   |   |   |   Std_Mem20_Centroid_Power_powerFFT_WinHamming_HopSize512_WinSize512_Sum_AudioCh0 > 0.001677: m42 (4.0/1.0)
|   |   |   |   |   |   |   |   |   |   |   |   |   Mean_Mem20_MFCC7_Power_powerFFT_WinHamming_HopSize512_WinSize512_Sum_AudioCh0 > 0.629484: m41 (16.0)
|   |   |   |   |   |   |   |   |   |   |   |   Mean_Mem20_MFCC10_Power_powerFFT_WinHamming_HopSize512_WinSize512_Sum_AudioCh0 > -0.32063: m41 (307.0)
|   |   |   |   |   |   |   |   |   |   |   Std_Mem20_PeakRatio_Minimum_Chroma_A_Power_powerFFT_WinHamming_HopSize512_WinSize512_Sum_AudioCh0 > 0.11393
|   |   |   |   |   |   |   |   |   |   |   |   Mean_Mem20_MFCC12_Power_powerFFT_WinHamming_HopSize512_WinSize512_Sum_AudioCh0 <= -0.097391
|   |   |   |   |   |   |   |   |   |   |   |   |   Mean_Mem20_MFCC7_Power_powerFFT_WinHamming_HopSize512_WinSize512_Sum_AudioCh0 <= 0.812238: m28 (12.0/1.0)
|   |   |   |   |   |   |   |   |   |   |   |   |   Mean_Mem20_MFCC7_Power_powerFFT_WinHamming_HopSize512_WinSize512_Sum_AudioCh0 > 0.812238: m41 (10.0)
|   |   |   |   |   |   |   |   |   |   |   |   Mean_Mem20_MFCC12_Power_powerFFT_WinHamming_HopSize512_WinSize512_Sum_AudioCh0 > -0.097391
|   |   |   |   |   |   |   |   |   |   |   |   |   Std_Mem20_Centroid_Power_powerFFT_WinHamming_HopSize512_WinSize512_Sum_AudioCh0 <= 0.003023
|   |   |   |   |   |   |   |   |   |   |   |   |   |   Mean_Mem20_MFCC8_Power_powerFFT_WinHamming_HopSize512_WinSize512_Sum_AudioCh0 <= 0.118239: m29 (8.0)
|   |   |   |   |   |   |   |   |   |   |   |   |   |   Mean_Mem20_MFCC8_Power_powerFFT_WinHamming_HopSize512_WinSize512_Sum_AudioCh0 > 0.118239: m40 (3.0)
|   |   |   |   |   |   |   |   |   |   |   |   |   Std_Mem20_Centroid_Power_powerFFT_WinHamming_HopSize512_WinSize512_Sum_AudioCh0 > 0.003023: m26 (5.0)
|   |   |   |   |   |   |   |   |   Mean_Mem20_MFCC12_Power_powerFFT_WinHamming_HopSize512_WinSize512_Sum_AudioCh0 > 0.140288
|   |   |   |   |   |   |   |   |   |   Mean_Mem20_MFCC10_Power_powerFFT_WinHamming_HopSize512_WinSize512_Sum_AudioCh0 <= 0.197685
|   |   |   |   |   |   |   |   |   |   |   Mean_Mem20_MFCC7_Power_powerFFT_WinHamming_HopSize512_WinSize512_Sum_AudioCh0 <= -0.162155
|   |   |   |   |   |   |   |   |   |   |   |   Mean_Mem20_Rolloff_Power_powerFFT_WinHamming_HopSize512_WinSize512_Sum_AudioCh0 <= 0.360311: m39 (19.0)
|   |   |   |   |   |   |   |   |   |   |   |   Mean_Mem20_Rolloff_Power_powerFFT_WinHamming_HopSize512_WinSize512_Sum_AudioCh0 > 0.360311
|   |   |   |   |   |   |   |   |   |   |   |   |   Mean_Mem20_Rolloff_Power_powerFFT_WinHamming_HopSize512_WinSize512_Sum_AudioCh0 <= 0.924514: m30 (24.0)
|   |   |   |   |   |   |   |   |   |   |   |   |   Mean_Mem20_Rolloff_Power_powerFFT_WinHamming_HopSize512_WinSize512_Sum_AudioCh0 > 0.924514
|   |   |   |   |   |   |   |   |   |   |   |   |   |   Mean_Mem20_Centroid_Power_powerFFT_WinHamming_HopSize512_WinSize512_Sum_AudioCh0 <= 0.003408: m100 (7.0)
|   |   |   |   |   |   |   |   |   |   |   |   |   |   Mean_Mem20_Centroid_Power_powerFFT_WinHamming_HopSize512_WinSize512_Sum_AudioCh0 > 0.003408: m29 (7.0)
|   |   |   |   |   |   |   |   |   |   |   Mean_Mem20_MFCC7_Power_powerFFT_WinHamming_HopSize512_WinSize512_Sum_AudioCh0 > -0.162155
|   |   |   |   |   |   |   |   |   |   |   |   Mean_Mem20_PeakRatio_Average_Chroma_A_Power_powerFFT_WinHamming_HopSize512_WinSize512_Sum_AudioCh0 <= 1.100548
|   |   |   |   |   |   |   |   |   |   |   |   |   Std_Mem20_PeakRatio_Minimum_Chroma_A_Power_powerFFT_WinHamming_HopSize512_WinSize512_Sum_AudioCh0 <= 0.079837
|   |   |   |   |   |   |   |   |   |   |   |   |   |   Mean_Mem20_PeakRatio_Average_Chroma_A_Power_powerFFT_WinHamming_HopSize512_WinSize512_Sum_AudioCh0 <= 1.086553: m41 (28.0/1.0)
|   |   |   |   |   |   |   |   |   |   |   |   |   |   Mean_Mem20_PeakRatio_Average_Chroma_A_Power_powerFFT_WinHamming_HopSize512_WinSize512_Sum_AudioCh0 > 1.086553
|   |   |   |   |   |   |   |   |   |   |   |   |   |   |   Std_Mem20_Centroid_Power_powerFFT_WinHamming_HopSize512_WinSize512_Sum_AudioCh0 <= 0.001617
|   |   |   |   |   |   |   |   |   |   |   |   |   |   |   |   Mean_Mem20_PeakRatio_Minimum_Chroma_A_Power_powerFFT_WinHamming_HopSize512_WinSize512_Sum_AudioCh0 <= 1.248471: m39 (2.0)
|   |   |   |   |   |   |   |   |   |   |   |   |   |   |   |   Mean_Mem20_PeakRatio_Minimum_Chroma_A_Power_powerFFT_WinHamming_HopSize512_WinSize512_Sum_AudioCh0 > 1.248471: m29 (57.0/1.0)
|   |   |   |   |   |   |   |   |   |   |   |   |   |   |   Std_Mem20_Centroid_Power_powerFFT_WinHamming_HopSize512_WinSize512_Sum_AudioCh0 > 0.001617: m40 (5.0)
|   |   |   |   |   |   |   |   |   |   |   |   |   Std_Mem20_PeakRatio_Minimum_Chroma_A_Power_powerFFT_WinHamming_HopSize512_WinSize512_Sum_AudioCh0 > 0.079837
|   |   |   |   |   |   |   |   |   |   |   |   |   |   Std_Mem20_Centroid_Power_powerFFT_WinHamming_HopSize512_WinSize512_Sum_AudioCh0 <= 0.000905: m41 (16.0)
|   |   |   |   |   |   |   |   |   |   |   |   |   |   Std_Mem20_Centroid_Power_powerFFT_WinHamming_HopSize512_WinSize512_Sum_AudioCh0 > 0.000905
|   |   |   |   |   |   |   |   |   |   |   |   |   |   |   Std_Mem20_PeakRatio_Average_Chroma_A_Power_powerFFT_WinHamming_HopSize512_WinSize512_Sum_AudioCh0 <= 0.019585: m29 (3.0)
|   |   |   |   |   |   |   |   |   |   |   |   |   |   |   Std_Mem20_PeakRatio_Average_Chroma_A_Power_powerFFT_WinHamming_HopSize512_WinSize512_Sum_AudioCh0 > 0.019585
|   |   |   |   |   |   |   |   |   |   |   |   |   |   |   |   Mean_Mem20_MFCC8_Power_powerFFT_WinHamming_HopSize512_WinSize512_Sum_AudioCh0 <= -0.331275: m41 (4.0)
|   |   |   |   |   |   |   |   |   |   |   |   |   |   |   |   Mean_Mem20_MFCC8_Power_powerFFT_WinHamming_HopSize512_WinSize512_Sum_AudioCh0 > -0.331275: m39 (95.0/1.0)
|   |   |   |   |   |   |   |   |   |   |   |   Mean_Mem20_PeakRatio_Average_Chroma_A_Power_powerFFT_WinHamming_HopSize512_WinSize512_Sum_AudioCh0 > 1.100548
|   |   |   |   |   |   |   |   |   |   |   |   |   Mean_Mem20_MFCC12_Power_powerFFT_WinHamming_HopSize512_WinSize512_Sum_AudioCh0 <= 0.801452
|   |   |   |   |   |   |   |   |   |   |   |   |   |   Mean_Mem20_MFCC11_Power_powerFFT_WinHamming_HopSize512_WinSize512_Sum_AudioCh0 <= 0.590827
|   |   |   |   |   |   |   |   |   |   |   |   |   |   |   Mean_Mem20_MFCC9_Power_powerFFT_WinHamming_HopSize512_WinSize512_Sum_AudioCh0 <= -0.12022
|   |   |   |   |   |   |   |   |   |   |   |   |   |   |   |   Mean_Mem20_MFCC11_Power_powerFFT_WinHamming_HopSize512_WinSize512_Sum_AudioCh0 <= 0.114213: m29 (13.0)
|   |   |   |   |   |   |   |   |   |   |   |   |   |   |   |   Mean_Mem20_MFCC11_Power_powerFFT_WinHamming_HopSize512_WinSize512_Sum_AudioCh0 > 0.114213
|   |   |   |   |   |   |   |   |   |   |   |   |   |   |   |   |   Mean_Mem20_Rolloff_Power_powerFFT_WinHamming_HopSize512_WinSize512_Sum_AudioCh0 <= 0.628599: m41 (17.0)
|   |   |   |   |   |   |   |   |   |   |   |   |   |   |   |   |   Mean_Mem20_Rolloff_Power_powerFFT_WinHamming_HopSize512_WinSize512_Sum_AudioCh0 > 0.628599: m40 (12.0/1.0)
|   |   |   |   |   |   |   |   |   |   |   |   |   |   |   Mean_Mem20_MFCC9_Power_powerFFT_WinHamming_HopSize512_WinSize512_Sum_AudioCh0 > -0.12022
|   |   |   |   |   |   |   |   |   |   |   |   |   |   |   |   Mean_Mem20_Centroid_Power_powerFFT_WinHamming_HopSize512_WinSize512_Sum_AudioCh0 <= 0.00724: m29 (109.0/2.0)
|   |   |   |   |   |   |   |   |   |   |   |   |   |   |   |   Mean_Mem20_Centroid_Power_powerFFT_WinHamming_HopSize512_WinSize512_Sum_AudioCh0 > 0.00724
|   |   |   |   |   |   |   |   |   |   |   |   |   |   |   |   |   Mean_Mem20_Centroid_Power_powerFFT_WinHamming_HopSize512_WinSize512_Sum_AudioCh0 <= 0.00825: m40 (2.0)
|   |   |   |   |   |   |   |   |   |   |   |   |   |   |   |   |   Mean_Mem20_Centroid_Power_powerFFT_WinHamming_HopSize512_WinSize512_Sum_AudioCh0 > 0.00825: m41 (2.0)
|   |   |   |   |   |   |   |   |   |   |   |   |   |   Mean_Mem20_MFCC11_Power_powerFFT_WinHamming_HopSize512_WinSize512_Sum_AudioCh0 > 0.590827
|   |   |   |   |   |   |   |   |   |   |   |   |   |   |   Mean_Mem20_Rolloff_Power_powerFFT_WinHamming_HopSize512_WinSize512_Sum_AudioCh0 <= 0.505447: m28 (2.0/1.0)
|   |   |   |   |   |   |   |   |   |   |   |   |   |   |   Mean_Mem20_Rolloff_Power_powerFFT_WinHamming_HopSize512_WinSize512_Sum_AudioCh0 > 0.505447: m40 (22.0)
|   |   |   |   |   |   |   |   |   |   |   |   |   Mean_Mem20_MFCC12_Power_powerFFT_WinHamming_HopSize512_WinSize512_Sum_AudioCh0 > 0.801452: m41 (21.0)
|   |   |   |   |   |   |   |   |   |   Mean_Mem20_MFCC10_Power_powerFFT_WinHamming_HopSize512_WinSize512_Sum_AudioCh0 > 0.197685
|   |   |   |   |   |   |   |   |   |   |   Std_Mem20_PeakRatio_Minimum_Chroma_A_Power_powerFFT_WinHamming_HopSize512_WinSize512_Sum_AudioCh0 <= 0.133373
|   |   |   |   |   |   |   |   |   |   |   |   Std_Mem20_Centroid_Power_powerFFT_WinHamming_HopSize512_WinSize512_Sum_AudioCh0 <= 0.000704
|   |   |   |   |   |   |   |   |   |   |   |   |   Mean_Mem20_MFCC7_Power_powerFFT_WinHamming_HopSize512_WinSize512_Sum_AudioCh0 <= -0.293532: m31 (5.0)
|   |   |   |   |   |   |   |   |   |   |   |   |   Mean_Mem20_MFCC7_Power_powerFFT_WinHamming_HopSize512_WinSize512_Sum_AudioCh0 > -0.293532: m41 (20.0)
|   |   |   |   |   |   |   |   |   |   |   |   Std_Mem20_Centroid_Power_powerFFT_WinHamming_HopSize512_WinSize512_Sum_AudioCh0 > 0.000704
|   |   |   |   |   |   |   |   |   |   |   |   |   Std_Mem20_PeakRatio_Average_Chroma_A_Power_powerFFT_WinHamming_HopSize512_WinSize512_Sum_AudioCh0 <= 0.021209
|   |   |   |   |   |   |   |   |   |   |   |   |   |   Mean_Mem20_Centroid_Power_powerFFT_WinHamming_HopSize512_WinSize512_Sum_AudioCh0 <= 0.0063: m106 (2.0)
|   |   |   |   |   |   |   |   |   |   |   |   |   |   Mean_Mem20_Centroid_Power_powerFFT_WinHamming_HopSize512_WinSize512_Sum_AudioCh0 > 0.0063: m41 (4.0)
|   |   |   |   |   |   |   |   |   |   |   |   |   Std_Mem20_PeakRatio_Average_Chroma_A_Power_powerFFT_WinHamming_HopSize512_WinSize512_Sum_AudioCh0 > 0.021209: m22 (46.0)
|   |   |   |   |   |   |   |   |   |   |   Std_Mem20_PeakRatio_Minimum_Chroma_A_Power_powerFFT_WinHamming_HopSize512_WinSize512_Sum_AudioCh0 > 0.133373
|   |   |   |   |   |   |   |   |   |   |   |   Mean_Mem20_Rolloff_Power_powerFFT_WinHamming_HopSize512_WinSize512_Sum_AudioCh0 <= 0.456615: m28 (8.0)
|   |   |   |   |   |   |   |   |   |   |   |   Mean_Mem20_Rolloff_Power_powerFFT_WinHamming_HopSize512_WinSize512_Sum_AudioCh0 > 0.456615: m21 (2.0)
|   |   |   |   |   |   |   Mean_Mem20_PeakRatio_Average_Chroma_A_Power_powerFFT_WinHamming_HopSize512_WinSize512_Sum_AudioCh0 > 1.154861
|   |   |   |   |   |   |   |   Mean_Mem20_MFCC7_Power_powerFFT_WinHamming_HopSize512_WinSize512_Sum_AudioCh0 <= 0.135255
|   |   |   |   |   |   |   |   |   Mean_Mem20_MFCC11_Power_powerFFT_WinHamming_HopSize512_WinSize512_Sum_AudioCh0 <= 0.168671
|   |   |   |   |   |   |   |   |   |   Mean_Mem20_MFCC7_Power_powerFFT_WinHamming_HopSize512_WinSize512_Sum_AudioCh0 <= -0.336391
|   |   |   |   |   |   |   |   |   |   |   Mean_Mem20_Rolloff_Power_powerFFT_WinHamming_HopSize512_WinSize512_Sum_AudioCh0 <= 0.017121: m42 (19.0)
|   |   |   |   |   |   |   |   |   |   |   Mean_Mem20_Rolloff_Power_powerFFT_WinHamming_HopSize512_WinSize512_Sum_AudioCh0 > 0.017121: m29 (2.0)
|   |   |   |   |   |   |   |   |   |   Mean_Mem20_MFCC7_Power_powerFFT_WinHamming_HopSize512_WinSize512_Sum_AudioCh0 > -0.336391
|   |   |   |   |   |   |   |   |   |   |   Mean_Mem20_MFCC8_Power_powerFFT_WinHamming_HopSize512_WinSize512_Sum_AudioCh0 <= 0.254761
|   |   |   |   |   |   |   |   |   |   |   |   Std_Mem20_Centroid_Power_powerFFT_WinHamming_HopSize512_WinSize512_Sum_AudioCh0 <= 0.001548: m30 (5.0)
|   |   |   |   |   |   |   |   |   |   |   |   Std_Mem20_Centroid_Power_powerFFT_WinHamming_HopSize512_WinSize512_Sum_AudioCh0 > 0.001548: m31 (3.0)
|   |   |   |   |   |   |   |   |   |   |   Mean_Mem20_MFCC8_Power_powerFFT_WinHamming_HopSize512_WinSize512_Sum_AudioCh0 > 0.254761: m28 (11.0)
|   |   |   |   |   |   |   |   |   Mean_Mem20_MFCC11_Power_powerFFT_WinHamming_HopSize512_WinSize512_Sum_AudioCh0 > 0.168671
|   |   |   |   |   |   |   |   |   |   Mean_Mem20_MFCC12_Power_powerFFT_WinHamming_HopSize512_WinSize512_Sum_AudioCh0 <= 0.343311
|   |   |   |   |   |   |   |   |   |   |   Mean_Mem20_Centroid_Power_powerFFT_WinHamming_HopSize512_WinSize512_Sum_AudioCh0 <= 0.008758
|   |   |   |   |   |   |   |   |   |   |   |   Std_Mem20_Centroid_Power_powerFFT_WinHamming_HopSize512_WinSize512_Sum_AudioCh0 <= 0.001319: m43 (37.0)
|   |   |   |   |   |   |   |   |   |   |   |   Std_Mem20_Centroid_Power_powerFFT_WinHamming_HopSize512_WinSize512_Sum_AudioCh0 > 0.001319: m22 (4.0)
|   |   |   |   |   |   |   |   |   |   |   Mean_Mem20_Centroid_Power_powerFFT_WinHamming_HopSize512_WinSize512_Sum_AudioCh0 > 0.008758
|   |   |   |   |   |   |   |   |   |   |   |   Mean_Mem20_Rolloff_Power_powerFFT_WinHamming_HopSize512_WinSize512_Sum_AudioCh0 <= 0.01537
|   |   |   |   |   |   |   |   |   |   |   |   |   Mean_Mem20_Centroid_Power_powerFFT_WinHamming_HopSize512_WinSize512_Sum_AudioCh0 <= 0.009183: m47 (2.0)
|   |   |   |   |   |   |   |   |   |   |   |   |   Mean_Mem20_Centroid_Power_powerFFT_WinHamming_HopSize512_WinSize512_Sum_AudioCh0 > 0.009183: m41 (4.0)
|   |   |   |   |   |   |   |   |   |   |   |   Mean_Mem20_Rolloff_Power_powerFFT_WinHamming_HopSize512_WinSize512_Sum_AudioCh0 > 0.01537
|   |   |   |   |   |   |   |   |   |   |   |   |   Mean_Mem20_Centroid_Power_powerFFT_WinHamming_HopSize512_WinSize512_Sum_AudioCh0 <= 0.010179: m26 (3.0/1.0)
|   |   |   |   |   |   |   |   |   |   |   |   |   Mean_Mem20_Centroid_Power_powerFFT_WinHamming_HopSize512_WinSize512_Sum_AudioCh0 > 0.010179: m28 (2.0/1.0)
|   |   |   |   |   |   |   |   |   |   Mean_Mem20_MFCC12_Power_powerFFT_WinHamming_HopSize512_WinSize512_Sum_AudioCh0 > 0.343311
|   |   |   |   |   |   |   |   |   |   |   Mean_Mem20_MFCC8_Power_powerFFT_WinHamming_HopSize512_WinSize512_Sum_AudioCh0 <= -0.223681
|   |   |   |   |   |   |   |   |   |   |   |   Mean_Mem20_Rolloff_Power_powerFFT_WinHamming_HopSize512_WinSize512_Sum_AudioCh0 <= 0.063035: m43 (14.0)
|   |   |   |   |   |   |   |   |   |   |   |   Mean_Mem20_Rolloff_Power_powerFFT_WinHamming_HopSize512_WinSize512_Sum_AudioCh0 > 0.063035
|   |   |   |   |   |   |   |   |   |   |   |   |   Mean_Mem20_MFCC7_Power_powerFFT_WinHamming_HopSize512_WinSize512_Sum_AudioCh0 <= -0.177712: m31 (8.0)
|   |   |   |   |   |   |   |   |   |   |   |   |   Mean_Mem20_MFCC7_Power_powerFFT_WinHamming_HopSize512_WinSize512_Sum_AudioCh0 > -0.177712
|   |   |   |   |   |   |   |   |   |   |   |   |   |   Std_Mem20_PeakRatio_Average_Chroma_A_Power_powerFFT_WinHamming_HopSize512_WinSize512_Sum_AudioCh0 <= 0.026102: m41 (3.0)
|   |   |   |   |   |   |   |   |   |   |   |   |   |   Std_Mem20_PeakRatio_Average_Chroma_A_Power_powerFFT_WinHamming_HopSize512_WinSize512_Sum_AudioCh0 > 0.026102: m30 (4.0)
|   |   |   |   |   |   |   |   |   |   |   Mean_Mem20_MFCC8_Power_powerFFT_WinHamming_HopSize512_WinSize512_Sum_AudioCh0 > -0.223681
|   |   |   |   |   |   |   |   |   |   |   |   Mean_Mem20_MFCC10_Power_powerFFT_WinHamming_HopSize512_WinSize512_Sum_AudioCh0 <= 0.481212: m31 (171.0)
|   |   |   |   |   |   |   |   |   |   |   |   Mean_Mem20_MFCC10_Power_powerFFT_WinHamming_HopSize512_WinSize512_Sum_AudioCh0 > 0.481212
|   |   |   |   |   |   |   |   |   |   |   |   |   Mean_Mem20_Centroid_Power_powerFFT_WinHamming_HopSize512_WinSize512_Sum_AudioCh0 <= 0.007967: m22 (2.0/1.0)
|   |   |   |   |   |   |   |   |   |   |   |   |   Mean_Mem20_Centroid_Power_powerFFT_WinHamming_HopSize512_WinSize512_Sum_AudioCh0 > 0.007967: m41 (4.0)
|   |   |   |   |   |   |   |   Mean_Mem20_MFCC7_Power_powerFFT_WinHamming_HopSize512_WinSize512_Sum_AudioCh0 > 0.135255
|   |   |   |   |   |   |   |   |   Mean_Mem20_MFCC7_Power_powerFFT_WinHamming_HopSize512_WinSize512_Sum_AudioCh0 <= 0.384
|   |   |   |   |   |   |   |   |   |   Mean_Mem20_MFCC10_Power_powerFFT_WinHamming_HopSize512_WinSize512_Sum_AudioCh0 <= 0.110419
|   |   |   |   |   |   |   |   |   |   |   Mean_Mem20_MFCC9_Power_powerFFT_WinHamming_HopSize512_WinSize512_Sum_AudioCh0 <= 0.322861
|   |   |   |   |   |   |   |   |   |   |   |   Mean_Mem20_PeakRatio_Minimum_Chroma_A_Power_powerFFT_WinHamming_HopSize512_WinSize512_Sum_AudioCh0 <= 1.463788
|   |   |   |   |   |   |   |   |   |   |   |   |   Mean_Mem20_Rolloff_Power_powerFFT_WinHamming_HopSize512_WinSize512_Sum_AudioCh0 <= 0.017121: m30 (13.0/1.0)
|   |   |   |   |   |   |   |   |   |   |   |   |   Mean_Mem20_Rolloff_Power_powerFFT_WinHamming_HopSize512_WinSize512_Sum_AudioCh0 > 0.017121
|   |   |   |   |   |   |   |   |   |   |   |   |   |   Std_Mem20_Centroid_Power_powerFFT_WinHamming_HopSize512_WinSize512_Sum_AudioCh0 <= 0.001482: m31 (2.0)
|   |   |   |   |   |   |   |   |   |   |   |   |   |   Std_Mem20_Centroid_Power_powerFFT_WinHamming_HopSize512_WinSize512_Sum_AudioCh0 > 0.001482: m40 (6.0)
|   |   |   |   |   |   |   |   |   |   |   |   Mean_Mem20_PeakRatio_Minimum_Chroma_A_Power_powerFFT_WinHamming_HopSize512_WinSize512_Sum_AudioCh0 > 1.463788
|   |   |   |   |   |   |   |   |   |   |   |   |   Mean_Mem20_MFCC11_Power_powerFFT_WinHamming_HopSize512_WinSize512_Sum_AudioCh0 <= 0.300491: m29 (33.0)
|   |   |   |   |   |   |   |   |   |   |   |   |   Mean_Mem20_MFCC11_Power_powerFFT_WinHamming_HopSize512_WinSize512_Sum_AudioCh0 > 0.300491
|   |   |   |   |   |   |   |   |   |   |   |   |   |   Mean_Mem20_Rolloff_Power_powerFFT_WinHamming_HopSize512_WinSize512_Sum_AudioCh0 <= 0.187743: m27 (4.0)
|   |   |   |   |   |   |   |   |   |   |   |   |   |   Mean_Mem20_Rolloff_Power_powerFFT_WinHamming_HopSize512_WinSize512_Sum_AudioCh0 > 0.187743: m41 (3.0)
|   |   |   |   |   |   |   |   |   |   |   Mean_Mem20_MFCC9_Power_powerFFT_WinHamming_HopSize512_WinSize512_Sum_AudioCh0 > 0.322861
|   |   |   |   |   |   |   |   |   |   |   |   Mean_Mem20_Centroid_Power_powerFFT_WinHamming_HopSize512_WinSize512_Sum_AudioCh0 <= 0.008469: m26 (5.0)
|   |   |   |   |   |   |   |   |   |   |   |   Mean_Mem20_Centroid_Power_powerFFT_WinHamming_HopSize512_WinSize512_Sum_AudioCh0 > 0.008469: m28 (13.0)
|   |   |   |   |   |   |   |   |   |   Mean_Mem20_MFCC10_Power_powerFFT_WinHamming_HopSize512_WinSize512_Sum_AudioCh0 > 0.110419
|   |   |   |   |   |   |   |   |   |   |   Std_Mem20_Centroid_Power_powerFFT_WinHamming_HopSize512_WinSize512_Sum_AudioCh0 <= 0.001396
|   |   |   |   |   |   |   |   |   |   |   |   Std_Mem20_Centroid_Power_powerFFT_WinHamming_HopSize512_WinSize512_Sum_AudioCh0 <= 0.000593
|   |   |   |   |   |   |   |   |   |   |   |   |   Mean_Mem20_Centroid_Power_powerFFT_WinHamming_HopSize512_WinSize512_Sum_AudioCh0 <= 0.008193: m41 (3.0)
|   |   |   |   |   |   |   |   |   |   |   |   |   Mean_Mem20_Centroid_Power_powerFFT_WinHamming_HopSize512_WinSize512_Sum_AudioCh0 > 0.008193: m47 (3.0)
|   |   |   |   |   |   |   |   |   |   |   |   Std_Mem20_Centroid_Power_powerFFT_WinHamming_HopSize512_WinSize512_Sum_AudioCh0 > 0.000593
|   |   |   |   |   |   |   |   |   |   |   |   |   Mean_Mem20_Rolloff_Power_powerFFT_WinHamming_HopSize512_WinSize512_Sum_AudioCh0 <= 0.655447: m43 (42.0)
|   |   |   |   |   |   |   |   |   |   |   |   |   Mean_Mem20_Rolloff_Power_powerFFT_WinHamming_HopSize512_WinSize512_Sum_AudioCh0 > 0.655447: m42 (2.0)
|   |   |   |   |   |   |   |   |   |   |   Std_Mem20_Centroid_Power_powerFFT_WinHamming_HopSize512_WinSize512_Sum_AudioCh0 > 0.001396
|   |   |   |   |   |   |   |   |   |   |   |   Std_Mem20_Centroid_Power_powerFFT_WinHamming_HopSize512_WinSize512_Sum_AudioCh0 <= 0.001978
|   |   |   |   |   |   |   |   |   |   |   |   |   Mean_Mem20_MFCC9_Power_powerFFT_WinHamming_HopSize512_WinSize512_Sum_AudioCh0 <= 0.034786: m41 (4.0)
|   |   |   |   |   |   |   |   |   |   |   |   |   Mean_Mem20_MFCC9_Power_powerFFT_WinHamming_HopSize512_WinSize512_Sum_AudioCh0 > 0.034786: m29 (2.0/1.0)
|   |   |   |   |   |   |   |   |   |   |   |   Std_Mem20_Centroid_Power_powerFFT_WinHamming_HopSize512_WinSize512_Sum_AudioCh0 > 0.001978: m26 (15.0)
|   |   |   |   |   |   |   |   |   Mean_Mem20_MFCC7_Power_powerFFT_WinHamming_HopSize512_WinSize512_Sum_AudioCh0 > 0.384
|   |   |   |   |   |   |   |   |   |   Mean_Mem20_MFCC11_Power_powerFFT_WinHamming_HopSize512_WinSize512_Sum_AudioCh0 <= 0.593203
|   |   |   |   |   |   |   |   |   |   |   Std_Mem20_Centroid_Power_powerFFT_WinHamming_HopSize512_WinSize512_Sum_AudioCh0 <= 0.000772
|   |   |   |   |   |   |   |   |   |   |   |   Mean_Mem20_Rolloff_Power_powerFFT_WinHamming_HopSize512_WinSize512_Sum_AudioCh0 <= 0.022957: m29 (5.0/1.0)
|   |   |   |   |   |   |   |   |   |   |   |   Mean_Mem20_Rolloff_Power_powerFFT_WinHamming_HopSize512_WinSize512_Sum_AudioCh0 > 0.022957: m41 (37.0)
|   |   |   |   |   |   |   |   |   |   |   Std_Mem20_Centroid_Power_powerFFT_WinHamming_HopSize512_WinSize512_Sum_AudioCh0 > 0.000772
|   |   |   |   |   |   |   |   |   |   |   |   Mean_Mem20_MFCC8_Power_powerFFT_WinHamming_HopSize512_WinSize512_Sum_AudioCh0 <= 0.635779
|   |   |   |   |   |   |   |   |   |   |   |   |   Mean_Mem20_MFCC9_Power_powerFFT_WinHamming_HopSize512_WinSize512_Sum_AudioCh0 <= 0.068845: m41 (4.0)
|   |   |   |   |   |   |   |   |   |   |   |   |   Mean_Mem20_MFCC9_Power_powerFFT_WinHamming_HopSize512_WinSize512_Sum_AudioCh0 > 0.068845: m56 (2.0)
|   |   |   |   |   |   |   |   |   |   |   |   Mean_Mem20_MFCC8_Power_powerFFT_WinHamming_HopSize512_WinSize512_Sum_AudioCh0 > 0.635779: m29 (32.0/1.0)
|   |   |   |   |   |   |   |   |   |   Mean_Mem20_MFCC11_Power_powerFFT_WinHamming_HopSize512_WinSize512_Sum_AudioCh0 > 0.593203
|   |   |   |   |   |   |   |   |   |   |   Std_Mem20_PeakRatio_Minimum_Chroma_A_Power_powerFFT_WinHamming_HopSize512_WinSize512_Sum_AudioCh0 <= 0.079183: m41 (6.0)
|   |   |   |   |   |   |   |   |   |   |   Std_Mem20_PeakRatio_Minimum_Chroma_A_Power_powerFFT_WinHamming_HopSize512_WinSize512_Sum_AudioCh0 > 0.079183
|   |   |   |   |   |   |   |   |   |   |   |   Mean_Mem20_Centroid_Power_powerFFT_WinHamming_HopSize512_WinSize512_Sum_AudioCh0 <= 0.008276: m32 (54.0/1.0)
|   |   |   |   |   |   |   |   |   |   |   |   Mean_Mem20_Centroid_Power_powerFFT_WinHamming_HopSize512_WinSize512_Sum_AudioCh0 > 0.008276: m41 (4.0)
|   |   |   |   |   Mean_Mem20_PeakRatio_Minimum_Chroma_A_Power_powerFFT_WinHamming_HopSize512_WinSize512_Sum_AudioCh0 > 1.585107
|   |   |   |   |   |   Mean_Mem20_Centroid_Power_powerFFT_WinHamming_HopSize512_WinSize512_Sum_AudioCh0 <= 0.006692
|   |   |   |   |   |   |   Mean_Mem20_MFCC9_Power_powerFFT_WinHamming_HopSize512_WinSize512_Sum_AudioCh0 <= -0.091038: m43 (44.0)
|   |   |   |   |   |   |   Mean_Mem20_MFCC9_Power_powerFFT_WinHamming_HopSize512_WinSize512_Sum_AudioCh0 > -0.091038
|   |   |   |   |   |   |   |   Mean_Mem20_MFCC10_Power_powerFFT_WinHamming_HopSize512_WinSize512_Sum_AudioCh0 <= 0.342262: m41 (12.0/1.0)
|   |   |   |   |   |   |   |   Mean_Mem20_MFCC10_Power_powerFFT_WinHamming_HopSize512_WinSize512_Sum_AudioCh0 > 0.342262: m32 (97.0/1.0)
|   |   |   |   |   |   Mean_Mem20_Centroid_Power_powerFFT_WinHamming_HopSize512_WinSize512_Sum_AudioCh0 > 0.006692
|   |   |   |   |   |   |   Mean_Mem20_Centroid_Power_powerFFT_WinHamming_HopSize512_WinSize512_Sum_AudioCh0 <= 0.008414
|   |   |   |   |   |   |   |   Mean_Mem20_MFCC10_Power_powerFFT_WinHamming_HopSize512_WinSize512_Sum_AudioCh0 <= 0.348999
|   |   |   |   |   |   |   |   |   Std_Mem20_Centroid_Power_powerFFT_WinHamming_HopSize512_WinSize512_Sum_AudioCh0 <= 0.00234
|   |   |   |   |   |   |   |   |   |   Std_Mem20_Centroid_Power_powerFFT_WinHamming_HopSize512_WinSize512_Sum_AudioCh0 <= 0.000726
|   |   |   |   |   |   |   |   |   |   |   Mean_Mem20_MFCC7_Power_powerFFT_WinHamming_HopSize512_WinSize512_Sum_AudioCh0 <= 0.691144: m46 (4.0)
|   |   |   |   |   |   |   |   |   |   |   Mean_Mem20_MFCC7_Power_powerFFT_WinHamming_HopSize512_WinSize512_Sum_AudioCh0 > 0.691144: m41 (2.0)
|   |   |   |   |   |   |   |   |   |   Std_Mem20_Centroid_Power_powerFFT_WinHamming_HopSize512_WinSize512_Sum_AudioCh0 > 0.000726: m29 (5.0)
|   |   |   |   |   |   |   |   |   Std_Mem20_Centroid_Power_powerFFT_WinHamming_HopSize512_WinSize512_Sum_AudioCh0 > 0.00234: m26 (13.0)
|   |   |   |   |   |   |   |   Mean_Mem20_MFCC10_Power_powerFFT_WinHamming_HopSize512_WinSize512_Sum_AudioCh0 > 0.348999
|   |   |   |   |   |   |   |   |   Mean_Mem20_PeakRatio_Average_Chroma_A_Power_powerFFT_WinHamming_HopSize512_WinSize512_Sum_AudioCh0 <= 1.192187: m33 (306.0)
|   |   |   |   |   |   |   |   |   Mean_Mem20_PeakRatio_Average_Chroma_A_Power_powerFFT_WinHamming_HopSize512_WinSize512_Sum_AudioCh0 > 1.192187
|   |   |   |   |   |   |   |   |   |   Mean_Mem20_Rolloff_Power_powerFFT_WinHamming_HopSize512_WinSize512_Sum_AudioCh0 <= 0.085214: m42 (14.0)
|   |   |   |   |   |   |   |   |   |   Mean_Mem20_Rolloff_Power_powerFFT_WinHamming_HopSize512_WinSize512_Sum_AudioCh0 > 0.085214: m22 (6.0)
|   |   |   |   |   |   |   Mean_Mem20_Centroid_Power_powerFFT_WinHamming_HopSize512_WinSize512_Sum_AudioCh0 > 0.008414
|   |   |   |   |   |   |   |   Mean_Mem20_MFCC12_Power_powerFFT_WinHamming_HopSize512_WinSize512_Sum_AudioCh0 <= 0.240557
|   |   |   |   |   |   |   |   |   Std_Mem20_Centroid_Power_powerFFT_WinHamming_HopSize512_WinSize512_Sum_AudioCh0 <= 0.000594
|   |   |   |   |   |   |   |   |   |   Std_Mem20_PeakRatio_Minimum_Chroma_A_Power_powerFFT_WinHamming_HopSize512_WinSize512_Sum_AudioCh0 <= 0.112963: m47 (57.0)
|   |   |   |   |   |   |   |   |   |   Std_Mem20_PeakRatio_Minimum_Chroma_A_Power_powerFFT_WinHamming_HopSize512_WinSize512_Sum_AudioCh0 > 0.112963: m29 (2.0)
|   |   |   |   |   |   |   |   |   Std_Mem20_Centroid_Power_powerFFT_WinHamming_HopSize512_WinSize512_Sum_AudioCh0 > 0.000594
|   |   |   |   |   |   |   |   |   |   Std_Mem20_Centroid_Power_powerFFT_WinHamming_HopSize512_WinSize512_Sum_AudioCh0 <= 0.002294
|   |   |   |   |   |   |   |   |   |   |   Mean_Mem20_MFCC8_Power_powerFFT_WinHamming_HopSize512_WinSize512_Sum_AudioCh0 <= 0.204019: m29 (9.0)
|   |   |   |   |   |   |   |   |   |   |   Mean_Mem20_MFCC8_Power_powerFFT_WinHamming_HopSize512_WinSize512_Sum_AudioCh0 > 0.204019
|   |   |   |   |   |   |   |   |   |   |   |   Std_Mem20_Centroid_Power_powerFFT_WinHamming_HopSize512_WinSize512_Sum_AudioCh0 <= 0.001395: m29 (2.0)
|   |   |   |   |   |   |   |   |   |   |   |   Std_Mem20_Centroid_Power_powerFFT_WinHamming_HopSize512_WinSize512_Sum_AudioCh0 > 0.001395: m28 (21.0)
|   |   |   |   |   |   |   |   |   |   Std_Mem20_Centroid_Power_powerFFT_WinHamming_HopSize512_WinSize512_Sum_AudioCh0 > 0.002294: m26 (3.0/1.0)
|   |   |   |   |   |   |   |   Mean_Mem20_MFCC12_Power_powerFFT_WinHamming_HopSize512_WinSize512_Sum_AudioCh0 > 0.240557
|   |   |   |   |   |   |   |   |   Mean_Mem20_PeakRatio_Average_Chroma_A_Power_powerFFT_WinHamming_HopSize512_WinSize512_Sum_AudioCh0 <= 1.211597
|   |   |   |   |   |   |   |   |   |   Mean_Mem20_MFCC8_Power_powerFFT_WinHamming_HopSize512_WinSize512_Sum_AudioCh0 <= -0.016024
|   |   |   |   |   |   |   |   |   |   |   Mean_Mem20_Rolloff_Power_powerFFT_WinHamming_HopSize512_WinSize512_Sum_AudioCh0 <= 0.114981
|   |   |   |   |   |   |   |   |   |   |   |   Mean_Mem20_Rolloff_Power_powerFFT_WinHamming_HopSize512_WinSize512_Sum_AudioCh0 <= 0.014397: m45 (2.0)
|   |   |   |   |   |   |   |   |   |   |   |   Mean_Mem20_Rolloff_Power_powerFFT_WinHamming_HopSize512_WinSize512_Sum_AudioCh0 > 0.014397: m46 (7.0)
|   |   |   |   |   |   |   |   |   |   |   Mean_Mem20_Rolloff_Power_powerFFT_WinHamming_HopSize512_WinSize512_Sum_AudioCh0 > 0.114981
|   |   |   |   |   |   |   |   |   |   |   |   Mean_Mem20_Rolloff_Power_powerFFT_WinHamming_HopSize512_WinSize512_Sum_AudioCh0 <= 0.288327: m34 (3.0)
|   |   |   |   |   |   |   |   |   |   |   |   Mean_Mem20_Rolloff_Power_powerFFT_WinHamming_HopSize512_WinSize512_Sum_AudioCh0 > 0.288327: m27 (2.0)
|   |   |   |   |   |   |   |   |   |   Mean_Mem20_MFCC8_Power_powerFFT_WinHamming_HopSize512_WinSize512_Sum_AudioCh0 > -0.016024: m35 (17.0)
|   |   |   |   |   |   |   |   |   Mean_Mem20_PeakRatio_Average_Chroma_A_Power_powerFFT_WinHamming_HopSize512_WinSize512_Sum_AudioCh0 > 1.211597
|   |   |   |   |   |   |   |   |   |   Mean_Mem20_Rolloff_Power_powerFFT_WinHamming_HopSize512_WinSize512_Sum_AudioCh0 <= 0.012646: m54 (13.0)
|   |   |   |   |   |   |   |   |   |   Mean_Mem20_Rolloff_Power_powerFFT_WinHamming_HopSize512_WinSize512_Sum_AudioCh0 > 0.012646: m31 (18.0)
|   |   |   |   Mean_Mem20_Centroid_Power_powerFFT_WinHamming_HopSize512_WinSize512_Sum_AudioCh0 > 0.010448
|   |   |   |   |   Std_Mem20_PeakRatio_Minimum_Chroma_A_Power_powerFFT_WinHamming_HopSize512_WinSize512_Sum_AudioCh0 <= 0.058156
|   |   |   |   |   |   Mean_Mem20_MFCC8_Power_powerFFT_WinHamming_HopSize512_WinSize512_Sum_AudioCh0 <= 0.835853
|   |   |   |   |   |   |   Std_Mem20_Centroid_Power_powerFFT_WinHamming_HopSize512_WinSize512_Sum_AudioCh0 <= 0.000896
|   |   |   |   |   |   |   |   Mean_Mem20_Rolloff_Power_powerFFT_WinHamming_HopSize512_WinSize512_Sum_AudioCh0 <= 0.023541
|   |   |   |   |   |   |   |   |   Std_Mem20_PeakRatio_Average_Chroma_A_Power_powerFFT_WinHamming_HopSize512_WinSize512_Sum_AudioCh0 <= 0.028636
|   |   |   |   |   |   |   |   |   |   Mean_Mem20_MFCC11_Power_powerFFT_WinHamming_HopSize512_WinSize512_Sum_AudioCh0 <= -0.533167: m51 (12.0)
|   |   |   |   |   |   |   |   |   |   Mean_Mem20_MFCC11_Power_powerFFT_WinHamming_HopSize512_WinSize512_Sum_AudioCh0 > -0.533167
|   |   |   |   |   |   |   |   |   |   |   Mean_Mem20_PeakRatio_Minimum_Chroma_A_Power_powerFFT_WinHamming_HopSize512_WinSize512_Sum_AudioCh0 <= 1.399001: m56 (265.0)
|   |   |   |   |   |   |   |   |   |   |   Mean_Mem20_PeakRatio_Minimum_Chroma_A_Power_powerFFT_WinHamming_HopSize512_WinSize512_Sum_AudioCh0 > 1.399001
|   |   |   |   |   |   |   |   |   |   |   |   Mean_Mem20_MFCC11_Power_powerFFT_WinHamming_HopSize512_WinSize512_Sum_AudioCh0 <= 0.880217
|   |   |   |   |   |   |   |   |   |   |   |   |   Mean_Mem20_PeakRatio_Minimum_Chroma_A_Power_powerFFT_WinHamming_HopSize512_WinSize512_Sum_AudioCh0 <= 1.47677
|   |   |   |   |   |   |   |   |   |   |   |   |   |   Mean_Mem20_Rolloff_Power_powerFFT_WinHamming_HopSize512_WinSize512_Sum_AudioCh0 <= 0.008755: m56 (29.0)
|   |   |   |   |   |   |   |   |   |   |   |   |   |   Mean_Mem20_Rolloff_Power_powerFFT_WinHamming_HopSize512_WinSize512_Sum_AudioCh0 > 0.008755
|   |   |   |   |   |   |   |   |   |   |   |   |   |   |   Mean_Mem20_Rolloff_Power_powerFFT_WinHamming_HopSize512_WinSize512_Sum_AudioCh0 <= 0.014008
|   |   |   |   |   |   |   |   |   |   |   |   |   |   |   |   Mean_Mem20_Rolloff_Power_powerFFT_WinHamming_HopSize512_WinSize512_Sum_AudioCh0 <= 0.011284: m44 (2.0)
|   |   |   |   |   |   |   |   |   |   |   |   |   |   |   |   Mean_Mem20_Rolloff_Power_powerFFT_WinHamming_HopSize512_WinSize512_Sum_AudioCh0 > 0.011284: m49 (4.0)
|   |   |   |   |   |   |   |   |   |   |   |   |   |   |   Mean_Mem20_Rolloff_Power_powerFFT_WinHamming_HopSize512_WinSize512_Sum_AudioCh0 > 0.014008: m55 (10.0)
|   |   |   |   |   |   |   |   |   |   |   |   |   Mean_Mem20_PeakRatio_Minimum_Chroma_A_Power_powerFFT_WinHamming_HopSize512_WinSize512_Sum_AudioCh0 > 1.47677
|   |   |   |   |   |   |   |   |   |   |   |   |   |   Mean_Mem20_MFCC8_Power_powerFFT_WinHamming_HopSize512_WinSize512_Sum_AudioCh0 <= 0.264761: m55 (77.0)
|   |   |   |   |   |   |   |   |   |   |   |   |   |   Mean_Mem20_MFCC8_Power_powerFFT_WinHamming_HopSize512_WinSize512_Sum_AudioCh0 > 0.264761: m54 (7.0)
|   |   |   |   |   |   |   |   |   |   |   |   Mean_Mem20_MFCC11_Power_powerFFT_WinHamming_HopSize512_WinSize512_Sum_AudioCh0 > 0.880217: m56 (79.0)
|   |   |   |   |   |   |   |   |   Std_Mem20_PeakRatio_Average_Chroma_A_Power_powerFFT_WinHamming_HopSize512_WinSize512_Sum_AudioCh0 > 0.028636
|   |   |   |   |   |   |   |   |   |   Mean_Mem20_PeakRatio_Minimum_Chroma_A_Power_powerFFT_WinHamming_HopSize512_WinSize512_Sum_AudioCh0 <= 1.291032
|   |   |   |   |   |   |   |   |   |   |   Mean_Mem20_Rolloff_Power_powerFFT_WinHamming_HopSize512_WinSize512_Sum_AudioCh0 <= 0.019066: m56 (12.0)
|   |   |   |   |   |   |   |   |   |   |   Mean_Mem20_Rolloff_Power_powerFFT_WinHamming_HopSize512_WinSize512_Sum_AudioCh0 > 0.019066: m48 (3.0)
|   |   |   |   |   |   |   |   |   |   Mean_Mem20_PeakRatio_Minimum_Chroma_A_Power_powerFFT_WinHamming_HopSize512_WinSize512_Sum_AudioCh0 > 1.291032: m50 (16.0)
|   |   |   |   |   |   |   |   Mean_Mem20_Rolloff_Power_powerFFT_WinHamming_HopSize512_WinSize512_Sum_AudioCh0 > 0.023541
|   |   |   |   |   |   |   |   |   Mean_Mem20_Centroid_Power_powerFFT_WinHamming_HopSize512_WinSize512_Sum_AudioCh0 <= 0.014416: m48 (18.0)
|   |   |   |   |   |   |   |   |   Mean_Mem20_Centroid_Power_powerFFT_WinHamming_HopSize512_WinSize512_Sum_AudioCh0 > 0.014416
|   |   |   |   |   |   |   |   |   |   Mean_Mem20_PeakRatio_Minimum_Chroma_A_Power_powerFFT_WinHamming_HopSize512_WinSize512_Sum_AudioCh0 <= 1.341388: m56 (5.0)
|   |   |   |   |   |   |   |   |   |   Mean_Mem20_PeakRatio_Minimum_Chroma_A_Power_powerFFT_WinHamming_HopSize512_WinSize512_Sum_AudioCh0 > 1.341388: m55 (82.0)
|   |   |   |   |   |   |   Std_Mem20_Centroid_Power_powerFFT_WinHamming_HopSize512_WinSize512_Sum_AudioCh0 > 0.000896
|   |   |   |   |   |   |   |   Mean_Mem20_MFCC9_Power_powerFFT_WinHamming_HopSize512_WinSize512_Sum_AudioCh0 <= -0.432081
|   |   |   |   |   |   |   |   |   Mean_Mem20_MFCC10_Power_powerFFT_WinHamming_HopSize512_WinSize512_Sum_AudioCh0 <= 0.167012: m41 (35.0)
|   |   |   |   |   |   |   |   |   Mean_Mem20_MFCC10_Power_powerFFT_WinHamming_HopSize512_WinSize512_Sum_AudioCh0 > 0.167012: m49 (7.0)
|   |   |   |   |   |   |   |   Mean_Mem20_MFCC9_Power_powerFFT_WinHamming_HopSize512_WinSize512_Sum_AudioCh0 > -0.432081
|   |   |   |   |   |   |   |   |   Mean_Mem20_MFCC7_Power_powerFFT_WinHamming_HopSize512_WinSize512_Sum_AudioCh0 <= 1.318058
|   |   |   |   |   |   |   |   |   |   Mean_Mem20_PeakRatio_Average_Chroma_A_Power_powerFFT_WinHamming_HopSize512_WinSize512_Sum_AudioCh0 <= 1.187258
|   |   |   |   |   |   |   |   |   |   |   Mean_Mem20_MFCC10_Power_powerFFT_WinHamming_HopSize512_WinSize512_Sum_AudioCh0 <= -0.33312: m56 (50.0)
|   |   |   |   |   |   |   |   |   |   |   Mean_Mem20_MFCC10_Power_powerFFT_WinHamming_HopSize512_WinSize512_Sum_AudioCh0 > -0.33312
|   |   |   |   |   |   |   |   |   |   |   |   Mean_Mem20_PeakRatio_Minimum_Chroma_A_Power_powerFFT_WinHamming_HopSize512_WinSize512_Sum_AudioCh0 <= 1.420243
|   |   |   |   |   |   |   |   |   |   |   |   |   Mean_Mem20_MFCC11_Power_powerFFT_WinHamming_HopSize512_WinSize512_Sum_AudioCh0 <= 0.270533
|   |   |   |   |   |   |   |   |   |   |   |   |   |   Mean_Mem20_MFCC12_Power_powerFFT_WinHamming_HopSize512_WinSize512_Sum_AudioCh0 <= -0.435165: m56 (5.0)
|   |   |   |   |   |   |   |   |   |   |   |   |   |   Mean_Mem20_MFCC12_Power_powerFFT_WinHamming_HopSize512_WinSize512_Sum_AudioCh0 > -0.435165: m40 (30.0)
|   |   |   |   |   |   |   |   |   |   |   |   |   Mean_Mem20_MFCC11_Power_powerFFT_WinHamming_HopSize512_WinSize512_Sum_AudioCh0 > 0.270533
|   |   |   |   |   |   |   |   |   |   |   |   |   |   Mean_Mem20_Rolloff_Power_powerFFT_WinHamming_HopSize512_WinSize512_Sum_AudioCh0 <= 0.023152: m56 (11.0)
|   |   |   |   |   |   |   |   |   |   |   |   |   |   Mean_Mem20_Rolloff_Power_powerFFT_WinHamming_HopSize512_WinSize512_Sum_AudioCh0 > 0.023152: m44 (5.0/1.0)
|   |   |   |   |   |   |   |   |   |   |   |   Mean_Mem20_PeakRatio_Minimum_Chroma_A_Power_powerFFT_WinHamming_HopSize512_WinSize512_Sum_AudioCh0 > 1.420243
|   |   |   |   |   |   |   |   |   |   |   |   |   Mean_Mem20_MFCC9_Power_powerFFT_WinHamming_HopSize512_WinSize512_Sum_AudioCh0 <= -0.050663: m41 (4.0)
|   |   |   |   |   |   |   |   |   |   |   |   |   Mean_Mem20_MFCC9_Power_powerFFT_WinHamming_HopSize512_WinSize512_Sum_AudioCh0 > -0.050663
|   |   |   |   |   |   |   |   |   |   |   |   |   |   Mean_Mem20_Centroid_Power_powerFFT_WinHamming_HopSize512_WinSize512_Sum_AudioCh0 <= 0.014641: m44 (3.0)
|   |   |   |   |   |   |   |   |   |   |   |   |   |   Mean_Mem20_Centroid_Power_powerFFT_WinHamming_HopSize512_WinSize512_Sum_AudioCh0 > 0.014641: m57 (4.0/1.0)
|   |   |   |   |   |   |   |   |   |   Mean_Mem20_PeakRatio_Average_Chroma_A_Power_powerFFT_WinHamming_HopSize512_WinSize512_Sum_AudioCh0 > 1.187258
|   |   |   |   |   |   |   |   |   |   |   Mean_Mem20_MFCC8_Power_powerFFT_WinHamming_HopSize512_WinSize512_Sum_AudioCh0 <= 0.26155: m55 (50.0)
|   |   |   |   |   |   |   |   |   |   |   Mean_Mem20_MFCC8_Power_powerFFT_WinHamming_HopSize512_WinSize512_Sum_AudioCh0 > 0.26155
|   |   |   |   |   |   |   |   |   |   |   |   Mean_Mem20_Rolloff_Power_powerFFT_WinHamming_HopSize512_WinSize512_Sum_AudioCh0 <= 0.017315: m56 (10.0)
|   |   |   |   |   |   |   |   |   |   |   |   Mean_Mem20_Rolloff_Power_powerFFT_WinHamming_HopSize512_WinSize512_Sum_AudioCh0 > 0.017315
|   |   |   |   |   |   |   |   |   |   |   |   |   Mean_Mem20_Rolloff_Power_powerFFT_WinHamming_HopSize512_WinSize512_Sum_AudioCh0 <= 0.027626: m54 (10.0)
|   |   |   |   |   |   |   |   |   |   |   |   |   Mean_Mem20_Rolloff_Power_powerFFT_WinHamming_HopSize512_WinSize512_Sum_AudioCh0 > 0.027626: m41 (5.0)
|   |   |   |   |   |   |   |   |   Mean_Mem20_MFCC7_Power_powerFFT_WinHamming_HopSize512_WinSize512_Sum_AudioCh0 > 1.318058: m39 (19.0)
|   |   |   |   |   |   Mean_Mem20_MFCC8_Power_powerFFT_WinHamming_HopSize512_WinSize512_Sum_AudioCh0 > 0.835853
|   |   |   |   |   |   |   Mean_Mem20_PeakRatio_Average_Chroma_A_Power_powerFFT_WinHamming_HopSize512_WinSize512_Sum_AudioCh0 <= 1.170464: m62 (22.0/1.0)
|   |   |   |   |   |   |   Mean_Mem20_PeakRatio_Average_Chroma_A_Power_powerFFT_WinHamming_HopSize512_WinSize512_Sum_AudioCh0 > 1.170464: m57 (65.0)
|   |   |   |   |   Std_Mem20_PeakRatio_Minimum_Chroma_A_Power_powerFFT_WinHamming_HopSize512_WinSize512_Sum_AudioCh0 > 0.058156
|   |   |   |   |   |   Mean_Mem20_MFCC12_Power_powerFFT_WinHamming_HopSize512_WinSize512_Sum_AudioCh0 <= 0.103564
|   |   |   |   |   |   |   Mean_Mem20_PeakRatio_Minimum_Chroma_A_Power_powerFFT_WinHamming_HopSize512_WinSize512_Sum_AudioCh0 <= 1.322917
|   |   |   |   |   |   |   |   Std_Mem20_Centroid_Power_powerFFT_WinHamming_HopSize512_WinSize512_Sum_AudioCh0 <= 0.001175
|   |   |   |   |   |   |   |   |   Mean_Mem20_Centroid_Power_powerFFT_WinHamming_HopSize512_WinSize512_Sum_AudioCh0 <= 0.015653
|   |   |   |   |   |   |   |   |   |   Std_Mem20_Centroid_Power_powerFFT_WinHamming_HopSize512_WinSize512_Sum_AudioCh0 <= 0.000326: m50 (5.0)
|   |   |   |   |   |   |   |   |   |   Std_Mem20_Centroid_Power_powerFFT_WinHamming_HopSize512_WinSize512_Sum_AudioCh0 > 0.000326: m48 (93.0/1.0)
|   |   |   |   |   |   |   |   |   Mean_Mem20_Centroid_Power_powerFFT_WinHamming_HopSize512_WinSize512_Sum_AudioCh0 > 0.015653: m56 (14.0)
|   |   |   |   |   |   |   |   Std_Mem20_Centroid_Power_powerFFT_WinHamming_HopSize512_WinSize512_Sum_AudioCh0 > 0.001175
|   |   |   |   |   |   |   |   |   Mean_Mem20_MFCC10_Power_powerFFT_WinHamming_HopSize512_WinSize512_Sum_AudioCh0 <= -0.129956
|   |   |   |   |   |   |   |   |   |   Mean_Mem20_MFCC8_Power_powerFFT_WinHamming_HopSize512_WinSize512_Sum_AudioCh0 <= -0.181134: m47 (17.0)
|   |   |   |   |   |   |   |   |   |   Mean_Mem20_MFCC8_Power_powerFFT_WinHamming_HopSize512_WinSize512_Sum_AudioCh0 > -0.181134
|   |   |   |   |   |   |   |   |   |   |   Mean_Mem20_MFCC9_Power_powerFFT_WinHamming_HopSize512_WinSize512_Sum_AudioCh0 <= -0.022488: m42 (38.0)
|   |   |   |   |   |   |   |   |   |   |   Mean_Mem20_MFCC9_Power_powerFFT_WinHamming_HopSize512_WinSize512_Sum_AudioCh0 > -0.022488
|   |   |   |   |   |   |   |   |   |   |   |   Mean_Mem20_Centroid_Power_powerFFT_WinHamming_HopSize512_WinSize512_Sum_AudioCh0 <= 0.013494: m43 (2.0)
|   |   |   |   |   |   |   |   |   |   |   |   Mean_Mem20_Centroid_Power_powerFFT_WinHamming_HopSize512_WinSize512_Sum_AudioCh0 > 0.013494: m36 (8.0)
|   |   |   |   |   |   |   |   |   Mean_Mem20_MFCC10_Power_powerFFT_WinHamming_HopSize512_WinSize512_Sum_AudioCh0 > -0.129956
|   |   |   |   |   |   |   |   |   |   Mean_Mem20_MFCC7_Power_powerFFT_WinHamming_HopSize512_WinSize512_Sum_AudioCh0 <= 1.203945
|   |   |   |   |   |   |   |   |   |   |   Mean_Mem20_MFCC12_Power_powerFFT_WinHamming_HopSize512_WinSize512_Sum_AudioCh0 <= -0.612727
|   |   |   |   |   |   |   |   |   |   |   |   Mean_Mem20_MFCC7_Power_powerFFT_WinHamming_HopSize512_WinSize512_Sum_AudioCh0 <= 0.213294: m48 (3.0)
|   |   |   |   |   |   |   |   |   |   |   |   Mean_Mem20_MFCC7_Power_powerFFT_WinHamming_HopSize512_WinSize512_Sum_AudioCh0 > 0.213294
|   |   |   |   |   |   |   |   |   |   |   |   |   Mean_Mem20_MFCC7_Power_powerFFT_WinHamming_HopSize512_WinSize512_Sum_AudioCh0 <= 0.517789: m41 (2.0)
|   |   |   |   |   |   |   |   |   |   |   |   |   Mean_Mem20_MFCC7_Power_powerFFT_WinHamming_HopSize512_WinSize512_Sum_AudioCh0 > 0.517789: m56 (3.0)
|   |   |   |   |   |   |   |   |   |   |   Mean_Mem20_MFCC12_Power_powerFFT_WinHamming_HopSize512_WinSize512_Sum_AudioCh0 > -0.612727: m40 (44.0/2.0)
|   |   |   |   |   |   |   |   |   |   Mean_Mem20_MFCC7_Power_powerFFT_WinHamming_HopSize512_WinSize512_Sum_AudioCh0 > 1.203945
|   |   |   |   |   |   |   |   |   |   |   Mean_Mem20_Rolloff_Power_powerFFT_WinHamming_HopSize512_WinSize512_Sum_AudioCh0 <= 0.024319: m41 (4.0)
|   |   |   |   |   |   |   |   |   |   |   Mean_Mem20_Rolloff_Power_powerFFT_WinHamming_HopSize512_WinSize512_Sum_AudioCh0 > 0.024319: m39 (26.0)
|   |   |   |   |   |   |   Mean_Mem20_PeakRatio_Minimum_Chroma_A_Power_powerFFT_WinHamming_HopSize512_WinSize512_Sum_AudioCh0 > 1.322917
|   |   |   |   |   |   |   |   Mean_Mem20_MFCC7_Power_powerFFT_WinHamming_HopSize512_WinSize512_Sum_AudioCh0 <= 0.352325
|   |   |   |   |   |   |   |   |   Mean_Mem20_MFCC10_Power_powerFFT_WinHamming_HopSize512_WinSize512_Sum_AudioCh0 <= 0.331034
|   |   |   |   |   |   |   |   |   |   Mean_Mem20_MFCC7_Power_powerFFT_WinHamming_HopSize512_WinSize512_Sum_AudioCh0 <= -0.024265
|   |   |   |   |   |   |   |   |   |   |   Std_Mem20_PeakRatio_Minimum_Chroma_A_Power_powerFFT_WinHamming_HopSize512_WinSize512_Sum_AudioCh0 <= 0.125916
|   |   |   |   |   |   |   |   |   |   |   |   Mean_Mem20_MFCC12_Power_powerFFT_WinHamming_HopSize512_WinSize512_Sum_AudioCh0 <= -0.252504
|   |   |   |   |   |   |   |   |   |   |   |   |   Mean_Mem20_MFCC7_Power_powerFFT_WinHamming_HopSize512_WinSize512_Sum_AudioCh0 <= -0.190021
|   |   |   |   |   |   |   |   |   |   |   |   |   |   Mean_Mem20_MFCC8_Power_powerFFT_WinHamming_HopSize512_WinSize512_Sum_AudioCh0 <= -0.363738: m41 (4.0)
|   |   |   |   |   |   |   |   |   |   |   |   |   |   Mean_Mem20_MFCC8_Power_powerFFT_WinHamming_HopSize512_WinSize512_Sum_AudioCh0 > -0.363738: m55 (26.0)
|   |   |   |   |   |   |   |   |   |   |   |   |   Mean_Mem20_MFCC7_Power_powerFFT_WinHamming_HopSize512_WinSize512_Sum_AudioCh0 > -0.190021
|   |   |   |   |   |   |   |   |   |   |   |   |   |   Std_Mem20_Centroid_Power_powerFFT_WinHamming_HopSize512_WinSize512_Sum_AudioCh0 <= 0.001566: m43 (2.0)
|   |   |   |   |   |   |   |   |   |   |   |   |   |   Std_Mem20_Centroid_Power_powerFFT_WinHamming_HopSize512_WinSize512_Sum_AudioCh0 > 0.001566: m56 (4.0)
|   |   |   |   |   |   |   |   |   |   |   |   Mean_Mem20_MFCC12_Power_powerFFT_WinHamming_HopSize512_WinSize512_Sum_AudioCh0 > -0.252504
|   |   |   |   |   |   |   |   |   |   |   |   |   Mean_Mem20_MFCC11_Power_powerFFT_WinHamming_HopSize512_WinSize512_Sum_AudioCh0 <= -0.044307
|   |   |   |   |   |   |   |   |   |   |   |   |   |   Mean_Mem20_Centroid_Power_powerFFT_WinHamming_HopSize512_WinSize512_Sum_AudioCh0 <= 0.013921: m55 (19.0)
|   |   |   |   |   |   |   |   |   |   |   |   |   |   Mean_Mem20_Centroid_Power_powerFFT_WinHamming_HopSize512_WinSize512_Sum_AudioCh0 > 0.013921: m25 (6.0)
|   |   |   |   |   |   |   |   |   |   |   |   |   Mean_Mem20_MFCC11_Power_powerFFT_WinHamming_HopSize512_WinSize512_Sum_AudioCh0 > -0.044307
|   |   |   |   |   |   |   |   |   |   |   |   |   |   Mean_Mem20_MFCC8_Power_powerFFT_WinHamming_HopSize512_WinSize512_Sum_AudioCh0 <= -0.451918: m45 (3.0)
|   |   |   |   |   |   |   |   |   |   |   |   |   |   Mean_Mem20_MFCC8_Power_powerFFT_WinHamming_HopSize512_WinSize512_Sum_AudioCh0 > -0.451918
|   |   |   |   |   |   |   |   |   |   |   |   |   |   |   Mean_Mem20_Rolloff_Power_powerFFT_WinHamming_HopSize512_WinSize512_Sum_AudioCh0 <= 0.042412
|   |   |   |   |   |   |   |   |   |   |   |   |   |   |   |   Mean_Mem20_MFCC7_Power_powerFFT_WinHamming_HopSize512_WinSize512_Sum_AudioCh0 <= -0.419993
|   |   |   |   |   |   |   |   |   |   |   |   |   |   |   |   |   Mean_Mem20_MFCC8_Power_powerFFT_WinHamming_HopSize512_WinSize512_Sum_AudioCh0 <= -0.05029: m49 (2.0)
|   |   |   |   |   |   |   |   |   |   |   |   |   |   |   |   |   Mean_Mem20_MFCC8_Power_powerFFT_WinHamming_HopSize512_WinSize512_Sum_AudioCh0 > -0.05029: m55 (8.0)
|   |   |   |   |   |   |   |   |   |   |   |   |   |   |   |   Mean_Mem20_MFCC7_Power_powerFFT_WinHamming_HopSize512_WinSize512_Sum_AudioCh0 > -0.419993: m49 (80.0)
|   |   |   |   |   |   |   |   |   |   |   |   |   |   |   Mean_Mem20_Rolloff_Power_powerFFT_WinHamming_HopSize512_WinSize512_Sum_AudioCh0 > 0.042412: m55 (5.0)
|   |   |   |   |   |   |   |   |   |   |   Std_Mem20_PeakRatio_Minimum_Chroma_A_Power_powerFFT_WinHamming_HopSize512_WinSize512_Sum_AudioCh0 > 0.125916
|   |   |   |   |   |   |   |   |   |   |   |   Mean_Mem20_Centroid_Power_powerFFT_WinHamming_HopSize512_WinSize512_Sum_AudioCh0 <= 0.012349
|   |   |   |   |   |   |   |   |   |   |   |   |   Std_Mem20_Centroid_Power_powerFFT_WinHamming_HopSize512_WinSize512_Sum_AudioCh0 <= 0.001729
|   |   |   |   |   |   |   |   |   |   |   |   |   |   Mean_Mem20_Rolloff_Power_powerFFT_WinHamming_HopSize512_WinSize512_Sum_AudioCh0 <= 0.016926: m47 (4.0)
|   |   |   |   |   |   |   |   |   |   |   |   |   |   Mean_Mem20_Rolloff_Power_powerFFT_WinHamming_HopSize512_WinSize512_Sum_AudioCh0 > 0.016926: m43 (6.0)
|   |   |   |   |   |   |   |   |   |   |   |   |   Std_Mem20_Centroid_Power_powerFFT_WinHamming_HopSize512_WinSize512_Sum_AudioCh0 > 0.001729: m28 (16.0)
|   |   |   |   |   |   |   |   |   |   |   |   Mean_Mem20_Centroid_Power_powerFFT_WinHamming_HopSize512_WinSize512_Sum_AudioCh0 > 0.012349
|   |   |   |   |   |   |   |   |   |   |   |   |   Mean_Mem20_Rolloff_Power_powerFFT_WinHamming_HopSize512_WinSize512_Sum_AudioCh0 <= 0.024708
|   |   |   |   |   |   |   |   |   |   |   |   |   |   Mean_Mem20_Rolloff_Power_powerFFT_WinHamming_HopSize512_WinSize512_Sum_AudioCh0 <= 0.019844: m46 (2.0/1.0)
|   |   |   |   |   |   |   |   |   |   |   |   |   |   Mean_Mem20_Rolloff_Power_powerFFT_WinHamming_HopSize512_WinSize512_Sum_AudioCh0 > 0.019844: m51 (10.0)
|   |   |   |   |   |   |   |   |   |   |   |   |   Mean_Mem20_Rolloff_Power_powerFFT_WinHamming_HopSize512_WinSize512_Sum_AudioCh0 > 0.024708: m29 (10.0)
|   |   |   |   |   |   |   |   |   |   Mean_Mem20_MFCC7_Power_powerFFT_WinHamming_HopSize512_WinSize512_Sum_AudioCh0 > -0.024265
|   |   |   |   |   |   |   |   |   |   |   Mean_Mem20_MFCC11_Power_powerFFT_WinHamming_HopSize512_WinSize512_Sum_AudioCh0 <= 0.532163
|   |   |   |   |   |   |   |   |   |   |   |   Mean_Mem20_MFCC11_Power_powerFFT_WinHamming_HopSize512_WinSize512_Sum_AudioCh0 <= -0.349177
|   |   |   |   |   |   |   |   |   |   |   |   |   Mean_Mem20_Rolloff_Power_powerFFT_WinHamming_HopSize512_WinSize512_Sum_AudioCh0 <= 0.019066
|   |   |   |   |   |   |   |   |   |   |   |   |   |   Mean_Mem20_Rolloff_Power_powerFFT_WinHamming_HopSize512_WinSize512_Sum_AudioCh0 <= 0.01537: m46 (7.0)
|   |   |   |   |   |   |   |   |   |   |   |   |   |   Mean_Mem20_Rolloff_Power_powerFFT_WinHamming_HopSize512_WinSize512_Sum_AudioCh0 > 0.01537
|   |   |   |   |   |   |   |   |   |   |   |   |   |   |   Mean_Mem20_Rolloff_Power_powerFFT_WinHamming_HopSize512_WinSize512_Sum_AudioCh0 <= 0.017704: m26 (2.0)
|   |   |   |   |   |   |   |   |   |   |   |   |   |   |   Mean_Mem20_Rolloff_Power_powerFFT_WinHamming_HopSize512_WinSize512_Sum_AudioCh0 > 0.017704: m43 (2.0)
|   |   |   |   |   |   |   |   |   |   |   |   |   Mean_Mem20_Rolloff_Power_powerFFT_WinHamming_HopSize512_WinSize512_Sum_AudioCh0 > 0.019066: m51 (14.0)
|   |   |   |   |   |   |   |   |   |   |   |   Mean_Mem20_MFCC11_Power_powerFFT_WinHamming_HopSize512_WinSize512_Sum_AudioCh0 > -0.349177
|   |   |   |   |   |   |   |   |   |   |   |   |   Mean_Mem20_MFCC7_Power_powerFFT_WinHamming_HopSize512_WinSize512_Sum_AudioCh0 <= 0.162797
|   |   |   |   |   |   |   |   |   |   |   |   |   |   Mean_Mem20_MFCC9_Power_powerFFT_WinHamming_HopSize512_WinSize512_Sum_AudioCh0 <= 0.287532: m43 (7.0)
|   |   |   |   |   |   |   |   |   |   |   |   |   |   Mean_Mem20_MFCC9_Power_powerFFT_WinHamming_HopSize512_WinSize512_Sum_AudioCh0 > 0.287532: m25 (4.0/1.0)
|   |   |   |   |   |   |   |   |   |   |   |   |   Mean_Mem20_MFCC7_Power_powerFFT_WinHamming_HopSize512_WinSize512_Sum_AudioCh0 > 0.162797
|   |   |   |   |   |   |   |   |   |   |   |   |   |   Mean_Mem20_MFCC10_Power_powerFFT_WinHamming_HopSize512_WinSize512_Sum_AudioCh0 <= 0.073439
|   |   |   |   |   |   |   |   |   |   |   |   |   |   |   Mean_Mem20_MFCC7_Power_powerFFT_WinHamming_HopSize512_WinSize512_Sum_AudioCh0 <= 0.327544: m29 (2.0)
|   |   |   |   |   |   |   |   |   |   |   |   |   |   |   Mean_Mem20_MFCC7_Power_powerFFT_WinHamming_HopSize512_WinSize512_Sum_AudioCh0 > 0.327544: m48 (2.0/1.0)
|   |   |   |   |   |   |   |   |   |   |   |   |   |   Mean_Mem20_MFCC10_Power_powerFFT_WinHamming_HopSize512_WinSize512_Sum_AudioCh0 > 0.073439: m41 (8.0)
|   |   |   |   |   |   |   |   |   |   |   Mean_Mem20_MFCC11_Power_powerFFT_WinHamming_HopSize512_WinSize512_Sum_AudioCh0 > 0.532163
|   |   |   |   |   |   |   |   |   |   |   |   Mean_Mem20_Rolloff_Power_powerFFT_WinHamming_HopSize512_WinSize512_Sum_AudioCh0 <= 0.020428: m47 (20.0)
|   |   |   |   |   |   |   |   |   |   |   |   Mean_Mem20_Rolloff_Power_powerFFT_WinHamming_HopSize512_WinSize512_Sum_AudioCh0 > 0.020428
|   |   |   |   |   |   |   |   |   |   |   |   |   Std_Mem20_Centroid_Power_powerFFT_WinHamming_HopSize512_WinSize512_Sum_AudioCh0 <= 0.00105: m48 (8.0)
|   |   |   |   |   |   |   |   |   |   |   |   |   Std_Mem20_Centroid_Power_powerFFT_WinHamming_HopSize512_WinSize512_Sum_AudioCh0 > 0.00105
|   |   |   |   |   |   |   |   |   |   |   |   |   |   Mean_Mem20_Centroid_Power_powerFFT_WinHamming_HopSize512_WinSize512_Sum_AudioCh0 <= 0.019584: m31 (4.0/1.0)
|   |   |   |   |   |   |   |   |   |   |   |   |   |   Mean_Mem20_Centroid_Power_powerFFT_WinHamming_HopSize512_WinSize512_Sum_AudioCh0 > 0.019584: m40 (4.0)
|   |   |   |   |   |   |   |   |   Mean_Mem20_MFCC10_Power_powerFFT_WinHamming_HopSize512_WinSize512_Sum_AudioCh0 > 0.331034
|   |   |   |   |   |   |   |   |   |   Mean_Mem20_Centroid_Power_powerFFT_WinHamming_HopSize512_WinSize512_Sum_AudioCh0 <= 0.014749
|   |   |   |   |   |   |   |   |   |   |   Mean_Mem20_MFCC10_Power_powerFFT_WinHamming_HopSize512_WinSize512_Sum_AudioCh0 <= 0.682601
|   |   |   |   |   |   |   |   |   |   |   |   Std_Mem20_Centroid_Power_powerFFT_WinHamming_HopSize512_WinSize512_Sum_AudioCh0 <= 0.00102
|   |   |   |   |   |   |   |   |   |   |   |   |   Mean_Mem20_Rolloff_Power_powerFFT_WinHamming_HopSize512_WinSize512_Sum_AudioCh0 <= 0.022179: m45 (5.0)
|   |   |   |   |   |   |   |   |   |   |   |   |   Mean_Mem20_Rolloff_Power_powerFFT_WinHamming_HopSize512_WinSize512_Sum_AudioCh0 > 0.022179: m48 (11.0)
|   |   |   |   |   |   |   |   |   |   |   |   Std_Mem20_Centroid_Power_powerFFT_WinHamming_HopSize512_WinSize512_Sum_AudioCh0 > 0.00102
|   |   |   |   |   |   |   |   |   |   |   |   |   Std_Mem20_Centroid_Power_powerFFT_WinHamming_HopSize512_WinSize512_Sum_AudioCh0 <= 0.002245: m40 (6.0/1.0)
|   |   |   |   |   |   |   |   |   |   |   |   |   Std_Mem20_Centroid_Power_powerFFT_WinHamming_HopSize512_WinSize512_Sum_AudioCh0 > 0.002245: m26 (8.0)
|   |   |   |   |   |   |   |   |   |   |   Mean_Mem20_MFCC10_Power_powerFFT_WinHamming_HopSize512_WinSize512_Sum_AudioCh0 > 0.682601
|   |   |   |   |   |   |   |   |   |   |   |   Mean_Mem20_Rolloff_Power_powerFFT_WinHamming_HopSize512_WinSize512_Sum_AudioCh0 <= 0.017704: m49 (3.0)
|   |   |   |   |   |   |   |   |   |   |   |   Mean_Mem20_Rolloff_Power_powerFFT_WinHamming_HopSize512_WinSize512_Sum_AudioCh0 > 0.017704: m47 (21.0)
|   |   |   |   |   |   |   |   |   |   Mean_Mem20_Centroid_Power_powerFFT_WinHamming_HopSize512_WinSize512_Sum_AudioCh0 > 0.014749
|   |   |   |   |   |   |   |   |   |   |   Std_Mem20_Centroid_Power_powerFFT_WinHamming_HopSize512_WinSize512_Sum_AudioCh0 <= 0.000665: m52 (31.0)
|   |   |   |   |   |   |   |   |   |   |   Std_Mem20_Centroid_Power_powerFFT_WinHamming_HopSize512_WinSize512_Sum_AudioCh0 > 0.000665: m56 (11.0)
|   |   |   |   |   |   |   |   Mean_Mem20_MFCC7_Power_powerFFT_WinHamming_HopSize512_WinSize512_Sum_AudioCh0 > 0.352325
|   |   |   |   |   |   |   |   |   Mean_Mem20_MFCC10_Power_powerFFT_WinHamming_HopSize512_WinSize512_Sum_AudioCh0 <= 0.343895
|   |   |   |   |   |   |   |   |   |   Mean_Mem20_PeakRatio_Average_Chroma_A_Power_powerFFT_WinHamming_HopSize512_WinSize512_Sum_AudioCh0 <= 1.136193
|   |   |   |   |   |   |   |   |   |   |   Mean_Mem20_Centroid_Power_powerFFT_WinHamming_HopSize512_WinSize512_Sum_AudioCh0 <= 0.01359
|   |   |   |   |   |   |   |   |   |   |   |   Mean_Mem20_MFCC7_Power_powerFFT_WinHamming_HopSize512_WinSize512_Sum_AudioCh0 <= 0.724165: m28 (4.0)
|   |   |   |   |   |   |   |   |   |   |   |   Mean_Mem20_MFCC7_Power_powerFFT_WinHamming_HopSize512_WinSize512_Sum_AudioCh0 > 0.724165: m41 (36.0)
|   |   |   |   |   |   |   |   |   |   |   Mean_Mem20_Centroid_Power_powerFFT_WinHamming_HopSize512_WinSize512_Sum_AudioCh0 > 0.01359
|   |   |   |   |   |   |   |   |   |   |   |   Std_Mem20_Centroid_Power_powerFFT_WinHamming_HopSize512_WinSize512_Sum_AudioCh0 <= 0.001222: m62 (5.0)
|   |   |   |   |   |   |   |   |   |   |   |   Std_Mem20_Centroid_Power_powerFFT_WinHamming_HopSize512_WinSize512_Sum_AudioCh0 > 0.001222: m42 (11.0)
|   |   |   |   |   |   |   |   |   |   Mean_Mem20_PeakRatio_Average_Chroma_A_Power_powerFFT_WinHamming_HopSize512_WinSize512_Sum_AudioCh0 > 1.136193
|   |   |   |   |   |   |   |   |   |   |   Mean_Mem20_MFCC12_Power_powerFFT_WinHamming_HopSize512_WinSize512_Sum_AudioCh0 <= -0.57704
|   |   |   |   |   |   |   |   |   |   |   |   Std_Mem20_Centroid_Power_powerFFT_WinHamming_HopSize512_WinSize512_Sum_AudioCh0 <= 0.001276
|   |   |   |   |   |   |   |   |   |   |   |   |   Mean_Mem20_Centroid_Power_powerFFT_WinHamming_HopSize512_WinSize512_Sum_AudioCh0 <= 0.011804: m41 (3.0)
|   |   |   |   |   |   |   |   |   |   |   |   |   Mean_Mem20_Centroid_Power_powerFFT_WinHamming_HopSize512_WinSize512_Sum_AudioCh0 > 0.011804: m55 (21.0)
|   |   |   |   |   |   |   |   |   |   |   |   Std_Mem20_Centroid_Power_powerFFT_WinHamming_HopSize512_WinSize512_Sum_AudioCh0 > 0.001276: m40 (14.0)
|   |   |   |   |   |   |   |   |   |   |   Mean_Mem20_MFCC12_Power_powerFFT_WinHamming_HopSize512_WinSize512_Sum_AudioCh0 > -0.57704
|   |   |   |   |   |   |   |   |   |   |   |   Std_Mem20_Centroid_Power_powerFFT_WinHamming_HopSize512_WinSize512_Sum_AudioCh0 <= 0.001221
|   |   |   |   |   |   |   |   |   |   |   |   |   Mean_Mem20_MFCC8_Power_powerFFT_WinHamming_HopSize512_WinSize512_Sum_AudioCh0 <= 1.147643
|   |   |   |   |   |   |   |   |   |   |   |   |   |   Mean_Mem20_Centroid_Power_powerFFT_WinHamming_HopSize512_WinSize512_Sum_AudioCh0 <= 0.011309
|   |   |   |   |   |   |   |   |   |   |   |   |   |   |   Mean_Mem20_Rolloff_Power_powerFFT_WinHamming_HopSize512_WinSize512_Sum_AudioCh0 <= 0.021595
|   |   |   |   |   |   |   |   |   |   |   |   |   |   |   |   Mean_Mem20_MFCC11_Power_powerFFT_WinHamming_HopSize512_WinSize512_Sum_AudioCh0 <= 0.342925: m41 (11.0)
|   |   |   |   |   |   |   |   |   |   |   |   |   |   |   |   Mean_Mem20_MFCC11_Power_powerFFT_WinHamming_HopSize512_WinSize512_Sum_AudioCh0 > 0.342925: m48 (2.0)
|   |   |   |   |   |   |   |   |   |   |   |   |   |   |   Mean_Mem20_Rolloff_Power_powerFFT_WinHamming_HopSize512_WinSize512_Sum_AudioCh0 > 0.021595: m40 (12.0)
|   |   |   |   |   |   |   |   |   |   |   |   |   |   Mean_Mem20_Centroid_Power_powerFFT_WinHamming_HopSize512_WinSize512_Sum_AudioCh0 > 0.011309
|   |   |   |   |   |   |   |   |   |   |   |   |   |   |   Mean_Mem20_MFCC11_Power_powerFFT_WinHamming_HopSize512_WinSize512_Sum_AudioCh0 <= 0.484871
|   |   |   |   |   |   |   |   |   |   |   |   |   |   |   |   Mean_Mem20_MFCC12_Power_powerFFT_WinHamming_HopSize512_WinSize512_Sum_AudioCh0 <= 0.047187: m50 (62.0)
|   |   |   |   |   |   |   |   |   |   |   |   |   |   |   |   Mean_Mem20_MFCC12_Power_powerFFT_WinHamming_HopSize512_WinSize512_Sum_AudioCh0 > 0.047187
|   |   |   |   |   |   |   |   |   |   |   |   |   |   |   |   |   Mean_Mem20_Centroid_Power_powerFFT_WinHamming_HopSize512_WinSize512_Sum_AudioCh0 <= 0.011978: m44 (2.0)
|   |   |   |   |   |   |   |   |   |   |   |   |   |   |   |   |   Mean_Mem20_Centroid_Power_powerFFT_WinHamming_HopSize512_WinSize512_Sum_AudioCh0 > 0.011978: m50 (2.0)
|   |   |   |   |   |   |   |   |   |   |   |   |   |   |   Mean_Mem20_MFCC11_Power_powerFFT_WinHamming_HopSize512_WinSize512_Sum_AudioCh0 > 0.484871: m40 (5.0/1.0)
|   |   |   |   |   |   |   |   |   |   |   |   |   Mean_Mem20_MFCC8_Power_powerFFT_WinHamming_HopSize512_WinSize512_Sum_AudioCh0 > 1.147643
|   |   |   |   |   |   |   |   |   |   |   |   |   |   Mean_Mem20_Rolloff_Power_powerFFT_WinHamming_HopSize512_WinSize512_Sum_AudioCh0 <= 0.010506: m41 (2.0)
|   |   |   |   |   |   |   |   |   |   |   |   |   |   Mean_Mem20_Rolloff_Power_powerFFT_WinHamming_HopSize512_WinSize512_Sum_AudioCh0 > 0.010506: m57 (13.0)
|   |   |   |   |   |   |   |   |   |   |   |   Std_Mem20_Centroid_Power_powerFFT_WinHamming_HopSize512_WinSize512_Sum_AudioCh0 > 0.001221
|   |   |   |   |   |   |   |   |   |   |   |   |   Mean_Mem20_MFCC8_Power_powerFFT_WinHamming_HopSize512_WinSize512_Sum_AudioCh0 <= -0.16217
|   |   |   |   |   |   |   |   |   |   |   |   |   |   Mean_Mem20_Rolloff_Power_powerFFT_WinHamming_HopSize512_WinSize512_Sum_AudioCh0 <= 0.027043
|   |   |   |   |   |   |   |   |   |   |   |   |   |   |   Mean_Mem20_Centroid_Power_powerFFT_WinHamming_HopSize512_WinSize512_Sum_AudioCh0 <= 0.01429: m40 (10.0)
|   |   |   |   |   |   |   |   |   |   |   |   |   |   |   Mean_Mem20_Centroid_Power_powerFFT_WinHamming_HopSize512_WinSize512_Sum_AudioCh0 > 0.01429: m50 (6.0)
|   |   |   |   |   |   |   |   |   |   |   |   |   |   Mean_Mem20_Rolloff_Power_powerFFT_WinHamming_HopSize512_WinSize512_Sum_AudioCh0 > 0.027043: m46 (24.0)
|   |   |   |   |   |   |   |   |   |   |   |   |   Mean_Mem20_MFCC8_Power_powerFFT_WinHamming_HopSize512_WinSize512_Sum_AudioCh0 > -0.16217
|   |   |   |   |   |   |   |   |   |   |   |   |   |   Mean_Mem20_Centroid_Power_powerFFT_WinHamming_HopSize512_WinSize512_Sum_AudioCh0 <= 0.011014: m29 (3.0)
|   |   |   |   |   |   |   |   |   |   |   |   |   |   Mean_Mem20_Centroid_Power_powerFFT_WinHamming_HopSize512_WinSize512_Sum_AudioCh0 > 0.011014
|   |   |   |   |   |   |   |   |   |   |   |   |   |   |   Mean_Mem20_PeakRatio_Minimum_Chroma_A_Power_powerFFT_WinHamming_HopSize512_WinSize512_Sum_AudioCh0 <= 1.431354
|   |   |   |   |   |   |   |   |   |   |   |   |   |   |   |   Mean_Mem20_MFCC9_Power_powerFFT_WinHamming_HopSize512_WinSize512_Sum_AudioCh0 <= -0.49475: m41 (4.0)
|   |   |   |   |   |   |   |   |   |   |   |   |   |   |   |   Mean_Mem20_MFCC9_Power_powerFFT_WinHamming_HopSize512_WinSize512_Sum_AudioCh0 > -0.49475: m40 (31.0)
|   |   |   |   |   |   |   |   |   |   |   |   |   |   |   Mean_Mem20_PeakRatio_Minimum_Chroma_A_Power_powerFFT_WinHamming_HopSize512_WinSize512_Sum_AudioCh0 > 1.431354
|   |   |   |   |   |   |   |   |   |   |   |   |   |   |   |   Std_Mem20_Centroid_Power_powerFFT_WinHamming_HopSize512_WinSize512_Sum_AudioCh0 <= 0.00406
|   |   |   |   |   |   |   |   |   |   |   |   |   |   |   |   |   Mean_Mem20_MFCC7_Power_powerFFT_WinHamming_HopSize512_WinSize512_Sum_AudioCh0 <= 1.07376: m41 (43.0)
|   |   |   |   |   |   |   |   |   |   |   |   |   |   |   |   |   Mean_Mem20_MFCC7_Power_powerFFT_WinHamming_HopSize512_WinSize512_Sum_AudioCh0 > 1.07376
|   |   |   |   |   |   |   |   |   |   |   |   |   |   |   |   |   |   Mean_Mem20_Centroid_Power_powerFFT_WinHamming_HopSize512_WinSize512_Sum_AudioCh0 <= 0.014146: m41 (4.0)
|   |   |   |   |   |   |   |   |   |   |   |   |   |   |   |   |   |   Mean_Mem20_Centroid_Power_powerFFT_WinHamming_HopSize512_WinSize512_Sum_AudioCh0 > 0.014146: m40 (6.0)
|   |   |   |   |   |   |   |   |   |   |   |   |   |   |   |   Std_Mem20_Centroid_Power_powerFFT_WinHamming_HopSize512_WinSize512_Sum_AudioCh0 > 0.00406: m40 (5.0)
|   |   |   |   |   |   |   |   |   Mean_Mem20_MFCC10_Power_powerFFT_WinHamming_HopSize512_WinSize512_Sum_AudioCh0 > 0.343895
|   |   |   |   |   |   |   |   |   |   Mean_Mem20_MFCC8_Power_powerFFT_WinHamming_HopSize512_WinSize512_Sum_AudioCh0 <= 0.338538
|   |   |   |   |   |   |   |   |   |   |   Mean_Mem20_PeakRatio_Average_Chroma_A_Power_powerFFT_WinHamming_HopSize512_WinSize512_Sum_AudioCh0 <= 1.179648: m40 (12.0)
|   |   |   |   |   |   |   |   |   |   |   Mean_Mem20_PeakRatio_Average_Chroma_A_Power_powerFFT_WinHamming_HopSize512_WinSize512_Sum_AudioCh0 > 1.179648
|   |   |   |   |   |   |   |   |   |   |   |   Mean_Mem20_Rolloff_Power_powerFFT_WinHamming_HopSize512_WinSize512_Sum_AudioCh0 <= 0.024708
|   |   |   |   |   |   |   |   |   |   |   |   |   Mean_Mem20_Rolloff_Power_powerFFT_WinHamming_HopSize512_WinSize512_Sum_AudioCh0 <= 0.02179: m42 (3.0)
|   |   |   |   |   |   |   |   |   |   |   |   |   Mean_Mem20_Rolloff_Power_powerFFT_WinHamming_HopSize512_WinSize512_Sum_AudioCh0 > 0.02179: m56 (8.0)
|   |   |   |   |   |   |   |   |   |   |   |   Mean_Mem20_Rolloff_Power_powerFFT_WinHamming_HopSize512_WinSize512_Sum_AudioCh0 > 0.024708: m50 (4.0)
|   |   |   |   |   |   |   |   |   |   Mean_Mem20_MFCC8_Power_powerFFT_WinHamming_HopSize512_WinSize512_Sum_AudioCh0 > 0.338538
|   |   |   |   |   |   |   |   |   |   |   Mean_Mem20_MFCC8_Power_powerFFT_WinHamming_HopSize512_WinSize512_Sum_AudioCh0 <= 0.691527: m37 (25.0)
|   |   |   |   |   |   |   |   |   |   |   Mean_Mem20_MFCC8_Power_powerFFT_WinHamming_HopSize512_WinSize512_Sum_AudioCh0 > 0.691527: m38 (19.0)
|   |   |   |   |   |   Mean_Mem20_MFCC12_Power_powerFFT_WinHamming_HopSize512_WinSize512_Sum_AudioCh0 > 0.103564
|   |   |   |   |   |   |   Mean_Mem20_MFCC10_Power_powerFFT_WinHamming_HopSize512_WinSize512_Sum_AudioCh0 <= -0.189236
|   |   |   |   |   |   |   |   Mean_Mem20_MFCC8_Power_powerFFT_WinHamming_HopSize512_WinSize512_Sum_AudioCh0 <= -0.085771
|   |   |   |   |   |   |   |   |   Mean_Mem20_Centroid_Power_powerFFT_WinHamming_HopSize512_WinSize512_Sum_AudioCh0 <= 0.011745: m43 (16.0)
|   |   |   |   |   |   |   |   |   Mean_Mem20_Centroid_Power_powerFFT_WinHamming_HopSize512_WinSize512_Sum_AudioCh0 > 0.011745
|   |   |   |   |   |   |   |   |   |   Mean_Mem20_Rolloff_Power_powerFFT_WinHamming_HopSize512_WinSize512_Sum_AudioCh0 <= 0.01537: m46 (11.0)
|   |   |   |   |   |   |   |   |   |   Mean_Mem20_Rolloff_Power_powerFFT_WinHamming_HopSize512_WinSize512_Sum_AudioCh0 > 0.01537
|   |   |   |   |   |   |   |   |   |   |   Mean_Mem20_Centroid_Power_powerFFT_WinHamming_HopSize512_WinSize512_Sum_AudioCh0 <= 0.013857: m28 (2.0)
|   |   |   |   |   |   |   |   |   |   |   Mean_Mem20_Centroid_Power_powerFFT_WinHamming_HopSize512_WinSize512_Sum_AudioCh0 > 0.013857: m55 (2.0)
|   |   |   |   |   |   |   |   Mean_Mem20_MFCC8_Power_powerFFT_WinHamming_HopSize512_WinSize512_Sum_AudioCh0 > -0.085771
|   |   |   |   |   |   |   |   |   Mean_Mem20_MFCC11_Power_powerFFT_WinHamming_HopSize512_WinSize512_Sum_AudioCh0 <= 0.22285
|   |   |   |   |   |   |   |   |   |   Mean_Mem20_MFCC9_Power_powerFFT_WinHamming_HopSize512_WinSize512_Sum_AudioCh0 <= 0.332249
|   |   |   |   |   |   |   |   |   |   |   Std_Mem20_Centroid_Power_powerFFT_WinHamming_HopSize512_WinSize512_Sum_AudioCh0 <= 0.001275: m50 (10.0/1.0)
|   |   |   |   |   |   |   |   |   |   |   Std_Mem20_Centroid_Power_powerFFT_WinHamming_HopSize512_WinSize512_Sum_AudioCh0 > 0.001275: m29 (16.0/1.0)
|   |   |   |   |   |   |   |   |   |   Mean_Mem20_MFCC9_Power_powerFFT_WinHamming_HopSize512_WinSize512_Sum_AudioCh0 > 0.332249
|   |   |   |   |   |   |   |   |   |   |   Mean_Mem20_MFCC7_Power_powerFFT_WinHamming_HopSize512_WinSize512_Sum_AudioCh0 <= 0.920174
|   |   |   |   |   |   |   |   |   |   |   |   Mean_Mem20_Centroid_Power_powerFFT_WinHamming_HopSize512_WinSize512_Sum_AudioCh0 <= 0.016892: m40 (2.0)
|   |   |   |   |   |   |   |   |   |   |   |   Mean_Mem20_Centroid_Power_powerFFT_WinHamming_HopSize512_WinSize512_Sum_AudioCh0 > 0.016892: m47 (10.0)
|   |   |   |   |   |   |   |   |   |   |   Mean_Mem20_MFCC7_Power_powerFFT_WinHamming_HopSize512_WinSize512_Sum_AudioCh0 > 0.920174
|   |   |   |   |   |   |   |   |   |   |   |   Mean_Mem20_MFCC7_Power_powerFFT_WinHamming_HopSize512_WinSize512_Sum_AudioCh0 <= 1.162585: m57 (2.0)
|   |   |   |   |   |   |   |   |   |   |   |   Mean_Mem20_MFCC7_Power_powerFFT_WinHamming_HopSize512_WinSize512_Sum_AudioCh0 > 1.162585: m41 (11.0)
|   |   |   |   |   |   |   |   |   Mean_Mem20_MFCC11_Power_powerFFT_WinHamming_HopSize512_WinSize512_Sum_AudioCh0 > 0.22285
|   |   |   |   |   |   |   |   |   |   Mean_Mem20_PeakRatio_Minimum_Chroma_A_Power_powerFFT_WinHamming_HopSize512_WinSize512_Sum_AudioCh0 <= 1.547415
|   |   |   |   |   |   |   |   |   |   |   Std_Mem20_PeakRatio_Minimum_Chroma_A_Power_powerFFT_WinHamming_HopSize512_WinSize512_Sum_AudioCh0 <= 0.086143: m56 (30.0/1.0)
|   |   |   |   |   |   |   |   |   |   |   Std_Mem20_PeakRatio_Minimum_Chroma_A_Power_powerFFT_WinHamming_HopSize512_WinSize512_Sum_AudioCh0 > 0.086143: m41 (14.0/1.0)
|   |   |   |   |   |   |   |   |   |   Mean_Mem20_PeakRatio_Minimum_Chroma_A_Power_powerFFT_WinHamming_HopSize512_WinSize512_Sum_AudioCh0 > 1.547415
|   |   |   |   |   |   |   |   |   |   |   Mean_Mem20_Rolloff_Power_powerFFT_WinHamming_HopSize512_WinSize512_Sum_AudioCh0 <= 0.015759: m55 (3.0)
|   |   |   |   |   |   |   |   |   |   |   Mean_Mem20_Rolloff_Power_powerFFT_WinHamming_HopSize512_WinSize512_Sum_AudioCh0 > 0.015759: m45 (7.0)
|   |   |   |   |   |   |   Mean_Mem20_MFCC10_Power_powerFFT_WinHamming_HopSize512_WinSize512_Sum_AudioCh0 > -0.189236
|   |   |   |   |   |   |   |   Mean_Mem20_Centroid_Power_powerFFT_WinHamming_HopSize512_WinSize512_Sum_AudioCh0 <= 0.014186
|   |   |   |   |   |   |   |   |   Mean_Mem20_MFCC9_Power_powerFFT_WinHamming_HopSize512_WinSize512_Sum_AudioCh0 <= 0.289768
|   |   |   |   |   |   |   |   |   |   Mean_Mem20_PeakRatio_Average_Chroma_A_Power_powerFFT_WinHamming_HopSize512_WinSize512_Sum_AudioCh0 <= 1.184907
|   |   |   |   |   |   |   |   |   |   |   Mean_Mem20_MFCC8_Power_powerFFT_WinHamming_HopSize512_WinSize512_Sum_AudioCh0 <= 0.036435
|   |   |   |   |   |   |   |   |   |   |   |   Mean_Mem20_Rolloff_Power_powerFFT_WinHamming_HopSize512_WinSize512_Sum_AudioCh0 <= 0.011479
|   |   |   |   |   |   |   |   |   |   |   |   |   Mean_Mem20_Rolloff_Power_powerFFT_WinHamming_HopSize512_WinSize512_Sum_AudioCh0 <= 0.010117: m43 (8.0)
|   |   |   |   |   |   |   |   |   |   |   |   |   Mean_Mem20_Rolloff_Power_powerFFT_WinHamming_HopSize512_WinSize512_Sum_AudioCh0 > 0.010117: m41 (2.0)
|   |   |   |   |   |   |   |   |   |   |   |   Mean_Mem20_Rolloff_Power_powerFFT_WinHamming_HopSize512_WinSize512_Sum_AudioCh0 > 0.011479
|   |   |   |   |   |   |   |   |   |   |   |   |   Mean_Mem20_Rolloff_Power_powerFFT_WinHamming_HopSize512_WinSize512_Sum_AudioCh0 <= 0.016342: m49 (8.0)
|   |   |   |   |   |   |   |   |   |   |   |   |   Mean_Mem20_Rolloff_Power_powerFFT_WinHamming_HopSize512_WinSize512_Sum_AudioCh0 > 0.016342: m34 (10.0)
|   |   |   |   |   |   |   |   |   |   |   Mean_Mem20_MFCC8_Power_powerFFT_WinHamming_HopSize512_WinSize512_Sum_AudioCh0 > 0.036435
|   |   |   |   |   |   |   |   |   |   |   |   Std_Mem20_Centroid_Power_powerFFT_WinHamming_HopSize512_WinSize512_Sum_AudioCh0 <= 0.002963
|   |   |   |   |   |   |   |   |   |   |   |   |   Mean_Mem20_MFCC9_Power_powerFFT_WinHamming_HopSize512_WinSize512_Sum_AudioCh0 <= 0.047886: m41 (12.0)
|   |   |   |   |   |   |   |   |   |   |   |   |   Mean_Mem20_MFCC9_Power_powerFFT_WinHamming_HopSize512_WinSize512_Sum_AudioCh0 > 0.047886: m32 (4.0)
|   |   |   |   |   |   |   |   |   |   |   |   Std_Mem20_Centroid_Power_powerFFT_WinHamming_HopSize512_WinSize512_Sum_AudioCh0 > 0.002963: m32 (20.0)
|   |   |   |   |   |   |   |   |   |   Mean_Mem20_PeakRatio_Average_Chroma_A_Power_powerFFT_WinHamming_HopSize512_WinSize512_Sum_AudioCh0 > 1.184907
|   |   |   |   |   |   |   |   |   |   |   Mean_Mem20_Rolloff_Power_powerFFT_WinHamming_HopSize512_WinSize512_Sum_AudioCh0 <= 0.019261
|   |   |   |   |   |   |   |   |   |   |   |   Mean_Mem20_MFCC11_Power_powerFFT_WinHamming_HopSize512_WinSize512_Sum_AudioCh0 <= 0.397432: m45 (22.0)
|   |   |   |   |   |   |   |   |   |   |   |   Mean_Mem20_MFCC11_Power_powerFFT_WinHamming_HopSize512_WinSize512_Sum_AudioCh0 > 0.397432
|   |   |   |   |   |   |   |   |   |   |   |   |   Mean_Mem20_Rolloff_Power_powerFFT_WinHamming_HopSize512_WinSize512_Sum_AudioCh0 <= 0.014786: m40 (2.0/1.0)
|   |   |   |   |   |   |   |   |   |   |   |   |   Mean_Mem20_Rolloff_Power_powerFFT_WinHamming_HopSize512_WinSize512_Sum_AudioCh0 > 0.014786: m57 (5.0)
|   |   |   |   |   |   |   |   |   |   |   Mean_Mem20_Rolloff_Power_powerFFT_WinHamming_HopSize512_WinSize512_Sum_AudioCh0 > 0.019261: m31 (13.0/1.0)
|   |   |   |   |   |   |   |   |   Mean_Mem20_MFCC9_Power_powerFFT_WinHamming_HopSize512_WinSize512_Sum_AudioCh0 > 0.289768
|   |   |   |   |   |   |   |   |   |   Std_Mem20_PeakRatio_Average_Chroma_A_Power_powerFFT_WinHamming_HopSize512_WinSize512_Sum_AudioCh0 <= 0.02129
|   |   |   |   |   |   |   |   |   |   |   Mean_Mem20_MFCC7_Power_powerFFT_WinHamming_HopSize512_WinSize512_Sum_AudioCh0 <= 0.52983: m55 (11.0/1.0)
|   |   |   |   |   |   |   |   |   |   |   Mean_Mem20_MFCC7_Power_powerFFT_WinHamming_HopSize512_WinSize512_Sum_AudioCh0 > 0.52983
|   |   |   |   |   |   |   |   |   |   |   |   Mean_Mem20_Rolloff_Power_powerFFT_WinHamming_HopSize512_WinSize512_Sum_AudioCh0 <= 0.013813: m41 (2.0/1.0)
|   |   |   |   |   |   |   |   |   |   |   |   Mean_Mem20_Rolloff_Power_powerFFT_WinHamming_HopSize512_WinSize512_Sum_AudioCh0 > 0.013813: m40 (10.0)
|   |   |   |   |   |   |   |   |   |   Std_Mem20_PeakRatio_Average_Chroma_A_Power_powerFFT_WinHamming_HopSize512_WinSize512_Sum_AudioCh0 > 0.02129
|   |   |   |   |   |   |   |   |   |   |   Mean_Mem20_PeakRatio_Minimum_Chroma_A_Power_powerFFT_WinHamming_HopSize512_WinSize512_Sum_AudioCh0 <= 1.409764
|   |   |   |   |   |   |   |   |   |   |   |   Mean_Mem20_Rolloff_Power_powerFFT_WinHamming_HopSize512_WinSize512_Sum_AudioCh0 <= 0.01537: m28 (5.0)
|   |   |   |   |   |   |   |   |   |   |   |   Mean_Mem20_Rolloff_Power_powerFFT_WinHamming_HopSize512_WinSize512_Sum_AudioCh0 > 0.01537
|   |   |   |   |   |   |   |   |   |   |   |   |   Mean_Mem20_Rolloff_Power_powerFFT_WinHamming_HopSize512_WinSize512_Sum_AudioCh0 <= 0.025097: m44 (3.0/1.0)
|   |   |   |   |   |   |   |   |   |   |   |   |   Mean_Mem20_Rolloff_Power_powerFFT_WinHamming_HopSize512_WinSize512_Sum_AudioCh0 > 0.025097: m31 (3.0)
|   |   |   |   |   |   |   |   |   |   |   Mean_Mem20_PeakRatio_Minimum_Chroma_A_Power_powerFFT_WinHamming_HopSize512_WinSize512_Sum_AudioCh0 > 1.409764
|   |   |   |   |   |   |   |   |   |   |   |   Mean_Mem20_MFCC7_Power_powerFFT_WinHamming_HopSize512_WinSize512_Sum_AudioCh0 <= -0.650932
|   |   |   |   |   |   |   |   |   |   |   |   |   Mean_Mem20_Centroid_Power_powerFFT_WinHamming_HopSize512_WinSize512_Sum_AudioCh0 <= 0.011818: m47 (2.0)
|   |   |   |   |   |   |   |   |   |   |   |   |   Mean_Mem20_Centroid_Power_powerFFT_WinHamming_HopSize512_WinSize512_Sum_AudioCh0 > 0.011818: m55 (4.0)
|   |   |   |   |   |   |   |   |   |   |   |   Mean_Mem20_MFCC7_Power_powerFFT_WinHamming_HopSize512_WinSize512_Sum_AudioCh0 > -0.650932
|   |   |   |   |   |   |   |   |   |   |   |   |   Mean_Mem20_MFCC11_Power_powerFFT_WinHamming_HopSize512_WinSize512_Sum_AudioCh0 <= 0.730098
|   |   |   |   |   |   |   |   |   |   |   |   |   |   Std_Mem20_Centroid_Power_powerFFT_WinHamming_HopSize512_WinSize512_Sum_AudioCh0 <= 0.000345: m41 (6.0)
|   |   |   |   |   |   |   |   |   |   |   |   |   |   Std_Mem20_Centroid_Power_powerFFT_WinHamming_HopSize512_WinSize512_Sum_AudioCh0 > 0.000345
|   |   |   |   |   |   |   |   |   |   |   |   |   |   |   Mean_Mem20_Centroid_Power_powerFFT_WinHamming_HopSize512_WinSize512_Sum_AudioCh0 <= 0.010858
|   |   |   |   |   |   |   |   |   |   |   |   |   |   |   |   Std_Mem20_Centroid_Power_powerFFT_WinHamming_HopSize512_WinSize512_Sum_AudioCh0 <= 0.001019: m44 (10.0/1.0)
|   |   |   |   |   |   |   |   |   |   |   |   |   |   |   |   Std_Mem20_Centroid_Power_powerFFT_WinHamming_HopSize512_WinSize512_Sum_AudioCh0 > 0.001019: m31 (6.0/1.0)
|   |   |   |   |   |   |   |   |   |   |   |   |   |   |   Mean_Mem20_Centroid_Power_powerFFT_WinHamming_HopSize512_WinSize512_Sum_AudioCh0 > 0.010858
|   |   |   |   |   |   |   |   |   |   |   |   |   |   |   |   Mean_Mem20_MFCC8_Power_powerFFT_WinHamming_HopSize512_WinSize512_Sum_AudioCh0 <= 1.32836: m44 (206.0/1.0)
|   |   |   |   |   |   |   |   |   |   |   |   |   |   |   |   Mean_Mem20_MFCC8_Power_powerFFT_WinHamming_HopSize512_WinSize512_Sum_AudioCh0 > 1.32836: m41 (2.0)
|   |   |   |   |   |   |   |   |   |   |   |   |   Mean_Mem20_MFCC11_Power_powerFFT_WinHamming_HopSize512_WinSize512_Sum_AudioCh0 > 0.730098: m56 (4.0/1.0)
|   |   |   |   |   |   |   |   Mean_Mem20_Centroid_Power_powerFFT_WinHamming_HopSize512_WinSize512_Sum_AudioCh0 > 0.014186
|   |   |   |   |   |   |   |   |   Mean_Mem20_MFCC8_Power_powerFFT_WinHamming_HopSize512_WinSize512_Sum_AudioCh0 <= -0.09311
|   |   |   |   |   |   |   |   |   |   Std_Mem20_Centroid_Power_powerFFT_WinHamming_HopSize512_WinSize512_Sum_AudioCh0 <= 0.001038
|   |   |   |   |   |   |   |   |   |   |   Mean_Mem20_Centroid_Power_powerFFT_WinHamming_HopSize512_WinSize512_Sum_AudioCh0 <= 0.019272: m52 (6.0)
|   |   |   |   |   |   |   |   |   |   |   Mean_Mem20_Centroid_Power_powerFFT_WinHamming_HopSize512_WinSize512_Sum_AudioCh0 > 0.019272: m51 (2.0)
|   |   |   |   |   |   |   |   |   |   Std_Mem20_Centroid_Power_powerFFT_WinHamming_HopSize512_WinSize512_Sum_AudioCh0 > 0.001038: m44 (18.0)
|   |   |   |   |   |   |   |   |   Mean_Mem20_MFCC8_Power_powerFFT_WinHamming_HopSize512_WinSize512_Sum_AudioCh0 > -0.09311
|   |   |   |   |   |   |   |   |   |   Mean_Mem20_Rolloff_Power_powerFFT_WinHamming_HopSize512_WinSize512_Sum_AudioCh0 <= 0.027237
|   |   |   |   |   |   |   |   |   |   |   Mean_Mem20_MFCC7_Power_powerFFT_WinHamming_HopSize512_WinSize512_Sum_AudioCh0 <= 0.481773: m57 (38.0)
|   |   |   |   |   |   |   |   |   |   |   Mean_Mem20_MFCC7_Power_powerFFT_WinHamming_HopSize512_WinSize512_Sum_AudioCh0 > 0.481773: m37 (2.0/1.0)
|   |   |   |   |   |   |   |   |   |   Mean_Mem20_Rolloff_Power_powerFFT_WinHamming_HopSize512_WinSize512_Sum_AudioCh0 > 0.027237
|   |   |   |   |   |   |   |   |   |   |   Mean_Mem20_Rolloff_Power_powerFFT_WinHamming_HopSize512_WinSize512_Sum_AudioCh0 <= 0.033074: m47 (26.0)
|   |   |   |   |   |   |   |   |   |   |   Mean_Mem20_Rolloff_Power_powerFFT_WinHamming_HopSize512_WinSize512_Sum_AudioCh0 > 0.033074
|   |   |   |   |   |   |   |   |   |   |   |   Mean_Mem20_Centroid_Power_powerFFT_WinHamming_HopSize512_WinSize512_Sum_AudioCh0 <= 0.020723: m41 (6.0)
|   |   |   |   |   |   |   |   |   |   |   |   Mean_Mem20_Centroid_Power_powerFFT_WinHamming_HopSize512_WinSize512_Sum_AudioCh0 > 0.020723: m57 (10.0)
|   |   |   Mean_Mem20_PeakRatio_Minimum_Chroma_A_Power_powerFFT_WinHamming_HopSize512_WinSize512_Sum_AudioCh0 > 1.628118
|   |   |   |   Mean_Mem20_Centroid_Power_powerFFT_WinHamming_HopSize512_WinSize512_Sum_AudioCh0 <= 0.012831
|   |   |   |   |   Mean_Mem20_PeakRatio_Average_Chroma_A_Power_powerFFT_WinHamming_HopSize512_WinSize512_Sum_AudioCh0 <= 1.262714
|   |   |   |   |   |   Mean_Mem20_MFCC8_Power_powerFFT_WinHamming_HopSize512_WinSize512_Sum_AudioCh0 <= 0.227491
|   |   |   |   |   |   |   Mean_Mem20_MFCC8_Power_powerFFT_WinHamming_HopSize512_WinSize512_Sum_AudioCh0 <= -1.023949
|   |   |   |   |   |   |   |   Mean_Mem20_MFCC7_Power_powerFFT_WinHamming_HopSize512_WinSize512_Sum_AudioCh0 <= -0.145794: m46 (111.0)
|   |   |   |   |   |   |   |   Mean_Mem20_MFCC7_Power_powerFFT_WinHamming_HopSize512_WinSize512_Sum_AudioCh0 > -0.145794: m45 (104.0/1.0)
|   |   |   |   |   |   |   Mean_Mem20_MFCC8_Power_powerFFT_WinHamming_HopSize512_WinSize512_Sum_AudioCh0 > -1.023949
|   |   |   |   |   |   |   |   Mean_Mem20_MFCC9_Power_powerFFT_WinHamming_HopSize512_WinSize512_Sum_AudioCh0 <= 0.868047
|   |   |   |   |   |   |   |   |   Std_Mem20_Centroid_Power_powerFFT_WinHamming_HopSize512_WinSize512_Sum_AudioCh0 <= 0.000353
|   |   |   |   |   |   |   |   |   |   Mean_Mem20_Rolloff_Power_powerFFT_WinHamming_HopSize512_WinSize512_Sum_AudioCh0 <= 0.360895
|   |   |   |   |   |   |   |   |   |   |   Mean_Mem20_MFCC8_Power_powerFFT_WinHamming_HopSize512_WinSize512_Sum_AudioCh0 <= -0.754402: m47 (12.0)
|   |   |   |   |   |   |   |   |   |   |   Mean_Mem20_MFCC8_Power_powerFFT_WinHamming_HopSize512_WinSize512_Sum_AudioCh0 > -0.754402
