{\rtf1\ansi\ansicpg1252\cocoartf1404\cocoasubrtf470
{\fonttbl\f0\fswiss\fcharset0 Helvetica;}
{\colortbl;\red255\green255\blue255;}
\margl1440\margr1440\vieww10800\viewh8400\viewkind0
\pard\tx566\tx1133\tx1700\tx2267\tx2834\tx3401\tx3968\tx4535\tx5102\tx5669\tx6236\tx6803\pardirnatural\partightenfactor0

\f0\fs24 \cf0 == Model info\
\
Model                          \
meka.classifiers.multilabel.BCC: Node #1\
\
J48 pruned tree\
------------------\
\
Mean_Mem20_PeakRatio_Minimum_Chroma_A_Power_powerFFT_WinHamming_HopSize512_WinSize512_Sum_AudioCh0 <= 3.491444\
|   Std_Mem20_PeakRatio_Minimum_Chroma_A_Power_powerFFT_WinHamming_HopSize512_WinSize512_Sum_AudioCh0 <= 0.132887\
|   |   Mean_Mem20_PeakRatio_Minimum_Chroma_A_Power_powerFFT_WinHamming_HopSize512_WinSize512_Sum_AudioCh0 <= 1.632088\
|   |   |   Std_Mem20_Rolloff_Power_powerFFT_WinHamming_HopSize512_WinSize512_Sum_AudioCh0 <= 0.013981\
|   |   |   |   Mean_Mem20_Flux_Power_powerFFT_WinHamming_HopSize512_WinSize512_Sum_AudioCh0 <= 0.078389\
|   |   |   |   |   Mean_Mem20_MFCC6_Power_powerFFT_WinHamming_HopSize512_WinSize512_Sum_AudioCh0 <= 0.662065\
|   |   |   |   |   |   Mean_Mem20_MFCC3_Power_powerFFT_WinHamming_HopSize512_WinSize512_Sum_AudioCh0 <= 1.898369\
|   |   |   |   |   |   |   Std_Mem20_MFCC0_Power_powerFFT_WinHamming_HopSize512_WinSize512_Sum_AudioCh0 <= 1.796221\
|   |   |   |   |   |   |   |   Std_Mem20_MFCC12_Power_powerFFT_WinHamming_HopSize512_WinSize512_Sum_AudioCh0 <= 0.20409\
|   |   |   |   |   |   |   |   |   Std_Mem20_ZeroCrossings_HopSize512_WinSize512_Sum_AudioCh0 <= 0.003726: m54 (2.0)\
|   |   |   |   |   |   |   |   |   Std_Mem20_ZeroCrossings_HopSize512_WinSize512_Sum_AudioCh0 > 0.003726: m57 (7.0/1.0)\
|   |   |   |   |   |   |   |   Std_Mem20_MFCC12_Power_powerFFT_WinHamming_HopSize512_WinSize512_Sum_AudioCh0 > 0.20409\
|   |   |   |   |   |   |   |   |   Mean_Mem20_MFCC8_Power_powerFFT_WinHamming_HopSize512_WinSize512_Sum_AudioCh0 <= -0.019671: m41 (5.0)\
|   |   |   |   |   |   |   |   |   Mean_Mem20_MFCC8_Power_powerFFT_WinHamming_HopSize512_WinSize512_Sum_AudioCh0 > -0.019671: m29 (188.0/1.0)\
|   |   |   |   |   |   |   Std_Mem20_MFCC0_Power_powerFFT_WinHamming_HopSize512_WinSize512_Sum_AudioCh0 > 1.796221\
|   |   |   |   |   |   |   |   Std_Mem20_Rolloff_Power_powerFFT_WinHamming_HopSize512_WinSize512_Sum_AudioCh0 <= 0.002294: m41 (23.0/1.0)\
|   |   |   |   |   |   |   |   Std_Mem20_Rolloff_Power_powerFFT_WinHamming_HopSize512_WinSize512_Sum_AudioCh0 > 0.002294\
|   |   |   |   |   |   |   |   |   Mean_Mem20_ZeroCrossings_HopSize512_WinSize512_Sum_AudioCh0 <= 0.014355\
|   |   |   |   |   |   |   |   |   |   Mean_Mem20_ZeroCrossings_HopSize512_WinSize512_Sum_AudioCh0 <= 0.012598: m25 (2.0/1.0)\
|   |   |   |   |   |   |   |   |   |   Mean_Mem20_ZeroCrossings_HopSize512_WinSize512_Sum_AudioCh0 > 0.012598: m39 (2.0/1.0)\
|   |   |   |   |   |   |   |   |   Mean_Mem20_ZeroCrossings_HopSize512_WinSize512_Sum_AudioCh0 > 0.014355: m40 (4.0)\
|   |   |   |   |   |   Mean_Mem20_MFCC3_Power_powerFFT_WinHamming_HopSize512_WinSize512_Sum_AudioCh0 > 1.898369\
|   |   |   |   |   |   |   Mean_Mem20_MFCC2_Power_powerFFT_WinHamming_HopSize512_WinSize512_Sum_AudioCh0 <= -0.883803\
|   |   |   |   |   |   |   |   Mean_Mem20_MFCC11_Power_powerFFT_WinHamming_HopSize512_WinSize512_Sum_AudioCh0 <= -0.080912\
|   |   |   |   |   |   |   |   |   Mean_Mem20_PeakRatio_Chroma_A_Power_powerFFT_WinHamming_HopSize512_WinSize512_Sum_AudioCh0 <= 0.000031: m54 (5.0/1.0)\
|   |   |   |   |   |   |   |   |   Mean_Mem20_PeakRatio_Chroma_A_Power_powerFFT_WinHamming_HopSize512_WinSize512_Sum_AudioCh0 > 0.000031: m53 (8.0)\
|   |   |   |   |   |   |   |   Mean_Mem20_MFCC11_Power_powerFFT_WinHamming_HopSize512_WinSize512_Sum_AudioCh0 > -0.080912: m41 (25.0/1.0)\
|   |   |   |   |   |   |   Mean_Mem20_MFCC2_Power_powerFFT_WinHamming_HopSize512_WinSize512_Sum_AudioCh0 > -0.883803\
|   |   |   |   |   |   |   |   Mean_Mem20_ZeroCrossings_HopSize512_WinSize512_Sum_AudioCh0 <= 0.015137: m56 (20.0)\
|   |   |   |   |   |   |   |   Mean_Mem20_ZeroCrossings_HopSize512_WinSize512_Sum_AudioCh0 > 0.015137: m48 (48.0)\
|   |   |   |   |   Mean_Mem20_MFCC6_Power_powerFFT_WinHamming_HopSize512_WinSize512_Sum_AudioCh0 > 0.662065\
|   |   |   |   |   |   Mean_Mem20_PeakRatio_Average_Chroma_A_Power_powerFFT_WinHamming_HopSize512_WinSize512_Sum_AudioCh0 <= 1.16485\
|   |   |   |   |   |   |   Mean_Mem20_Rolloff_Power_powerFFT_WinHamming_HopSize512_WinSize512_Sum_AudioCh0 <= 0.014591\
|   |   |   |   |   |   |   |   Mean_Mem20_MFCC1_Power_powerFFT_WinHamming_HopSize512_WinSize512_Sum_AudioCh0 <= 10.7411: m47 (30.0)\
|   |   |   |   |   |   |   |   Mean_Mem20_MFCC1_Power_powerFFT_WinHamming_HopSize512_WinSize512_Sum_AudioCh0 > 10.7411: m25 (5.0/1.0)\
|   |   |   |   |   |   |   Mean_Mem20_Rolloff_Power_powerFFT_WinHamming_HopSize512_WinSize512_Sum_AudioCh0 > 0.014591\
|   |   |   |   |   |   |   |   Mean_Mem20_MFCC5_Power_powerFFT_WinHamming_HopSize512_WinSize512_Sum_AudioCh0 <= 1.205287\
|   |   |   |   |   |   |   |   |   Mean_Mem20_Rolloff_Power_powerFFT_WinHamming_HopSize512_WinSize512_Sum_AudioCh0 <= 0.015953: m48 (2.0)\
|   |   |   |   |   |   |   |   |   Mean_Mem20_Rolloff_Power_powerFFT_WinHamming_HopSize512_WinSize512_Sum_AudioCh0 > 0.015953: m42 (24.0)\
|   |   |   |   |   |   |   |   Mean_Mem20_MFCC5_Power_powerFFT_WinHamming_HopSize512_WinSize512_Sum_AudioCh0 > 1.205287\
|   |   |   |   |   |   |   |   |   Mean_Mem20_Rolloff_Power_powerFFT_WinHamming_HopSize512_WinSize512_Sum_AudioCh0 <= 0.518482: m29 (4.0)\
|   |   |   |   |   |   |   |   |   Mean_Mem20_Rolloff_Power_powerFFT_WinHamming_HopSize512_WinSize512_Sum_AudioCh0 > 0.518482: m41 (2.0)\
|   |   |   |   |   |   Mean_Mem20_PeakRatio_Average_Chroma_A_Power_powerFFT_WinHamming_HopSize512_WinSize512_Sum_AudioCh0 > 1.16485\
|   |   |   |   |   |   |   Std_Mem20_Centroid_Power_powerFFT_WinHamming_HopSize512_WinSize512_Sum_AudioCh0 <= 0.000402: m55 (4.0)\
|   |   |   |   |   |   |   Std_Mem20_Centroid_Power_powerFFT_WinHamming_HopSize512_WinSize512_Sum_AudioCh0 > 0.000402\
|   |   |   |   |   |   |   |   Mean_Mem20_Rolloff_Power_powerFFT_WinHamming_HopSize512_WinSize512_Sum_AudioCh0 <= 0.009533: m44 (2.0)\
|   |   |   |   |   |   |   |   Mean_Mem20_Rolloff_Power_powerFFT_WinHamming_HopSize512_WinSize512_Sum_AudioCh0 > 0.009533: m56 (11.0)\
|   |   |   |   Mean_Mem20_Flux_Power_powerFFT_WinHamming_HopSize512_WinSize512_Sum_AudioCh0 > 0.078389\
|   |   |   |   |   Std_Mem20_PeakRatio_Minimum_Chroma_A_Power_powerFFT_WinHamming_HopSize512_WinSize512_Sum_AudioCh0 <= 0.047271\
|   |   |   |   |   |   Mean_Mem20_MFCC1_Power_powerFFT_WinHamming_HopSize512_WinSize512_Sum_AudioCh0 <= 10.567004\
|   |   |   |   |   |   |   Std_Mem20_Flux_Power_powerFFT_WinHamming_HopSize512_WinSize512_Sum_AudioCh0 <= 0.064748: m41 (5.0/1.0)\
|   |   |   |   |   |   |   Std_Mem20_Flux_Power_powerFFT_WinHamming_HopSize512_WinSize512_Sum_AudioCh0 > 0.064748: m56 (112.0)\
|   |   |   |   |   |   Mean_Mem20_MFCC1_Power_powerFFT_WinHamming_HopSize512_WinSize512_Sum_AudioCh0 > 10.567004\
|   |   |   |   |   |   |   Mean_Mem20_MFCC8_Power_powerFFT_WinHamming_HopSize512_WinSize512_Sum_AudioCh0 <= 0.291125\
|   |   |   |   |   |   |   |   Std_Mem20_Flux_Power_powerFFT_WinHamming_HopSize512_WinSize512_Sum_AudioCh0 <= 0.054403: m41 (5.0)\
|   |   |   |   |   |   |   |   Std_Mem20_Flux_Power_powerFFT_WinHamming_HopSize512_WinSize512_Sum_AudioCh0 > 0.054403: m55 (86.0)\
|   |   |   |   |   |   |   Mean_Mem20_MFCC8_Power_powerFFT_WinHamming_HopSize512_WinSize512_Sum_AudioCh0 > 0.291125\
|   |   |   |   |   |   |   |   Mean_Mem20_ZeroCrossings_HopSize512_WinSize512_Sum_AudioCh0 <= 0.012402: m39 (4.0)\
|   |   |   |   |   |   |   |   Mean_Mem20_ZeroCrossings_HopSize512_WinSize512_Sum_AudioCh0 > 0.012402: m56 (14.0)\
|   |   |   |   |   Std_Mem20_PeakRatio_Minimum_Chroma_A_Power_powerFFT_WinHamming_HopSize512_WinSize512_Sum_AudioCh0 > 0.047271\
|   |   |   |   |   |   Mean_Mem20_Centroid_Power_powerFFT_WinHamming_HopSize512_WinSize512_Sum_AudioCh0 <= 0.013762\
|   |   |   |   |   |   |   Mean_Mem20_PeakRatio_Minimum_Chroma_A_Power_powerFFT_WinHamming_HopSize512_WinSize512_Sum_AudioCh0 <= 1.517341\
|   |   |   |   |   |   |   |   Mean_Mem20_MFCC1_Power_powerFFT_WinHamming_HopSize512_WinSize512_Sum_AudioCh0 <= 11.104542\
|   |   |   |   |   |   |   |   |   Std_Mem20_MFCC1_Power_powerFFT_WinHamming_HopSize512_WinSize512_Sum_AudioCh0 <= 0.665368\
|   |   |   |   |   |   |   |   |   |   Mean_Mem20_MFCC9_Power_powerFFT_WinHamming_HopSize512_WinSize512_Sum_AudioCh0 <= 0.154859\
|   |   |   |   |   |   |   |   |   |   |   Mean_Mem20_MFCC3_Power_powerFFT_WinHamming_HopSize512_WinSize512_Sum_AudioCh0 <= 2.115874\
|   |   |   |   |   |   |   |   |   |   |   |   Mean_Mem20_ZeroCrossings_HopSize512_WinSize512_Sum_AudioCh0 <= 0.015723: m39 (3.0/1.0)\
|   |   |   |   |   |   |   |   |   |   |   |   Mean_Mem20_ZeroCrossings_HopSize512_WinSize512_Sum_AudioCh0 > 0.015723: m42 (11.0)\
|   |   |   |   |   |   |   |   |   |   |   Mean_Mem20_MFCC3_Power_powerFFT_WinHamming_HopSize512_WinSize512_Sum_AudioCh0 > 2.115874: m41 (20.0)\
|   |   |   |   |   |   |   |   |   |   Mean_Mem20_MFCC9_Power_powerFFT_WinHamming_HopSize512_WinSize512_Sum_AudioCh0 > 0.154859\
|   |   |   |   |   |   |   |   |   |   |   Std_Mem20_Flux_Power_powerFFT_WinHamming_HopSize512_WinSize512_Sum_AudioCh0 <= 0.056463: m40 (19.0/1.0)\
|   |   |   |   |   |   |   |   |   |   |   Std_Mem20_Flux_Power_powerFFT_WinHamming_HopSize512_WinSize512_Sum_AudioCh0 > 0.056463: m44 (5.0)\
|   |   |   |   |   |   |   |   |   Std_Mem20_MFCC1_Power_powerFFT_WinHamming_HopSize512_WinSize512_Sum_AudioCh0 > 0.665368\
|   |   |   |   |   |   |   |   |   |   Std_Mem20_MFCC7_Power_powerFFT_WinHamming_HopSize512_WinSize512_Sum_AudioCh0 <= 0.292517\
|   |   |   |   |   |   |   |   |   |   |   Mean_Mem20_MFCC4_Power_powerFFT_WinHamming_HopSize512_WinSize512_Sum_AudioCh0 <= 1.238333\
|   |   |   |   |   |   |   |   |   |   |   |   Mean_Mem20_MFCC1_Power_powerFFT_WinHamming_HopSize512_WinSize512_Sum_AudioCh0 <= 9.725831: m56 (9.0)\
|   |   |   |   |   |   |   |   |   |   |   |   Mean_Mem20_MFCC1_Power_powerFFT_WinHamming_HopSize512_WinSize512_Sum_AudioCh0 > 9.725831: m47 (68.0/1.0)\
|   |   |   |   |   |   |   |   |   |   |   Mean_Mem20_MFCC4_Power_powerFFT_WinHamming_HopSize512_WinSize512_Sum_AudioCh0 > 1.238333\
|   |   |   |   |   |   |   |   |   |   |   |   Mean_Mem20_Rolloff_Power_powerFFT_WinHamming_HopSize512_WinSize512_Sum_AudioCh0 <= 0.017704: m48 (4.0)\
|   |   |   |   |   |   |   |   |   |   |   |   Mean_Mem20_Rolloff_Power_powerFFT_WinHamming_HopSize512_WinSize512_Sum_AudioCh0 > 0.017704: m39 (2.0)\
|   |   |   |   |   |   |   |   |   |   Std_Mem20_MFCC7_Power_powerFFT_WinHamming_HopSize512_WinSize512_Sum_AudioCh0 > 0.292517\
|   |   |   |   |   |   |   |   |   |   |   Std_Mem20_Centroid_Power_powerFFT_WinHamming_HopSize512_WinSize512_Sum_AudioCh0 <= 0.002771\
|   |   |   |   |   |   |   |   |   |   |   |   Mean_Mem20_MFCC11_Power_powerFFT_WinHamming_HopSize512_WinSize512_Sum_AudioCh0 <= -0.337915\
|   |   |   |   |   |   |   |   |   |   |   |   |   Std_Mem20_Rolloff_Power_powerFFT_WinHamming_HopSize512_WinSize512_Sum_AudioCh0 <= 0.006862: m43 (14.0)\
|   |   |   |   |   |   |   |   |   |   |   |   |   Std_Mem20_Rolloff_Power_powerFFT_WinHamming_HopSize512_WinSize512_Sum_AudioCh0 > 0.006862: m36 (4.0)\
|   |   |   |   |   |   |   |   |   |   |   |   Mean_Mem20_MFCC11_Power_powerFFT_WinHamming_HopSize512_WinSize512_Sum_AudioCh0 > -0.337915\
|   |   |   |   |   |   |   |   |   |   |   |   |   Std_Mem20_Flux_Power_powerFFT_WinHamming_HopSize512_WinSize512_Sum_AudioCh0 <= 0.121735\
|   |   |   |   |   |   |   |   |   |   |   |   |   |   Mean_Mem20_MFCC3_Power_powerFFT_WinHamming_HopSize512_WinSize512_Sum_AudioCh0 <= 1.330712\
|   |   |   |   |   |   |   |   |   |   |   |   |   |   |   Mean_Mem20_PeakRatio_Chroma_A_Power_powerFFT_WinHamming_HopSize512_WinSize512_Sum_AudioCh0 <= 0.000025: m43 (11.0/1.0)\
|   |   |   |   |   |   |   |   |   |   |   |   |   |   |   Mean_Mem20_PeakRatio_Chroma_A_Power_powerFFT_WinHamming_HopSize512_WinSize512_Sum_AudioCh0 > 0.000025: m44 (3.0)\
|   |   |   |   |   |   |   |   |   |   |   |   |   |   Mean_Mem20_MFCC3_Power_powerFFT_WinHamming_HopSize512_WinSize512_Sum_AudioCh0 > 1.330712\
|   |   |   |   |   |   |   |   |   |   |   |   |   |   |   Mean_Mem20_MFCC4_Power_powerFFT_WinHamming_HopSize512_WinSize512_Sum_AudioCh0 <= 1.922816\
|   |   |   |   |   |   |   |   |   |   |   |   |   |   |   |   Mean_Mem20_MFCC12_Power_powerFFT_WinHamming_HopSize512_WinSize512_Sum_AudioCh0 <= -0.160102: m56 (28.0/1.0)\
|   |   |   |   |   |   |   |   |   |   |   |   |   |   |   |   Mean_Mem20_MFCC12_Power_powerFFT_WinHamming_HopSize512_WinSize512_Sum_AudioCh0 > -0.160102\
|   |   |   |   |   |   |   |   |   |   |   |   |   |   |   |   |   Mean_Mem20_PeakRatio_Average_Chroma_A_Power_powerFFT_WinHamming_HopSize512_WinSize512_Sum_AudioCh0 <= 1.18995\
|   |   |   |   |   |   |   |   |   |   |   |   |   |   |   |   |   |   Std_Mem20_MFCC11_Power_powerFFT_WinHamming_HopSize512_WinSize512_Sum_AudioCh0 <= 0.416266: m44 (53.0/1.0)\
|   |   |   |   |   |   |   |   |   |   |   |   |   |   |   |   |   |   Std_Mem20_MFCC11_Power_powerFFT_WinHamming_HopSize512_WinSize512_Sum_AudioCh0 > 0.416266: m56 (3.0)\
|   |   |   |   |   |   |   |   |   |   |   |   |   |   |   |   |   Mean_Mem20_PeakRatio_Average_Chroma_A_Power_powerFFT_WinHamming_HopSize512_WinSize512_Sum_AudioCh0 > 1.18995: m56 (18.0)\
|   |   |   |   |   |   |   |   |   |   |   |   |   |   |   Mean_Mem20_MFCC4_Power_powerFFT_WinHamming_HopSize512_WinSize512_Sum_AudioCh0 > 1.922816: m46 (3.0/1.0)\
|   |   |   |   |   |   |   |   |   |   |   |   |   Std_Mem20_Flux_Power_powerFFT_WinHamming_HopSize512_WinSize512_Sum_AudioCh0 > 0.121735: m47 (5.0/1.0)\
|   |   |   |   |   |   |   |   |   |   |   Std_Mem20_Centroid_Power_powerFFT_WinHamming_HopSize512_WinSize512_Sum_AudioCh0 > 0.002771\
|   |   |   |   |   |   |   |   |   |   |   |   Mean_Mem20_PeakRatio_Chroma_A_Power_powerFFT_WinHamming_HopSize512_WinSize512_Sum_AudioCh0 <= 0.000041: m39 (5.0)\
|   |   |   |   |   |   |   |   |   |   |   |   Mean_Mem20_PeakRatio_Chroma_A_Power_powerFFT_WinHamming_HopSize512_WinSize512_Sum_AudioCh0 > 0.000041: m41 (14.0)\
|   |   |   |   |   |   |   |   Mean_Mem20_MFCC1_Power_powerFFT_WinHamming_HopSize512_WinSize512_Sum_AudioCh0 > 11.104542\
|   |   |   |   |   |   |   |   |   Mean_Mem20_MFCC7_Power_powerFFT_WinHamming_HopSize512_WinSize512_Sum_AudioCh0 <= 0.896146\
|   |   |   |   |   |   |   |   |   |   Mean_Mem20_ZeroCrossings_HopSize512_WinSize512_Sum_AudioCh0 <= 0.012402\
|   |   |   |   |   |   |   |   |   |   |   Std_Mem20_Centroid_Power_powerFFT_WinHamming_HopSize512_WinSize512_Sum_AudioCh0 <= 0.001104\
|   |   |   |   |   |   |   |   |   |   |   |   Mean_Mem20_Rolloff_Power_powerFFT_WinHamming_HopSize512_WinSize512_Sum_AudioCh0 <= 0.012062: m47 (10.0)\
|   |   |   |   |   |   |   |   |   |   |   |   Mean_Mem20_Rolloff_Power_powerFFT_WinHamming_HopSize512_WinSize512_Sum_AudioCh0 > 0.012062: m30 (10.0)\
|   |   |   |   |   |   |   |   |   |   |   Std_Mem20_Centroid_Power_powerFFT_WinHamming_HopSize512_WinSize512_Sum_AudioCh0 > 0.001104\
|   |   |   |   |   |   |   |   |   |   |   |   Mean_Mem20_MFCC2_Power_powerFFT_WinHamming_HopSize512_WinSize512_Sum_AudioCh0 <= -0.385635: m41 (7.0)\
|   |   |   |   |   |   |   |   |   |   |   |   Mean_Mem20_MFCC2_Power_powerFFT_WinHamming_HopSize512_WinSize512_Sum_AudioCh0 > -0.385635\
|   |   |   |   |   |   |   |   |   |   |   |   |   Mean_Mem20_Rolloff_Power_powerFFT_WinHamming_HopSize512_WinSize512_Sum_AudioCh0 <= 0.011284: m25 (3.0)\
|   |   |   |   |   |   |   |   |   |   |   |   |   Mean_Mem20_Rolloff_Power_powerFFT_WinHamming_HopSize512_WinSize512_Sum_AudioCh0 > 0.011284: m28 (2.0/1.0)\
|   |   |   |   |   |   |   |   |   |   Mean_Mem20_ZeroCrossings_HopSize512_WinSize512_Sum_AudioCh0 > 0.012402\
|   |   |   |   |   |   |   |   |   |   |   Mean_Mem20_MFCC10_Power_powerFFT_WinHamming_HopSize512_WinSize512_Sum_AudioCh0 <= -0.285967\
|   |   |   |   |   |   |   |   |   |   |   |   Std_Mem20_Flux_Power_powerFFT_WinHamming_HopSize512_WinSize512_Sum_AudioCh0 <= 0.051513\
|   |   |   |   |   |   |   |   |   |   |   |   |   Mean_Mem20_Rolloff_Power_powerFFT_WinHamming_HopSize512_WinSize512_Sum_AudioCh0 <= 0.021984: m40 (6.0/1.0)\
|   |   |   |   |   |   |   |   |   |   |   |   |   Mean_Mem20_Rolloff_Power_powerFFT_WinHamming_HopSize512_WinSize512_Sum_AudioCh0 > 0.021984: m42 (3.0/1.0)\
|   |   |   |   |   |   |   |   |   |   |   |   Std_Mem20_Flux_Power_powerFFT_WinHamming_HopSize512_WinSize512_Sum_AudioCh0 > 0.051513: m39 (56.0/1.0)\
|   |   |   |   |   |   |   |   |   |   |   Mean_Mem20_MFCC10_Power_powerFFT_WinHamming_HopSize512_WinSize512_Sum_AudioCh0 > -0.285967\
|   |   |   |   |   |   |   |   |   |   |   |   Mean_Mem20_MFCC2_Power_powerFFT_WinHamming_HopSize512_WinSize512_Sum_AudioCh0 <= -1.556235\
|   |   |   |   |   |   |   |   |   |   |   |   |   Std_Mem20_MFCC10_Power_powerFFT_WinHamming_HopSize512_WinSize512_Sum_AudioCh0 <= 0.410095: m41 (49.0)\
|   |   |   |   |   |   |   |   |   |   |   |   |   Std_Mem20_MFCC10_Power_powerFFT_WinHamming_HopSize512_WinSize512_Sum_AudioCh0 > 0.410095: m40 (3.0)\
|   |   |   |   |   |   |   |   |   |   |   |   Mean_Mem20_MFCC2_Power_powerFFT_WinHamming_HopSize512_WinSize512_Sum_AudioCh0 > -1.556235\
|   |   |   |   |   |   |   |   |   |   |   |   |   Mean_Mem20_MFCC11_Power_powerFFT_WinHamming_HopSize512_WinSize512_Sum_AudioCh0 <= 0.244598\
|   |   |   |   |   |   |   |   |   |   |   |   |   |   Mean_Mem20_Rolloff_Power_powerFFT_WinHamming_HopSize512_WinSize512_Sum_AudioCh0 <= 0.01751\
|   |   |   |   |   |   |   |   |   |   |   |   |   |   |   Mean_Mem20_PeakRatio_Chroma_D#_Power_powerFFT_WinHamming_HopSize512_WinSize512_Sum_AudioCh0 <= 0.00001: m39 (2.0)\
|   |   |   |   |   |   |   |   |   |   |   |   |   |   |   Mean_Mem20_PeakRatio_Chroma_D#_Power_powerFFT_WinHamming_HopSize512_WinSize512_Sum_AudioCh0 > 0.00001: m42 (15.0)\
|   |   |   |   |   |   |   |   |   |   |   |   |   |   Mean_Mem20_Rolloff_Power_powerFFT_WinHamming_HopSize512_WinSize512_Sum_AudioCh0 > 0.01751: m40 (22.0/1.0)\
|   |   |   |   |   |   |   |   |   |   |   |   |   Mean_Mem20_MFCC11_Power_powerFFT_WinHamming_HopSize512_WinSize512_Sum_AudioCh0 > 0.244598\
|   |   |   |   |   |   |   |   |   |   |   |   |   |   Mean_Mem20_MFCC3_Power_powerFFT_WinHamming_HopSize512_WinSize512_Sum_AudioCh0 <= 0.843403\
|   |   |   |   |   |   |   |   |   |   |   |   |   |   |   Mean_Mem20_ZeroCrossings_HopSize512_WinSize512_Sum_AudioCh0 <= 0.013867: m28 (7.0)\
|   |   |   |   |   |   |   |   |   |   |   |   |   |   |   Mean_Mem20_ZeroCrossings_HopSize512_WinSize512_Sum_AudioCh0 > 0.013867: m41 (5.0)\
|   |   |   |   |   |   |   |   |   |   |   |   |   |   Mean_Mem20_MFCC3_Power_powerFFT_WinHamming_HopSize512_WinSize512_Sum_AudioCh0 > 0.843403\
|   |   |   |   |   |   |   |   |   |   |   |   |   |   |   Mean_Mem20_PeakRatio_Chroma_A_Power_powerFFT_WinHamming_HopSize512_WinSize512_Sum_AudioCh0 <= 0.000025: m29 (19.0)\
|   |   |   |   |   |   |   |   |   |   |   |   |   |   |   Mean_Mem20_PeakRatio_Chroma_A_Power_powerFFT_WinHamming_HopSize512_WinSize512_Sum_AudioCh0 > 0.000025: m39 (3.0)\
|   |   |   |   |   |   |   |   |   Mean_Mem20_MFCC7_Power_powerFFT_WinHamming_HopSize512_WinSize512_Sum_AudioCh0 > 0.896146\
|   |   |   |   |   |   |   |   |   |   Mean_Mem20_ZeroCrossings_HopSize512_WinSize512_Sum_AudioCh0 <= 0.016504: m21 (13.0/1.0)\
|   |   |   |   |   |   |   |   |   |   Mean_Mem20_ZeroCrossings_HopSize512_WinSize512_Sum_AudioCh0 > 0.016504\
|   |   |   |   |   |   |   |   |   |   |   Mean_Mem20_Flux_Power_powerFFT_WinHamming_HopSize512_WinSize512_Sum_AudioCh0 <= 0.097094: m41 (3.0/1.0)\
|   |   |   |   |   |   |   |   |   |   |   Mean_Mem20_Flux_Power_powerFFT_WinHamming_HopSize512_WinSize512_Sum_AudioCh0 > 0.097094: m43 (28.0)\
|   |   |   |   |   |   |   Mean_Mem20_PeakRatio_Minimum_Chroma_A_Power_powerFFT_WinHamming_HopSize512_WinSize512_Sum_AudioCh0 > 1.517341\
|   |   |   |   |   |   |   |   Mean_Mem20_MFCC12_Power_powerFFT_WinHamming_HopSize512_WinSize512_Sum_AudioCh0 <= 1.240449\
|   |   |   |   |   |   |   |   |   Mean_Mem20_PeakRatio_Average_Chroma_A_Power_powerFFT_WinHamming_HopSize512_WinSize512_Sum_AudioCh0 <= 1.210711\
|   |   |   |   |   |   |   |   |   |   Mean_Mem20_MFCC3_Power_powerFFT_WinHamming_HopSize512_WinSize512_Sum_AudioCh0 <= 1.738775\
|   |   |   |   |   |   |   |   |   |   |   Mean_Mem20_MFCC4_Power_powerFFT_WinHamming_HopSize512_WinSize512_Sum_AudioCh0 <= 0.088827\
|   |   |   |   |   |   |   |   |   |   |   |   Std_Mem20_Centroid_Power_powerFFT_WinHamming_HopSize512_WinSize512_Sum_AudioCh0 <= 0.00159: m49 (16.0)\
|   |   |   |   |   |   |   |   |   |   |   |   Std_Mem20_Centroid_Power_powerFFT_WinHamming_HopSize512_WinSize512_Sum_AudioCh0 > 0.00159: m45 (3.0)\
|   |   |   |   |   |   |   |   |   |   |   Mean_Mem20_MFCC4_Power_powerFFT_WinHamming_HopSize512_WinSize512_Sum_AudioCh0 > 0.088827\
|   |   |   |   |   |   |   |   |   |   |   |   Std_Mem20_Rolloff_Power_powerFFT_WinHamming_HopSize512_WinSize512_Sum_AudioCh0 <= 0.004132\
|   |   |   |   |   |   |   |   |   |   |   |   |   Mean_Mem20_Rolloff_Power_powerFFT_WinHamming_HopSize512_WinSize512_Sum_AudioCh0 <= 0.013813: m47 (2.0)\
|   |   |   |   |   |   |   |   |   |   |   |   |   Mean_Mem20_Rolloff_Power_powerFFT_WinHamming_HopSize512_WinSize512_Sum_AudioCh0 > 0.013813: m35 (10.0)\
|   |   |   |   |   |   |   |   |   |   |   |   Std_Mem20_Rolloff_Power_powerFFT_WinHamming_HopSize512_WinSize512_Sum_AudioCh0 > 0.004132\
|   |   |   |   |   |   |   |   |   |   |   |   |   Mean_Mem20_ZeroCrossings_HopSize512_WinSize512_Sum_AudioCh0 <= 0.013574: m54 (3.0)\
|   |   |   |   |   |   |   |   |   |   |   |   |   Mean_Mem20_ZeroCrossings_HopSize512_WinSize512_Sum_AudioCh0 > 0.013574: m34 (3.0/1.0)\
|   |   |   |   |   |   |   |   |   |   Mean_Mem20_MFCC3_Power_powerFFT_WinHamming_HopSize512_WinSize512_Sum_AudioCh0 > 1.738775\
|   |   |   |   |   |   |   |   |   |   |   Mean_Mem20_Centroid_Power_powerFFT_WinHamming_HopSize512_WinSize512_Sum_AudioCh0 <= 0.011157\
|   |   |   |   |   |   |   |   |   |   |   |   Mean_Mem20_PeakRatio_Chroma_A_Power_powerFFT_WinHamming_HopSize512_WinSize512_Sum_AudioCh0 <= 0.000014: m43 (6.0)\
|   |   |   |   |   |   |   |   |   |   |   |   Mean_Mem20_PeakRatio_Chroma_A_Power_powerFFT_WinHamming_HopSize512_WinSize512_Sum_AudioCh0 > 0.000014: m41 (4.0)\
|   |   |   |   |   |   |   |   |   |   |   Mean_Mem20_Centroid_Power_powerFFT_WinHamming_HopSize512_WinSize512_Sum_AudioCh0 > 0.011157: m55 (62.0)\
|   |   |   |   |   |   |   |   |   Mean_Mem20_PeakRatio_Average_Chroma_A_Power_powerFFT_WinHamming_HopSize512_WinSize512_Sum_AudioCh0 > 1.210711\
|   |   |   |   |   |   |   |   |   |   Mean_Mem20_PeakRatio_Chroma_B_Power_powerFFT_WinHamming_HopSize512_WinSize512_Sum_AudioCh0 <= 0.000022\
|   |   |   |   |   |   |   |   |   |   |   Mean_Mem20_MFCC12_Power_powerFFT_WinHamming_HopSize512_WinSize512_Sum_AudioCh0 <= 0.223222\
|   |   |   |   |   |   |   |   |   |   |   |   Mean_Mem20_ZeroCrossings_HopSize512_WinSize512_Sum_AudioCh0 <= 0.01582: m39 (2.0/1.0)\
|   |   |   |   |   |   |   |   |   |   |   |   Mean_Mem20_ZeroCrossings_HopSize512_WinSize512_Sum_AudioCh0 > 0.01582: m28 (2.0/1.0)\
|   |   |   |   |   |   |   |   |   |   |   Mean_Mem20_MFCC12_Power_powerFFT_WinHamming_HopSize512_WinSize512_Sum_AudioCh0 > 0.223222: m44 (71.0/1.0)\
|   |   |   |   |   |   |   |   |   |   Mean_Mem20_PeakRatio_Chroma_B_Power_powerFFT_WinHamming_HopSize512_WinSize512_Sum_AudioCh0 > 0.000022\
|   |   |   |   |   |   |   |   |   |   |   Mean_Mem20_ZeroCrossings_HopSize512_WinSize512_Sum_AudioCh0 <= 0.02168: m35 (2.0)\
|   |   |   |   |   |   |   |   |   |   |   Mean_Mem20_ZeroCrossings_HopSize512_WinSize512_Sum_AudioCh0 > 0.02168: m45 (2.0)\
|   |   |   |   |   |   |   |   Mean_Mem20_MFCC12_Power_powerFFT_WinHamming_HopSize512_WinSize512_Sum_AudioCh0 > 1.240449: m56 (26.0)\
|   |   |   |   |   |   Mean_Mem20_Centroid_Power_powerFFT_WinHamming_HopSize512_WinSize512_Sum_AudioCh0 > 0.013762\
|   |   |   |   |   |   |   Mean_Mem20_MFCC11_Power_powerFFT_WinHamming_HopSize512_WinSize512_Sum_AudioCh0 <= -0.297585\
|   |   |   |   |   |   |   |   Std_Mem20_PeakRatio_Chroma_A_Power_powerFFT_WinHamming_HopSize512_WinSize512_Sum_AudioCh0 <= 0.00001\
|   |   |   |   |   |   |   |   |   Std_Mem20_Centroid_Power_powerFFT_WinHamming_HopSize512_WinSize512_Sum_AudioCh0 <= 0.002298\
|   |   |   |   |   |   |   |   |   |   Mean_Mem20_Rolloff_Power_powerFFT_WinHamming_HopSize512_WinSize512_Sum_AudioCh0 <= 0.01965: m43 (3.0)\
|   |   |   |   |   |   |   |   |   |   Mean_Mem20_Rolloff_Power_powerFFT_WinHamming_HopSize512_WinSize512_Sum_AudioCh0 > 0.01965: m51 (6.0/1.0)\
|   |   |   |   |   |   |   |   |   Std_Mem20_Centroid_Power_powerFFT_WinHamming_HopSize512_WinSize512_Sum_AudioCh0 > 0.002298: m37 (12.0)\
|   |   |   |   |   |   |   |   Std_Mem20_PeakRatio_Chroma_A_Power_powerFFT_WinHamming_HopSize512_WinSize512_Sum_AudioCh0 > 0.00001\
|   |   |   |   |   |   |   |   |   Std_Mem20_Rolloff_Power_powerFFT_WinHamming_HopSize512_WinSize512_Sum_AudioCh0 <= 0.00123: m56 (16.0)\
|   |   |   |   |   |   |   |   |   Std_Mem20_Rolloff_Power_powerFFT_WinHamming_HopSize512_WinSize512_Sum_AudioCh0 > 0.00123: m50 (9.0/1.0)\
|   |   |   |   |   |   |   Mean_Mem20_MFCC11_Power_powerFFT_WinHamming_HopSize512_WinSize512_Sum_AudioCh0 > -0.297585\
|   |   |   |   |   |   |   |   Std_Mem20_MFCC6_Power_powerFFT_WinHamming_HopSize512_WinSize512_Sum_AudioCh0 <= 0.454354\
|   |   |   |   |   |   |   |   |   Std_Mem20_Flux_Power_powerFFT_WinHamming_HopSize512_WinSize512_Sum_AudioCh0 <= 0.086593\
|   |   |   |   |   |   |   |   |   |   Mean_Mem20_MFCC2_Power_powerFFT_WinHamming_HopSize512_WinSize512_Sum_AudioCh0 <= -2.205779\
|   |   |   |   |   |   |   |   |   |   |   Mean_Mem20_Rolloff_Power_powerFFT_WinHamming_HopSize512_WinSize512_Sum_AudioCh0 <= 0.04144\
|   |   |   |   |   |   |   |   |   |   |   |   Mean_Mem20_MFCC6_Power_powerFFT_WinHamming_HopSize512_WinSize512_Sum_AudioCh0 <= 0.499514: m41 (57.0)\
|   |   |   |   |   |   |   |   |   |   |   |   Mean_Mem20_MFCC6_Power_powerFFT_WinHamming_HopSize512_WinSize512_Sum_AudioCh0 > 0.499514\
|   |   |   |   |   |   |   |   |   |   |   |   |   Mean_Mem20_MFCC1_Power_powerFFT_WinHamming_HopSize512_WinSize512_Sum_AudioCh0 <= 12.356098\
|   |   |   |   |   |   |   |   |   |   |   |   |   |   Mean_Mem20_PeakRatio_Chroma_A_Power_powerFFT_WinHamming_HopSize512_WinSize512_Sum_AudioCh0 <= 0.000012\
|   |   |   |   |   |   |   |   |   |   |   |   |   |   |   Std_Mem20_PeakRatio_Average_Chroma_A_Power_powerFFT_WinHamming_HopSize512_WinSize512_Sum_AudioCh0 <= 0.039305: m50 (3.0)\
|   |   |   |   |   |   |   |   |   |   |   |   |   |   |   Std_Mem20_PeakRatio_Average_Chroma_A_Power_powerFFT_WinHamming_HopSize512_WinSize512_Sum_AudioCh0 > 0.039305: m29 (4.0)\
|   |   |   |   |   |   |   |   |   |   |   |   |   |   Mean_Mem20_PeakRatio_Chroma_A_Power_powerFFT_WinHamming_HopSize512_WinSize512_Sum_AudioCh0 > 0.000012: m40 (2.0)\
|   |   |   |   |   |   |   |   |   |   |   |   |   Mean_Mem20_MFCC1_Power_powerFFT_WinHamming_HopSize512_WinSize512_Sum_AudioCh0 > 12.356098: m52 (10.0)\
|   |   |   |   |   |   |   |   |   |   |   Mean_Mem20_Rolloff_Power_powerFFT_WinHamming_HopSize512_WinSize512_Sum_AudioCh0 > 0.04144\
|   |   |   |   |   |   |   |   |   |   |   |   Mean_Mem20_Flux_Power_powerFFT_WinHamming_HopSize512_WinSize512_Sum_AudioCh0 <= 0.094114: m54 (8.0)\
|   |   |   |   |   |   |   |   |   |   |   |   Mean_Mem20_Flux_Power_powerFFT_WinHamming_HopSize512_WinSize512_Sum_AudioCh0 > 0.094114: m55 (5.0/1.0)\
|   |   |   |   |   |   |   |   |   |   Mean_Mem20_MFCC2_Power_powerFFT_WinHamming_HopSize512_WinSize512_Sum_AudioCh0 > -2.205779\
|   |   |   |   |   |   |   |   |   |   |   Mean_Mem20_MFCC1_Power_powerFFT_WinHamming_HopSize512_WinSize512_Sum_AudioCh0 <= 10.911024\
|   |   |   |   |   |   |   |   |   |   |   |   Mean_Mem20_MFCC8_Power_powerFFT_WinHamming_HopSize512_WinSize512_Sum_AudioCh0 <= -0.185542\
|   |   |   |   |   |   |   |   |   |   |   |   |   Mean_Mem20_ZeroCrossings_HopSize512_WinSize512_Sum_AudioCh0 <= 0.021582: m55 (13.0)\
|   |   |   |   |   |   |   |   |   |   |   |   |   Mean_Mem20_ZeroCrossings_HopSize512_WinSize512_Sum_AudioCh0 > 0.021582: m57 (7.0)\
|   |   |   |   |   |   |   |   |   |   |   |   Mean_Mem20_MFCC8_Power_powerFFT_WinHamming_HopSize512_WinSize512_Sum_AudioCh0 > -0.185542\
|   |   |   |   |   |   |   |   |   |   |   |   |   Std_Mem20_Centroid_Power_powerFFT_WinHamming_HopSize512_WinSize512_Sum_AudioCh0 <= 0.002014\
|   |   |   |   |   |   |   |   |   |   |   |   |   |   Std_Mem20_PeakRatio_Chroma_D#_Power_powerFFT_WinHamming_HopSize512_WinSize512_Sum_AudioCh0 <= 0.000029: m56 (11.0)\
|   |   |   |   |   |   |   |   |   |   |   |   |   |   Std_Mem20_PeakRatio_Chroma_D#_Power_powerFFT_WinHamming_HopSize512_WinSize512_Sum_AudioCh0 > 0.000029: m41 (4.0)\
|   |   |   |   |   |   |   |   |   |   |   |   |   Std_Mem20_Centroid_Power_powerFFT_WinHamming_HopSize512_WinSize512_Sum_AudioCh0 > 0.002014\
|   |   |   |   |   |   |   |   |   |   |   |   |   |   Mean_Mem20_PeakRatio_Chroma_C_Power_powerFFT_WinHamming_HopSize512_WinSize512_Sum_AudioCh0 <= 0.00001\
|   |   |   |   |   |   |   |   |   |   |   |   |   |   |   Std_Mem20_ZeroCrossings_HopSize512_WinSize512_Sum_AudioCh0 <= 0.004808: m54 (11.0)\
|   |   |   |   |   |   |   |   |   |   |   |   |   |   |   Std_Mem20_ZeroCrossings_HopSize512_WinSize512_Sum_AudioCh0 > 0.004808: m46 (4.0)\
|   |   |   |   |   |   |   |   |   |   |   |   |   |   Mean_Mem20_PeakRatio_Chroma_C_Power_powerFFT_WinHamming_HopSize512_WinSize512_Sum_AudioCh0 > 0.00001: m44 (3.0)\
|   |   |   |   |   |   |   |   |   |   |   Mean_Mem20_MFCC1_Power_powerFFT_WinHamming_HopSize512_WinSize512_Sum_AudioCh0 > 10.911024\
|   |   |   |   |   |   |   |   |   |   |   |   Mean_Mem20_MFCC3_Power_powerFFT_WinHamming_HopSize512_WinSize512_Sum_AudioCh0 <= 1.145191: m50 (46.0/1.0)\
|   |   |   |   |   |   |   |   |   |   |   |   Mean_Mem20_MFCC3_Power_powerFFT_WinHamming_HopSize512_WinSize512_Sum_AudioCh0 > 1.145191\
|   |   |   |   |   |   |   |   |   |   |   |   |   Mean_Mem20_PeakRatio_Chroma_A_Power_powerFFT_WinHamming_HopSize512_WinSize512_Sum_AudioCh0 <= 0.00001: m48 (4.0)\
|   |   |   |   |   |   |   |   |   |   |   |   |   Mean_Mem20_PeakRatio_Chroma_A_Power_powerFFT_WinHamming_HopSize512_WinSize512_Sum_AudioCh0 > 0.00001: m47 (5.0)\
|   |   |   |   |   |   |   |   |   Std_Mem20_Flux_Power_powerFFT_WinHamming_HopSize512_WinSize512_Sum_AudioCh0 > 0.086593\
|   |   |   |   |   |   |   |   |   |   Std_Mem20_PeakRatio_Chroma_E_Power_powerFFT_WinHamming_HopSize512_WinSize512_Sum_AudioCh0 <= 0.000013\
|   |   |   |   |   |   |   |   |   |   |   Std_Mem20_PeakRatio_Average_Chroma_A_Power_powerFFT_WinHamming_HopSize512_WinSize512_Sum_AudioCh0 <= 0.045627: m55 (45.0/1.0)\
|   |   |   |   |   |   |   |   |   |   |   Std_Mem20_PeakRatio_Average_Chroma_A_Power_powerFFT_WinHamming_HopSize512_WinSize512_Sum_AudioCh0 > 0.045627\
|   |   |   |   |   |   |   |   |   |   |   |   Mean_Mem20_ZeroCrossings_HopSize512_WinSize512_Sum_AudioCh0 <= 0.025488: m38 (2.0/1.0)\
|   |   |   |   |   |   |   |   |   |   |   |   Mean_Mem20_ZeroCrossings_HopSize512_WinSize512_Sum_AudioCh0 > 0.025488: m41 (2.0/1.0)\
|   |   |   |   |   |   |   |   |   |   Std_Mem20_PeakRatio_Chroma_E_Power_powerFFT_WinHamming_HopSize512_WinSize512_Sum_AudioCh0 > 0.000013: m56 (3.0/1.0)\
|   |   |   |   |   |   |   |   Std_Mem20_MFCC6_Power_powerFFT_WinHamming_HopSize512_WinSize512_Sum_AudioCh0 > 0.454354\
|   |   |   |   |   |   |   |   |   Mean_Mem20_PeakRatio_Chroma_A_Power_powerFFT_WinHamming_HopSize512_WinSize512_Sum_AudioCh0 <= 0.000053\
|   |   |   |   |   |   |   |   |   |   Mean_Mem20_Rolloff_Power_powerFFT_WinHamming_HopSize512_WinSize512_Sum_AudioCh0 <= 0.031128: m28 (11.0/1.0)\
|   |   |   |   |   |   |   |   |   |   Mean_Mem20_Rolloff_Power_powerFFT_WinHamming_HopSize512_WinSize512_Sum_AudioCh0 > 0.031128\
|   |   |   |   |   |   |   |   |   |   |   Mean_Mem20_ZeroCrossings_HopSize512_WinSize512_Sum_AudioCh0 <= 0.029883: m29 (3.0/1.0)\
|   |   |   |   |   |   |   |   |   |   |   Mean_Mem20_ZeroCrossings_HopSize512_WinSize512_Sum_AudioCh0 > 0.029883: m42 (3.0)\
|   |   |   |   |   |   |   |   |   Mean_Mem20_PeakRatio_Chroma_A_Power_powerFFT_WinHamming_HopSize512_WinSize512_Sum_AudioCh0 > 0.000053\
|   |   |   |   |   |   |   |   |   |   Mean_Mem20_ZeroCrossings_HopSize512_WinSize512_Sum_AudioCh0 <= 0.021582: m38 (2.0)\
|   |   |   |   |   |   |   |   |   |   Mean_Mem20_ZeroCrossings_HopSize512_WinSize512_Sum_AudioCh0 > 0.021582: m45 (4.0)\
|   |   |   Std_Mem20_Rolloff_Power_powerFFT_WinHamming_HopSize512_WinSize512_Sum_AudioCh0 > 0.013981\
|   |   |   |   Mean_Mem20_PeakRatio_Average_Chroma_A_Power_powerFFT_WinHamming_HopSize512_WinSize512_Sum_AudioCh0 <= 1.145901\
|   |   |   |   |   Mean_Mem20_PeakRatio_Minimum_Chroma_A_Power_powerFFT_WinHamming_HopSize512_WinSize512_Sum_AudioCh0 <= 1.271425\
|   |   |   |   |   |   Mean_Mem20_PeakRatio_Average_Chroma_A_Power_powerFFT_WinHamming_HopSize512_WinSize512_Sum_AudioCh0 <= 1.099009: m39 (36.0/1.0)\
|   |   |   |   |   |   Mean_Mem20_PeakRatio_Average_Chroma_A_Power_powerFFT_WinHamming_HopSize512_WinSize512_Sum_AudioCh0 > 1.099009\
|   |   |   |   |   |   |   Mean_Mem20_MFCC5_Power_powerFFT_WinHamming_HopSize512_WinSize512_Sum_AudioCh0 <= 0.559005: m40 (5.0)\
|   |   |   |   |   |   |   Mean_Mem20_MFCC5_Power_powerFFT_WinHamming_HopSize512_WinSize512_Sum_AudioCh0 > 0.559005: m41 (3.0)\
|   |   |   |   |   Mean_Mem20_PeakRatio_Minimum_Chroma_A_Power_powerFFT_WinHamming_HopSize512_WinSize512_Sum_AudioCh0 > 1.271425\
|   |   |   |   |   |   Mean_Mem20_MFCC1_Power_powerFFT_WinHamming_HopSize512_WinSize512_Sum_AudioCh0 <= 11.946768\
|   |   |   |   |   |   |   Std_Mem20_Centroid_Power_powerFFT_WinHamming_HopSize512_WinSize512_Sum_AudioCh0 <= 0.003324\
|   |   |   |   |   |   |   |   Mean_Mem20_MFCC6_Power_powerFFT_WinHamming_HopSize512_WinSize512_Sum_AudioCh0 <= 0.234243\
|   |   |   |   |   |   |   |   |   Mean_Mem20_MFCC4_Power_powerFFT_WinHamming_HopSize512_WinSize512_Sum_AudioCh0 <= 0.254502: m41 (16.0/1.0)\
|   |   |   |   |   |   |   |   |   Mean_Mem20_MFCC4_Power_powerFFT_WinHamming_HopSize512_WinSize512_Sum_AudioCh0 > 0.254502: m43 (16.0/1.0)\
|   |   |   |   |   |   |   |   Mean_Mem20_MFCC6_Power_powerFFT_WinHamming_HopSize512_WinSize512_Sum_AudioCh0 > 0.234243\
|   |   |   |   |   |   |   |   |   Mean_Mem20_MFCC10_Power_powerFFT_WinHamming_HopSize512_WinSize512_Sum_AudioCh0 <= -0.005354\
|   |   |   |   |   |   |   |   |   |   Mean_Mem20_ZeroCrossings_HopSize512_WinSize512_Sum_AudioCh0 <= 0.005762: m41 (2.0)\
|   |   |   |   |   |   |   |   |   |   Mean_Mem20_ZeroCrossings_HopSize512_WinSize512_Sum_AudioCh0 > 0.005762: m42 (32.0/1.0)\
|   |   |   |   |   |   |   |   |   Mean_Mem20_MFCC10_Power_powerFFT_WinHamming_HopSize512_WinSize512_Sum_AudioCh0 > -0.005354: m41 (10.0/1.0)\
|   |   |   |   |   |   |   Std_Mem20_Centroid_Power_powerFFT_WinHamming_HopSize512_WinSize512_Sum_AudioCh0 > 0.003324: m44 (4.0)\
|   |   |   |   |   |   Mean_Mem20_MFCC1_Power_powerFFT_WinHamming_HopSize512_WinSize512_Sum_AudioCh0 > 11.946768: m30 (15.0)\
|   |   |   |   Mean_Mem20_PeakRatio_Average_Chroma_A_Power_powerFFT_WinHamming_HopSize512_WinSize512_Sum_AudioCh0 > 1.145901\
|   |   |   |   |   Std_Mem20_MFCC1_Power_powerFFT_WinHamming_HopSize512_WinSize512_Sum_AudioCh0 <= 0.731892\
|   |   |   |   |   |   Mean_Mem20_MFCC10_Power_powerFFT_WinHamming_HopSize512_WinSize512_Sum_AudioCh0 <= -0.412991\
|   |   |   |   |   |   |   Mean_Mem20_Centroid_Power_powerFFT_WinHamming_HopSize512_WinSize512_Sum_AudioCh0 <= 0.013935: m42 (2.0)\
|   |   |   |   |   |   |   Mean_Mem20_Centroid_Power_powerFFT_WinHamming_HopSize512_WinSize512_Sum_AudioCh0 > 0.013935: m46 (11.0)\
|   |   |   |   |   |   Mean_Mem20_MFCC10_Power_powerFFT_WinHamming_HopSize512_WinSize512_Sum_AudioCh0 > -0.412991\
|   |   |   |   |   |   |   Mean_Mem20_Rolloff_Power_powerFFT_WinHamming_HopSize512_WinSize512_Sum_AudioCh0 <= 0.042802: m40 (7.0)\
|   |   |   |   |   |   |   Mean_Mem20_Rolloff_Power_powerFFT_WinHamming_HopSize512_WinSize512_Sum_AudioCh0 > 0.042802: m41 (18.0/1.0)\
|   |   |   |   |   Std_Mem20_MFCC1_Power_powerFFT_WinHamming_HopSize512_WinSize512_Sum_AudioCh0 > 0.731892\
|   |   |   |   |   |   Mean_Mem20_Rolloff_Power_powerFFT_WinHamming_HopSize512_WinSize512_Sum_AudioCh0 <= 0.357588\
|   |   |   |   |   |   |   Mean_Mem20_PeakRatio_Average_Chroma_A_Power_powerFFT_WinHamming_HopSize512_WinSize512_Sum_AudioCh0 <= 1.192496\
|   |   |   |   |   |   |   |   Mean_Mem20_PeakRatio_Minimum_Chroma_A_Power_powerFFT_WinHamming_HopSize512_WinSize512_Sum_AudioCh0 <= 1.471909\
|   |   |   |   |   |   |   |   |   Mean_Mem20_MFCC2_Power_powerFFT_WinHamming_HopSize512_WinSize512_Sum_AudioCh0 <= -2.551708\
|   |   |   |   |   |   |   |   |   |   Mean_Mem20_ZeroCrossings_HopSize512_WinSize512_Sum_AudioCh0 <= 0.025293: m40 (9.0)\
|   |   |   |   |   |   |   |   |   |   Mean_Mem20_ZeroCrossings_HopSize512_WinSize512_Sum_AudioCh0 > 0.025293: m32 (5.0)\
|   |   |   |   |   |   |   |   |   Mean_Mem20_MFCC2_Power_powerFFT_WinHamming_HopSize512_WinSize512_Sum_AudioCh0 > -2.551708\
|   |   |   |   |   |   |   |   |   |   Mean_Mem20_MFCC1_Power_powerFFT_WinHamming_HopSize512_WinSize512_Sum_AudioCh0 <= 10.855031\
|   |   |   |   |   |   |   |   |   |   |   Mean_Mem20_PeakRatio_Chroma_A_Power_powerFFT_WinHamming_HopSize512_WinSize512_Sum_AudioCh0 <= 0.000118\
|   |   |   |   |   |   |   |   |   |   |   |   Mean_Mem20_Rolloff_Power_powerFFT_WinHamming_HopSize512_WinSize512_Sum_AudioCh0 <= 0.021206: m56 (3.0)\
|   |   |   |   |   |   |   |   |   |   |   |   Mean_Mem20_Rolloff_Power_powerFFT_WinHamming_HopSize512_WinSize512_Sum_AudioCh0 > 0.021206: m44 (20.0)\
|   |   |   |   |   |   |   |   |   |   |   Mean_Mem20_PeakRatio_Chroma_A_Power_powerFFT_WinHamming_HopSize512_WinSize512_Sum_AudioCh0 > 0.000118: m56 (3.0)\
|   |   |   |   |   |   |   |   |   |   Mean_Mem20_MFCC1_Power_powerFFT_WinHamming_HopSize512_WinSize512_Sum_AudioCh0 > 10.855031\
|   |   |   |   |   |   |   |   |   |   |   Mean_Mem20_PeakRatio_Chroma_A#_Power_powerFFT_WinHamming_HopSize512_WinSize512_Sum_AudioCh0 <= 0.00002: m27 (5.0/1.0)\
|   |   |   |   |   |   |   |   |   |   |   Mean_Mem20_PeakRatio_Chroma_A#_Power_powerFFT_WinHamming_HopSize512_WinSize512_Sum_AudioCh0 > 0.00002: m30 (5.0)\
|   |   |   |   |   |   |   |   Mean_Mem20_PeakRatio_Minimum_Chroma_A_Power_powerFFT_WinHamming_HopSize512_WinSize512_Sum_AudioCh0 > 1.471909\
|   |   |   |   |   |   |   |   |   Mean_Mem20_PeakRatio_Minimum_Chroma_A_Power_powerFFT_WinHamming_HopSize512_WinSize512_Sum_AudioCh0 <= 1.477873: m22 (2.0/1.0)\
|   |   |   |   |   |   |   |   |   Mean_Mem20_PeakRatio_Minimum_Chroma_A_Power_powerFFT_WinHamming_HopSize512_WinSize512_Sum_AudioCh0 > 1.477873: m32 (48.0)\
|   |   |   |   |   |   |   Mean_Mem20_PeakRatio_Average_Chroma_A_Power_powerFFT_WinHamming_HopSize512_WinSize512_Sum_AudioCh0 > 1.192496\
|   |   |   |   |   |   |   |   Mean_Mem20_MFCC0_Power_powerFFT_WinHamming_HopSize512_WinSize512_Sum_AudioCh0 <= -68.717763\
|   |   |   |   |   |   |   |   |   Mean_Mem20_ZeroCrossings_HopSize512_WinSize512_Sum_AudioCh0 <= 0.013281\
|   |   |   |   |   |   |   |   |   |   Mean_Mem20_Centroid_Power_powerFFT_WinHamming_HopSize512_WinSize512_Sum_AudioCh0 <= 0.009289: m22 (3.0)\
|   |   |   |   |   |   |   |   |   |   Mean_Mem20_Centroid_Power_powerFFT_WinHamming_HopSize512_WinSize512_Sum_AudioCh0 > 0.009289: m40 (3.0)\
|   |   |   |   |   |   |   |   |   Mean_Mem20_ZeroCrossings_HopSize512_WinSize512_Sum_AudioCh0 > 0.013281\
|   |   |   |   |   |   |   |   |   |   Mean_Mem20_ZeroCrossings_HopSize512_WinSize512_Sum_AudioCh0 <= 0.016113: m21 (3.0)\
|   |   |   |   |   |   |   |   |   |   Mean_Mem20_ZeroCrossings_HopSize512_WinSize512_Sum_AudioCh0 > 0.016113: m57 (4.0)\
|   |   |   |   |   |   |   |   Mean_Mem20_MFCC0_Power_powerFFT_WinHamming_HopSize512_WinSize512_Sum_AudioCh0 > -68.717763\
|   |   |   |   |   |   |   |   |   Mean_Mem20_MFCC1_Power_powerFFT_WinHamming_HopSize512_WinSize512_Sum_AudioCh0 <= 11.065752: m56 (14.0)\
|   |   |   |   |   |   |   |   |   Mean_Mem20_MFCC1_Power_powerFFT_WinHamming_HopSize512_WinSize512_Sum_AudioCh0 > 11.065752: m41 (2.0)\
|   |   |   |   |   |   Mean_Mem20_Rolloff_Power_powerFFT_WinHamming_HopSize512_WinSize512_Sum_AudioCh0 > 0.357588\
|   |   |   |   |   |   |   Mean_Mem20_PeakRatio_Average_Chroma_A_Power_powerFFT_WinHamming_HopSize512_WinSize512_Sum_AudioCh0 <= 1.169384\
|   |   |   |   |   |   |   |   Mean_Mem20_Centroid_Power_powerFFT_WinHamming_HopSize512_WinSize512_Sum_AudioCh0 <= 0.005395: m43 (3.0/1.0)\
|   |   |   |   |   |   |   |   Mean_Mem20_Centroid_Power_powerFFT_WinHamming_HopSize512_WinSize512_Sum_AudioCh0 > 0.005395: m31 (27.0)\
|   |   |   |   |   |   |   Mean_Mem20_PeakRatio_Average_Chroma_A_Power_powerFFT_WinHamming_HopSize512_WinSize512_Sum_AudioCh0 > 1.169384\
|   |   |   |   |   |   |   |   Mean_Mem20_Rolloff_Power_powerFFT_WinHamming_HopSize512_WinSize512_Sum_AudioCh0 <= 0.480739: m32 (5.0)\
|   |   |   |   |   |   |   |   Mean_Mem20_Rolloff_Power_powerFFT_WinHamming_HopSize512_WinSize512_Sum_AudioCh0 > 0.480739: m23 (9.0)\
|   |   Mean_Mem20_PeakRatio_Minimum_Chroma_A_Power_powerFFT_WinHamming_HopSize512_WinSize512_Sum_AudioCh0 > 1.632088\
|   |   |   Std_Mem20_Rolloff_Power_powerFFT_WinHamming_HopSize512_WinSize512_Sum_AudioCh0 <= 0.087704\
|   |   |   |   Mean_Mem20_PeakRatio_Minimum_Chroma_A_Power_powerFFT_WinHamming_HopSize512_WinSize512_Sum_AudioCh0 <= 2.123686\
|   |   |   |   |   Mean_Mem20_PeakRatio_Minimum_Chroma_A_Power_powerFFT_WinHamming_HopSize512_WinSize512_Sum_AudioCh0 <= 1.772159\
|   |   |   |   |   |   Std_Mem20_MFCC1_Power_powerFFT_WinHamming_HopSize512_WinSize512_Sum_AudioCh0 <= 0.739472\
|   |   |   |   |   |   |   Mean_Mem20_MFCC1_Power_powerFFT_WinHamming_HopSize512_WinSize512_Sum_AudioCh0 <= 11.195613\
|   |   |   |   |   |   |   |   Std_Mem20_MFCC0_Power_powerFFT_WinHamming_HopSize512_WinSize512_Sum_AudioCh0 <= 1.095386\
|   |   |   |   |   |   |   |   |   Std_Mem20_PeakRatio_Chroma_B_Power_powerFFT_WinHamming_HopSize512_WinSize512_Sum_AudioCh0 <= 0.000017\
|   |   |   |   |   |   |   |   |   |   Mean_Mem20_PeakRatio_Chroma_A_Power_powerFFT_WinHamming_HopSize512_WinSize512_Sum_AudioCh0 <= 0.000024: m55 (7.0)\
|   |   |   |   |   |   |   |   |   |   Mean_Mem20_PeakRatio_Chroma_A_Power_powerFFT_WinHamming_HopSize512_WinSize512_Sum_AudioCh0 > 0.000024: m50 (3.0)\
|   |   |   |   |   |   |   |   |   Std_Mem20_PeakRatio_Chroma_B_Power_powerFFT_WinHamming_HopSize512_WinSize512_Sum_AudioCh0 > 0.000017: m37 (4.0)\
|   |   |   |   |   |   |   |   Std_Mem20_MFCC0_Power_powerFFT_WinHamming_HopSize512_WinSize512_Sum_AudioCh0 > 1.095386\
|   |   |   |   |   |   |   |   |   Mean_Mem20_MFCC1_Power_powerFFT_WinHamming_HopSize512_WinSize512_Sum_AudioCh0 <= 10.796927: m56 (14.0)\
|   |   |   |   |   |   |   |   |   Mean_Mem20_MFCC1_Power_powerFFT_WinHamming_HopSize512_WinSize512_Sum_AudioCh0 > 10.796927\
|   |   |   |   |   |   |   |   |   |   Mean_Mem20_PeakRatio_Chroma_A_Power_powerFFT_WinHamming_HopSize512_WinSize512_Sum_AudioCh0 <= 0.00002: m54 (3.0)\
|   |   |   |   |   |   |   |   |   |   Mean_Mem20_PeakRatio_Chroma_A_Power_powerFFT_WinHamming_HopSize512_WinSize512_Sum_AudioCh0 > 0.00002: m57 (2.0)\
|   |   |   |   |   |   |   Mean_Mem20_MFCC1_Power_powerFFT_WinHamming_HopSize512_WinSize512_Sum_AudioCh0 > 11.195613\
|   |   |   |   |   |   |   |   Std_Mem20_MFCC9_Power_powerFFT_WinHamming_HopSize512_WinSize512_Sum_AudioCh0 <= 0.240372: m53 (22.0/1.0)\
|   |   |   |   |   |   |   |   Std_Mem20_MFCC9_Power_powerFFT_WinHamming_HopSize512_WinSize512_Sum_AudioCh0 > 0.240372: m41 (11.0)\
|   |   |   |   |   |   Std_Mem20_MFCC1_Power_powerFFT_WinHamming_HopSize512_WinSize512_Sum_AudioCh0 > 0.739472\
|   |   |   |   |   |   |   Std_Mem20_MFCC11_Power_powerFFT_WinHamming_HopSize512_WinSize512_Sum_AudioCh0 <= 0.362102\
|   |   |   |   |   |   |   |   Mean_Mem20_Centroid_Power_powerFFT_WinHamming_HopSize512_WinSize512_Sum_AudioCh0 <= 0.012712\
|   |   |   |   |   |   |   |   |   Std_Mem20_ZeroCrossings_HopSize512_WinSize512_Sum_AudioCh0 <= 0.0015: m57 (9.0)\
|   |   |   |   |   |   |   |   |   Std_Mem20_ZeroCrossings_HopSize512_WinSize512_Sum_AudioCh0 > 0.0015\
|   |   |   |   |   |   |   |   |   |   Mean_Mem20_Centroid_Power_powerFFT_WinHamming_HopSize512_WinSize512_Sum_AudioCh0 <= 0.00891: m35 (5.0)\
|   |   |   |   |   |   |   |   |   |   Mean_Mem20_Centroid_Power_powerFFT_WinHamming_HopSize512_WinSize512_Sum_AudioCh0 > 0.00891\
|   |   |   |   |   |   |   |   |   |   |   Std_Mem20_MFCC4_Power_powerFFT_WinHamming_HopSize512_WinSize512_Sum_AudioCh0 <= 0.4806\
|   |   |   |   |   |   |   |   |   |   |   |   Mean_Mem20_PeakRatio_Minimum_Chroma_A_Power_powerFFT_WinHamming_HopSize512_WinSize512_Sum_AudioCh0 <= 1.747114\
|   |   |   |   |   |   |   |   |   |   |   |   |   Mean_Mem20_PeakRatio_Minimum_Chroma_A_Power_powerFFT_WinHamming_HopSize512_WinSize512_Sum_AudioCh0 <= 1.638113\
|   |   |   |   |   |   |   |   |   |   |   |   |   |   Mean_Mem20_PeakRatio_Average_Chroma_A_Power_powerFFT_WinHamming_HopSize512_WinSize512_Sum_AudioCh0 <= 1.215896: m54 (4.0)\
|   |   |   |   |   |   |   |   |   |   |   |   |   |   Mean_Mem20_PeakRatio_Average_Chroma_A_Power_powerFFT_WinHamming_HopSize512_WinSize512_Sum_AudioCh0 > 1.215896: m55 (2.0)\
|   |   |   |   |   |   |   |   |   |   |   |   |   Mean_Mem20_PeakRatio_Minimum_Chroma_A_Power_powerFFT_WinHamming_HopSize512_WinSize512_Sum_AudioCh0 > 1.638113: m54 (98.0)\
|   |   |   |   |   |   |   |   |   |   |   |   Mean_Mem20_PeakRatio_Minimum_Chroma_A_Power_powerFFT_WinHamming_HopSize512_WinSize512_Sum_AudioCh0 > 1.747114: m53 (2.0)\
|   |   |   |   |   |   |   |   |   |   |   Std_Mem20_MFCC4_Power_powerFFT_WinHamming_HopSize512_WinSize512_Sum_AudioCh0 > 0.4806: m44 (3.0/1.0)\
|   |   |   |   |   |   |   |   Mean_Mem20_Centroid_Power_powerFFT_WinHamming_HopSize512_WinSize512_Sum_AudioCh0 > 0.012712\
|   |   |   |   |   |   |   |   |   Mean_Mem20_PeakRatio_Average_Chroma_A_Power_powerFFT_WinHamming_HopSize512_WinSize512_Sum_AudioCh0 <= 1.266933\
|   |   |   |   |   |   |   |   |   |   Std_Mem20_ZeroCrossings_HopSize512_WinSize512_Sum_AudioCh0 <= 0.003499\
|   |   |   |   |   |   |   |   |   |   |   Mean_Mem20_MFCC3_Power_powerFFT_WinHamming_HopSize512_WinSize512_Sum_AudioCh0 <= 0.201667: m57 (13.0)\
|   |   |   |   |   |   |   |   |   |   |   Mean_Mem20_MFCC3_Power_powerFFT_WinHamming_HopSize512_WinSize512_Sum_AudioCh0 > 0.201667: m50 (28.0)\
|   |   |   |   |   |   |   |   |   |   Std_Mem20_ZeroCrossings_HopSize512_WinSize512_Sum_AudioCh0 > 0.003499\
|   |   |   |   |   |   |   |   |   |   |   Mean_Mem20_MFCC8_Power_powerFFT_WinHamming_HopSize512_WinSize512_Sum_AudioCh0 <= 0.656828\
|   |   |   |   |   |   |   |   |   |   |   |   Mean_Mem20_MFCC7_Power_powerFFT_WinHamming_HopSize512_WinSize512_Sum_AudioCh0 <= 0.308062\
|   |   |   |   |   |   |   |   |   |   |   |   |   Std_Mem20_Centroid_Power_powerFFT_WinHamming_HopSize512_WinSize512_Sum_AudioCh0 <= 0.00074: m55 (3.0)\
|   |   |   |   |   |   |   |   |   |   |   |   |   Std_Mem20_Centroid_Power_powerFFT_WinHamming_HopSize512_WinSize512_Sum_AudioCh0 > 0.00074: m49 (14.0)\
|   |   |   |   |   |   |   |   |   |   |   |   Mean_Mem20_MFCC7_Power_powerFFT_WinHamming_HopSize512_WinSize512_Sum_AudioCh0 > 0.308062\
|   |   |   |   |   |   |   |   |   |   |   |   |   Mean_Mem20_Rolloff_Power_powerFFT_WinHamming_HopSize512_WinSize512_Sum_AudioCh0 <= 0.028988: m54 (2.0)\
|   |   |   |   |   |   |   |   |   |   |   |   |   Mean_Mem20_Rolloff_Power_powerFFT_WinHamming_HopSize512_WinSize512_Sum_AudioCh0 > 0.028988: m55 (8.0)\
|   |   |   |   |   |   |   |   |   |   |   Mean_Mem20_MFCC8_Power_powerFFT_WinHamming_HopSize512_WinSize512_Sum_AudioCh0 > 0.656828: m57 (10.0)\
|   |   |   |   |   |   |   |   |   Mean_Mem20_PeakRatio_Average_Chroma_A_Power_powerFFT_WinHamming_HopSize512_WinSize512_Sum_AudioCh0 > 1.266933\
|   |   |   |   |   |   |   |   |   |   Std_Mem20_ZeroCrossings_HopSize512_WinSize512_Sum_AudioCh0 <= 0.004274: m47 (9.0/1.0)\
|   |   |   |   |   |   |   |   |   |   Std_Mem20_ZeroCrossings_HopSize512_WinSize512_Sum_AudioCh0 > 0.004274: m54 (13.0)\
|   |   |   |   |   |   |   Std_Mem20_MFCC11_Power_powerFFT_WinHamming_HopSize512_WinSize512_Sum_AudioCh0 > 0.362102\
|   |   |   |   |   |   |   |   Std_Mem20_Rolloff_Power_powerFFT_WinHamming_HopSize512_WinSize512_Sum_AudioCh0 <= 0.005639\
|   |   |   |   |   |   |   |   |   Mean_Mem20_Centroid_Power_powerFFT_WinHamming_HopSize512_WinSize512_Sum_AudioCh0 <= 0.010845: m39 (6.0)\
|   |   |   |   |   |   |   |   |   Mean_Mem20_Centroid_Power_powerFFT_WinHamming_HopSize512_WinSize512_Sum_AudioCh0 > 0.010845: m54 (3.0)\
|   |   |   |   |   |   |   |   Std_Mem20_Rolloff_Power_powerFFT_WinHamming_HopSize512_WinSize512_Sum_AudioCh0 > 0.005639\
|   |   |   |   |   |   |   |   |   Mean_Mem20_PeakRatio_Chroma_A_Power_powerFFT_WinHamming_HopSize512_WinSize512_Sum_AudioCh0 <= 0.000012: m33 (4.0)\
|   |   |   |   |   |   |   |   |   Mean_Mem20_PeakRatio_Chroma_A_Power_powerFFT_WinHamming_HopSize512_WinSize512_Sum_AudioCh0 > 0.000012: m47 (4.0)\
|   |   |   |   |   Mean_Mem20_PeakRatio_Minimum_Chroma_A_Power_powerFFT_WinHamming_HopSize512_WinSize512_Sum_AudioCh0 > 1.772159\
|   |   |   |   |   |   Mean_Mem20_PeakRatio_Average_Chroma_A_Power_powerFFT_WinHamming_HopSize512_WinSize512_Sum_AudioCh0 <= 1.242876\
|   |   |   |   |   |   |   Mean_Mem20_MFCC4_Power_powerFFT_WinHamming_HopSize512_WinSize512_Sum_AudioCh0 <= 0.191857: m49 (5.0)\
|   |   |   |   |   |   |   Mean_Mem20_MFCC4_Power_powerFFT_WinHamming_HopSize512_WinSize512_Sum_AudioCh0 > 0.191857\
|   |   |   |   |   |   |   |   Mean_Mem20_MFCC6_Power_powerFFT_WinHamming_HopSize512_WinSize512_Sum_AudioCh0 <= 1.342702: m62 (124.0/1.0)\
|   |   |   |   |   |   |   |   Mean_Mem20_MFCC6_Power_powerFFT_WinHamming_HopSize512_WinSize512_Sum_AudioCh0 > 1.342702: m50 (6.0)\
|   |   |   |   |   |   Mean_Mem20_PeakRatio_Average_Chroma_A_Power_powerFFT_WinHamming_HopSize512_WinSize512_Sum_AudioCh0 > 1.242876\
|   |   |   |   |   |   |   Mean_Mem20_MFCC10_Power_powerFFT_WinHamming_HopSize512_WinSize512_Sum_AudioCh0 <= 0.886241\
|   |   |   |   |   |   |   |   Mean_Mem20_MFCC5_Power_powerFFT_WinHamming_HopSize512_WinSize512_Sum_AudioCh0 <= -0.259417\
|   |   |   |   |   |   |   |   |   Mean_Mem20_ZeroCrossings_HopSize512_WinSize512_Sum_AudioCh0 <= 0.019238: m48 (23.0)\
|   |   |   |   |   |   |   |   |   Mean_Mem20_ZeroCrossings_HopSize512_WinSize512_Sum_AudioCh0 > 0.019238: m34 (5.0/1.0)\
|   |   |   |   |   |   |   |   Mean_Mem20_MFCC5_Power_powerFFT_WinHamming_HopSize512_WinSize512_Sum_AudioCh0 > -0.259417\
|   |   |   |   |   |   |   |   |   Mean_Mem20_PeakRatio_Chroma_B_Power_powerFFT_WinHamming_HopSize512_WinSize512_Sum_AudioCh0 <= 0.000036\
|   |   |   |   |   |   |   |   |   |   Mean_Mem20_MFCC7_Power_powerFFT_WinHamming_HopSize512_WinSize512_Sum_AudioCh0 <= 0.864583\
|   |   |   |   |   |   |   |   |   |   |   Std_Mem20_MFCC7_Power_powerFFT_WinHamming_HopSize512_WinSize512_Sum_AudioCh0 <= 0.403382\
|   |   |   |   |   |   |   |   |   |   |   |   Mean_Mem20_MFCC9_Power_powerFFT_WinHamming_HopSize512_WinSize512_Sum_AudioCh0 <= -0.592797: m51 (5.0)\
|   |   |   |   |   |   |   |   |   |   |   |   Mean_Mem20_MFCC9_Power_powerFFT_WinHamming_HopSize512_WinSize512_Sum_AudioCh0 > -0.592797\
|   |   |   |   |   |   |   |   |   |   |   |   |   Mean_Mem20_MFCC4_Power_powerFFT_WinHamming_HopSize512_WinSize512_Sum_AudioCh0 <= 1.164087\
|   |   |   |   |   |   |   |   |   |   |   |   |   |   Std_Mem20_MFCC12_Power_powerFFT_WinHamming_HopSize512_WinSize512_Sum_AudioCh0 <= 0.096187: m37 (4.0)\
|   |   |   |   |   |   |   |   |   |   |   |   |   |   Std_Mem20_MFCC12_Power_powerFFT_WinHamming_HopSize512_WinSize512_Sum_AudioCh0 > 0.096187\
|   |   |   |   |   |   |   |   |   |   |   |   |   |   |   Mean_Mem20_MFCC7_Power_powerFFT_WinHamming_HopSize512_WinSize512_Sum_AudioCh0 <= -0.152749: m37 (4.0/1.0)\
|   |   |   |   |   |   |   |   |   |   |   |   |   |   |   Mean_Mem20_MFCC7_Power_powerFFT_WinHamming_HopSize512_WinSize512_Sum_AudioCh0 > -0.152749: m53 (64.0/2.0)\
|   |   |   |   |   |   |   |   |   |   |   |   |   Mean_Mem20_MFCC4_Power_powerFFT_WinHamming_HopSize512_WinSize512_Sum_AudioCh0 > 1.164087: m62 (2.0)\
|   |   |   |   |   |   |   |   |   |   |   Std_Mem20_MFCC7_Power_powerFFT_WinHamming_HopSize512_WinSize512_Sum_AudioCh0 > 0.403382\
|   |   |   |   |   |   |   |   |   |   |   |   Mean_Mem20_ZeroCrossings_HopSize512_WinSize512_Sum_AudioCh0 <= 0.018262: m62 (8.0)\
|   |   |   |   |   |   |   |   |   |   |   |   Mean_Mem20_ZeroCrossings_HopSize512_WinSize512_Sum_AudioCh0 > 0.018262: m41 (3.0)\
|   |   |   |   |   |   |   |   |   |   Mean_Mem20_MFCC7_Power_powerFFT_WinHamming_HopSize512_WinSize512_Sum_AudioCh0 > 0.864583\
|   |   |   |   |   |   |   |   |   |   |   Mean_Mem20_ZeroCrossings_HopSize512_WinSize512_Sum_AudioCh0 <= 0.019238: m49 (4.0)\
|   |   |   |   |   |   |   |   |   |   |   Mean_Mem20_ZeroCrossings_HopSize512_WinSize512_Sum_AudioCh0 > 0.019238: m55 (3.0)\
|   |   |   |   |   |   |   |   |   Mean_Mem20_PeakRatio_Chroma_B_Power_powerFFT_WinHamming_HopSize512_WinSize512_Sum_AudioCh0 > 0.000036\
|   |   |   |   |   |   |   |   |   |   Std_Mem20_PeakRatio_Chroma_A_Power_powerFFT_WinHamming_HopSize512_WinSize512_Sum_AudioCh0 <= 0.000012: m61 (6.0)\
|   |   |   |   |   |   |   |   |   |   Std_Mem20_PeakRatio_Chroma_A_Power_powerFFT_WinHamming_HopSize512_WinSize512_Sum_AudioCh0 > 0.000012\
|   |   |   |   |   |   |   |   |   |   |   Mean_Mem20_PeakRatio_Chroma_F#_Power_powerFFT_WinHamming_HopSize512_WinSize512_Sum_AudioCh0 <= 0.000087: m57 (6.0)\
|   |   |   |   |   |   |   |   |   |   |   Mean_Mem20_PeakRatio_Chroma_F#_Power_powerFFT_WinHamming_HopSize512_WinSize512_Sum_AudioCh0 > 0.000087: m37 (2.0)\
|   |   |   |   |   |   |   Mean_Mem20_MFCC10_Power_powerFFT_WinHamming_HopSize512_WinSize512_Sum_AudioCh0 > 0.886241\
|   |   |   |   |   |   |   |   Mean_Mem20_Rolloff_Power_powerFFT_WinHamming_HopSize512_WinSize512_Sum_AudioCh0 <= 0.034825: m54 (18.0)\
|   |   |   |   |   |   |   |   Mean_Mem20_Rolloff_Power_powerFFT_WinHamming_HopSize512_WinSize512_Sum_AudioCh0 > 0.034825: m58 (9.0/1.0)\
|   |   |   |   Mean_Mem20_PeakRatio_Minimum_Chroma_A_Power_powerFFT_WinHamming_HopSize512_WinSize512_Sum_AudioCh0 > 2.123686\
|   |   |   |   |   Mean_Mem20_MFCC2_Power_powerFFT_WinHamming_HopSize512_WinSize512_Sum_AudioCh0 <= -1.862741\
|   |   |   |   |   |   Mean_Mem20_Flux_Power_powerFFT_WinHamming_HopSize512_WinSize512_Sum_AudioCh0 <= 0.097182\
|   |   |   |   |   |   |   Mean_Mem20_ZeroCrossings_HopSize512_WinSize512_Sum_AudioCh0 <= 0.012305: m53 (2.0)\
|   |   |   |   |   |   |   Mean_Mem20_ZeroCrossings_HopSize512_WinSize512_Sum_AudioCh0 > 0.012305: m60 (39.0)\
|   |   |   |   |   |   Mean_Mem20_Flux_Power_powerFFT_WinHamming_HopSize512_WinSize512_Sum_AudioCh0 > 0.097182\
|   |   |   |   |   |   |   Mean_Mem20_MFCC10_Power_powerFFT_WinHamming_HopSize512_WinSize512_Sum_AudioCh0 <= 0.296324\
|   |   |   |   |   |   |   |   Mean_Mem20_MFCC10_Power_powerFFT_WinHamming_HopSize512_WinSize512_Sum_AudioCh0 <= -1.156274: m59 (5.0)\
|   |   |   |   |   |   |   |   Mean_Mem20_MFCC10_Power_powerFFT_WinHamming_HopSize512_WinSize512_Sum_AudioCh0 > -1.156274\
|   |   |   |   |   |   |   |   |   Mean_Mem20_MFCC11_Power_powerFFT_WinHamming_HopSize512_WinSize512_Sum_AudioCh0 <= 1.020331: m64 (49.0/1.0)\
|   |   |   |   |   |   |   |   |   Mean_Mem20_MFCC11_Power_powerFFT_WinHamming_HopSize512_WinSize512_Sum_AudioCh0 > 1.020331: m60 (2.0)\
|   |   |   |   |   |   |   Mean_Mem20_MFCC10_Power_powerFFT_WinHamming_HopSize512_WinSize512_Sum_AudioCh0 > 0.296324: m51 (12.0/1.0)\
|   |   |   |   |   Mean_Mem20_MFCC2_Power_powerFFT_WinHamming_HopSize512_WinSize512_Sum_AudioCh0 > -1.862741\
|   |   |   |   |   |   Std_Mem20_MFCC1_Power_powerFFT_WinHamming_HopSize512_WinSize512_Sum_AudioCh0 <= 0.554175\
|   |   |   |   |   |   |   Mean_Mem20_MFCC5_Power_powerFFT_WinHamming_HopSize512_WinSize512_Sum_AudioCh0 <= 1.039641: m60 (16.0)\
|   |   |   |   |   |   |   Mean_Mem20_MFCC5_Power_powerFFT_WinHamming_HopSize512_WinSize512_Sum_AudioCh0 > 1.039641\
|   |   |   |   |   |   |   |   Mean_Mem20_PeakRatio_Chroma_A#_Power_powerFFT_WinHamming_HopSize512_WinSize512_Sum_AudioCh0 <= 0.000012: m59 (9.0)\
|   |   |   |   |   |   |   |   Mean_Mem20_PeakRatio_Chroma_A#_Power_powerFFT_WinHamming_HopSize512_WinSize512_Sum_AudioCh0 > 0.000012: m61 (3.0)\
|   |   |   |   |   |   Std_Mem20_MFCC1_Power_powerFFT_WinHamming_HopSize512_WinSize512_Sum_AudioCh0 > 0.554175\
|   |   |   |   |   |   |   Mean_Mem20_MFCC1_Power_powerFFT_WinHamming_HopSize512_WinSize512_Sum_AudioCh0 <= 10.900555\
|   |   |   |   |   |   |   |   Mean_Mem20_MFCC3_Power_powerFFT_WinHamming_HopSize512_WinSize512_Sum_AudioCh0 <= 2.455851\
|   |   |   |   |   |   |   |   |   Mean_Mem20_ZeroCrossings_HopSize512_WinSize512_Sum_AudioCh0 <= 0.014355: m62 (2.0)\
|   |   |   |   |   |   |   |   |   Mean_Mem20_ZeroCrossings_HopSize512_WinSize512_Sum_AudioCh0 > 0.014355: m63 (89.0/1.0)\
|   |   |   |   |   |   |   |   Mean_Mem20_MFCC3_Power_powerFFT_WinHamming_HopSize512_WinSize512_Sum_AudioCh0 > 2.455851\
|   |   |   |   |   |   |   |   |   Mean_Mem20_Centroid_Power_powerFFT_WinHamming_HopSize512_WinSize512_Sum_AudioCh0 <= 0.017921: m58 (12.0/1.0)\
|   |   |   |   |   |   |   |   |   Mean_Mem20_Centroid_Power_powerFFT_WinHamming_HopSize512_WinSize512_Sum_AudioCh0 > 0.017921: m62 (14.0)\
|   |   |   |   |   |   |   Mean_Mem20_MFCC1_Power_powerFFT_WinHamming_HopSize512_WinSize512_Sum_AudioCh0 > 10.900555\
|   |   |   |   |   |   |   |   Mean_Mem20_PeakRatio_Average_Chroma_A_Power_powerFFT_WinHamming_HopSize512_WinSize512_Sum_AudioCh0 <= 1.624534\
|   |   |   |   |   |   |   |   |   Mean_Mem20_MFCC4_Power_powerFFT_WinHamming_HopSize512_WinSize512_Sum_AudioCh0 <= 1.368447\
|   |   |   |   |   |   |   |   |   |   Mean_Mem20_MFCC3_Power_powerFFT_WinHamming_HopSize512_WinSize512_Sum_AudioCh0 <= 0.563734: m58 (13.0)\
|   |   |   |   |   |   |   |   |   |   Mean_Mem20_MFCC3_Power_powerFFT_WinHamming_HopSize512_WinSize512_Sum_AudioCh0 > 0.563734\
|   |   |   |   |   |   |   |   |   |   |   Std_Mem20_MFCC7_Power_powerFFT_WinHamming_HopSize512_WinSize512_Sum_AudioCh0 <= 0.449419: m61 (76.0)\
|   |   |   |   |   |   |   |   |   |   |   Std_Mem20_MFCC7_Power_powerFFT_WinHamming_HopSize512_WinSize512_Sum_AudioCh0 > 0.449419: m62 (2.0)\
|   |   |   |   |   |   |   |   |   Mean_Mem20_MFCC4_Power_powerFFT_WinHamming_HopSize512_WinSize512_Sum_AudioCh0 > 1.368447: m63 (11.0)\
|   |   |   |   |   |   |   |   Mean_Mem20_PeakRatio_Average_Chroma_A_Power_powerFFT_WinHamming_HopSize512_WinSize512_Sum_AudioCh0 > 1.624534\
|   |   |   |   |   |   |   |   |   Std_Mem20_Centroid_Power_powerFFT_WinHamming_HopSize512_WinSize512_Sum_AudioCh0 <= 0.000661: m52 (3.0)\
|   |   |   |   |   |   |   |   |   Std_Mem20_Centroid_Power_powerFFT_WinHamming_HopSize512_WinSize512_Sum_AudioCh0 > 0.000661: m64 (8.0)\
|   |   |   Std_Mem20_Rolloff_Power_powerFFT_WinHamming_HopSize512_WinSize512_Sum_AudioCh0 > 0.087704\
|   |   |   |   Std_Mem20_Centroid_Power_powerFFT_WinHamming_HopSize512_WinSize512_Sum_AudioCh0 <= 0.001882\
|   |   |   |   |   Std_Mem20_MFCC12_Power_powerFFT_WinHamming_HopSize512_WinSize512_Sum_AudioCh0 <= 0.266063: m41 (3.0/1.0)\
|   |   |   |   |   Std_Mem20_MFCC12_Power_powerFFT_WinHamming_HopSize512_WinSize512_Sum_AudioCh0 > 0.266063: m35 (39.0)\
|   |   |   |   Std_Mem20_Centroid_Power_powerFFT_WinHamming_HopSize512_WinSize512_Sum_AudioCh0 > 0.001882: m22 (3.0)\
|   Std_Mem20_PeakRatio_Minimum_Chroma_A_Power_powerFFT_WinHamming_HopSize512_WinSize512_Sum_AudioCh0 > 0.132887\
|   |   Mean_Mem20_PeakRatio_Minimum_Chroma_A_Power_powerFFT_WinHamming_HopSize512_WinSize512_Sum_AudioCh0 <= 2.035474\
|   |   |   Mean_Mem20_MFCC2_Power_powerFFT_WinHamming_HopSize512_WinSize512_Sum_AudioCh0 <= 0.653084\
|   |   |   |   Std_Mem20_PeakRatio_Minimum_Chroma_A_Power_powerFFT_WinHamming_HopSize512_WinSize512_Sum_AudioCh0 <= 0.939286\
|   |   |   |   |   Mean_Mem20_Centroid_Power_powerFFT_WinHamming_HopSize512_WinSize512_Sum_AudioCh0 <= 0.008116\
|   |   |   |   |   |   Mean_Mem20_MFCC10_Power_powerFFT_WinHamming_HopSize512_WinSize512_Sum_AudioCh0 <= 0.603241\
|   |   |   |   |   |   |   Std_Mem20_MFCC0_Power_powerFFT_WinHamming_HopSize512_WinSize512_Sum_AudioCh0 <= 3.379279\
|   |   |   |   |   |   |   |   Mean_Mem20_MFCC7_Power_powerFFT_WinHamming_HopSize512_WinSize512_Sum_AudioCh0 <= -0.107672\
|   |   |   |   |   |   |   |   |   Mean_Mem20_MFCC9_Power_powerFFT_WinHamming_HopSize512_WinSize512_Sum_AudioCh0 <= -0.19549: m42 (31.0)\
|   |   |   |   |   |   |   |   |   Mean_Mem20_MFCC9_Power_powerFFT_WinHamming_HopSize512_WinSize512_Sum_AudioCh0 > -0.19549\
|   |   |   |   |   |   |   |   |   |   Mean_Mem20_MFCC8_Power_powerFFT_WinHamming_HopSize512_WinSize512_Sum_AudioCh0 <= 0.46961\
|   |   |   |   |   |   |   |   |   |   |   Std_Mem20_ZeroCrossings_HopSize512_WinSize512_Sum_AudioCh0 <= 0.004788\
|   |   |   |   |   |   |   |   |   |   |   |   Mean_Mem20_PeakRatio_Minimum_Chroma_A_Power_powerFFT_WinHamming_HopSize512_WinSize512_Sum_AudioCh0 <= 1.517515\
|   |   |   |   |   |   |   |   |   |   |   |   |   Std_Mem20_MFCC9_Power_powerFFT_WinHamming_HopSize512_WinSize512_Sum_AudioCh0 <= 0.624095\
|   |   |   |   |   |   |   |   |   |   |   |   |   |   Mean_Mem20_MFCC10_Power_powerFFT_WinHamming_HopSize512_WinSize512_Sum_AudioCh0 <= -0.291261: m31 (8.0)\
|   |   |   |   |   |   |   |   |   |   |   |   |   |   Mean_Mem20_MFCC10_Power_powerFFT_WinHamming_HopSize512_WinSize512_Sum_AudioCh0 > -0.291261\
|   |   |   |   |   |   |   |   |   |   |   |   |   |   |   Mean_Mem20_PeakRatio_Minimum_Chroma_A_Power_powerFFT_WinHamming_HopSize512_WinSize512_Sum_AudioCh0 <= 1.510425: m30 (75.0)\
|   |   |   |   |   |   |   |   |   |   |   |   |   |   |   Mean_Mem20_PeakRatio_Minimum_Chroma_A_Power_powerFFT_WinHamming_HopSize512_WinSize512_Sum_AudioCh0 > 1.510425\
|   |   |   |   |   |   |   |   |   |   |   |   |   |   |   |   Mean_Mem20_MFCC3_Power_powerFFT_WinHamming_HopSize512_WinSize512_Sum_AudioCh0 <= 0.959323: m31 (2.0)\
|   |   |   |   |   |   |   |   |   |   |   |   |   |   |   |   Mean_Mem20_MFCC3_Power_powerFFT_WinHamming_HopSize512_WinSize512_Sum_AudioCh0 > 0.959323: m30 (3.0)\
|   |   |   |   |   |   |   |   |   |   |   |   |   Std_Mem20_MFCC9_Power_powerFFT_WinHamming_HopSize512_WinSize512_Sum_AudioCh0 > 0.624095: m21 (4.0)\
|   |   |   |   |   |   |   |   |   |   |   |   Mean_Mem20_PeakRatio_Minimum_Chroma_A_Power_powerFFT_WinHamming_HopSize512_WinSize512_Sum_AudioCh0 > 1.517515\
|   |   |   |   |   |   |   |   |   |   |   |   |   Mean_Mem20_Rolloff_Power_powerFFT_WinHamming_HopSize512_WinSize512_Sum_AudioCh0 <= 0.234047: m32 (12.0)\
|   |   |   |   |   |   |   |   |   |   |   |   |   Mean_Mem20_Rolloff_Power_powerFFT_WinHamming_HopSize512_WinSize512_Sum_AudioCh0 > 0.234047\
|   |   |   |   |   |   |   |   |   |   |   |   |   |   Mean_Mem20_MFCC4_Power_powerFFT_WinHamming_HopSize512_WinSize512_Sum_AudioCh0 <= 0.524049: m31 (53.0)\
|   |   |   |   |   |   |   |   |   |   |   |   |   |   Mean_Mem20_MFCC4_Power_powerFFT_WinHamming_HopSize512_WinSize512_Sum_AudioCh0 > 0.524049\
|   |   |   |   |   |   |   |   |   |   |   |   |   |   |   Mean_Mem20_Centroid_Power_powerFFT_WinHamming_HopSize512_WinSize512_Sum_AudioCh0 <= 0.006477: m30 (2.0)\
|   |   |   |   |   |   |   |   |   |   |   |   |   |   |   Mean_Mem20_Centroid_Power_powerFFT_WinHamming_HopSize512_WinSize512_Sum_AudioCh0 > 0.006477: m31 (2.0)\
|   |   |   |   |   |   |   |   |   |   |   Std_Mem20_ZeroCrossings_HopSize512_WinSize512_Sum_AudioCh0 > 0.004788\
|   |   |   |   |   |   |   |   |   |   |   |   Mean_Mem20_ZeroCrossings_HopSize512_WinSize512_Sum_AudioCh0 <= 0.010254: m45 (5.0)\
|   |   |   |   |   |   |   |   |   |   |   |   Mean_Mem20_ZeroCrossings_HopSize512_WinSize512_Sum_AudioCh0 > 0.010254: m32 (14.0/2.0)\
|   |   |   |   |   |   |   |   |   |   Mean_Mem20_MFCC8_Power_powerFFT_WinHamming_HopSize512_WinSize512_Sum_AudioCh0 > 0.46961\
|   |   |   |   |   |   |   |   |   |   |   Mean_Mem20_PeakRatio_Chroma_A_Power_powerFFT_WinHamming_HopSize512_WinSize512_Sum_AudioCh0 <= 0.000015: m26 (4.0)\
|   |   |   |   |   |   |   |   |   |   |   Mean_Mem20_PeakRatio_Chroma_A_Power_powerFFT_WinHamming_HopSize512_WinSize512_Sum_AudioCh0 > 0.000015: m22 (15.0/1.0)\
|   |   |   |   |   |   |   |   Mean_Mem20_MFCC7_Power_powerFFT_WinHamming_HopSize512_WinSize512_Sum_AudioCh0 > -0.107672\
|   |   |   |   |   |   |   |   |   Mean_Mem20_Rolloff_Power_powerFFT_WinHamming_HopSize512_WinSize512_Sum_AudioCh0 <= 0.11323\
|   |   |   |   |   |   |   |   |   |   Mean_Mem20_ZeroCrossings_HopSize512_WinSize512_Sum_AudioCh0 <= 0.009863\
|   |   |   |   |   |   |   |   |   |   |   Mean_Mem20_Rolloff_Power_powerFFT_WinHamming_HopSize512_WinSize512_Sum_AudioCh0 <= 0.037354: m36 (10.0)\
|   |   |   |   |   |   |   |   |   |   |   Mean_Mem20_Rolloff_Power_powerFFT_WinHamming_HopSize512_WinSize512_Sum_AudioCh0 > 0.037354: m32 (8.0)\
|   |   |   |   |   |   |   |   |   |   Mean_Mem20_ZeroCrossings_HopSize512_WinSize512_Sum_AudioCh0 > 0.009863\
|   |   |   |   |   |   |   |   |   |   |   Mean_Mem20_MFCC2_Power_powerFFT_WinHamming_HopSize512_WinSize512_Sum_AudioCh0 <= 0.042596: m40 (7.0)\
|   |   |   |   |   |   |   |   |   |   |   Mean_Mem20_MFCC2_Power_powerFFT_WinHamming_HopSize512_WinSize512_Sum_AudioCh0 > 0.042596: m39 (7.0/1.0)\
|   |   |   |   |   |   |   |   |   Mean_Mem20_Rolloff_Power_powerFFT_WinHamming_HopSize512_WinSize512_Sum_AudioCh0 > 0.11323\
|   |   |   |   |   |   |   |   |   |   Mean_Mem20_MFCC0_Power_powerFFT_WinHamming_HopSize512_WinSize512_Sum_AudioCh0 <= -60.961377\
|   |   |   |   |   |   |   |   |   |   |   Mean_Mem20_MFCC1_Power_powerFFT_WinHamming_HopSize512_WinSize512_Sum_AudioCh0 <= 11.644794\
|   |   |   |   |   |   |   |   |   |   |   |   Std_Mem20_PeakRatio_Minimum_Chroma_A_Power_powerFFT_WinHamming_HopSize512_WinSize512_Sum_AudioCh0 <= 0.16222\
|   |   |   |   |   |   |   |   |   |   |   |   |   Mean_Mem20_MFCC9_Power_powerFFT_WinHamming_HopSize512_WinSize512_Sum_AudioCh0 <= 0.172394\
|   |   |   |   |   |   |   |   |   |   |   |   |   |   Mean_Mem20_ZeroCrossings_HopSize512_WinSize512_Sum_AudioCh0 <= 0.011719: m42 (6.0/1.0)\
|   |   |   |   |   |   |   |   |   |   |   |   |   |   Mean_Mem20_ZeroCrossings_HopSize512_WinSize512_Sum_AudioCh0 > 0.011719: m28 (7.0/1.0)\
|   |   |   |   |   |   |   |   |   |   |   |   |   Mean_Mem20_MFCC9_Power_powerFFT_WinHamming_HopSize512_WinSize512_Sum_AudioCh0 > 0.172394: m23 (21.0)\
|   |   |   |   |   |   |   |   |   |   |   |   Std_Mem20_PeakRatio_Minimum_Chroma_A_Power_powerFFT_WinHamming_HopSize512_WinSize512_Sum_AudioCh0 > 0.16222\
|   |   |   |   |   |   |   |   |   |   |   |   |   Std_Mem20_MFCC9_Power_powerFFT_WinHamming_HopSize512_WinSize512_Sum_AudioCh0 <= 0.519402\
|   |   |   |   |   |   |   |   |   |   |   |   |   |   Mean_Mem20_MFCC12_Power_powerFFT_WinHamming_HopSize512_WinSize512_Sum_AudioCh0 <= 0.428205\
|   |   |   |   |   |   |   |   |   |   |   |   |   |   |   Mean_Mem20_MFCC3_Power_powerFFT_WinHamming_HopSize512_WinSize512_Sum_AudioCh0 <= -0.034077: m26 (5.0)\
|   |   |   |   |   |   |   |   |   |   |   |   |   |   |   Mean_Mem20_MFCC3_Power_powerFFT_WinHamming_HopSize512_WinSize512_Sum_AudioCh0 > -0.034077\
|   |   |   |   |   |   |   |   |   |   |   |   |   |   |   |   Mean_Mem20_MFCC4_Power_powerFFT_WinHamming_HopSize512_WinSize512_Sum_AudioCh0 <= 0.707762\
|   |   |   |   |   |   |   |   |   |   |   |   |   |   |   |   |   Std_Mem20_MFCC2_Power_powerFFT_WinHamming_HopSize512_WinSize512_Sum_AudioCh0 <= 0.847694: m28 (75.0/1.0)\
|   |   |   |   |   |   |   |   |   |   |   |   |   |   |   |   |   Std_Mem20_MFCC2_Power_powerFFT_WinHamming_HopSize512_WinSize512_Sum_AudioCh0 > 0.847694\
|   |   |   |   |   |   |   |   |   |   |   |   |   |   |   |   |   |   Mean_Mem20_PeakRatio_Chroma_A_Power_powerFFT_WinHamming_HopSize512_WinSize512_Sum_AudioCh0 <= 0.000033: m28 (4.0)\
|   |   |   |   |   |   |   |   |   |   |   |   |   |   |   |   |   |   Mean_Mem20_PeakRatio_Chroma_A_Power_powerFFT_WinHamming_HopSize512_WinSize512_Sum_AudioCh0 > 0.000033: m27 (3.0/1.0)\
|   |   |   |   |   |   |   |   |   |   |   |   |   |   |   |   Mean_Mem20_MFCC4_Power_powerFFT_WinHamming_HopSize512_WinSize512_Sum_AudioCh0 > 0.707762: m21 (3.0/2.0)\
|   |   |   |   |   |   |   |   |   |   |   |   |   |   Mean_Mem20_MFCC12_Power_powerFFT_WinHamming_HopSize512_WinSize512_Sum_AudioCh0 > 0.428205\
|   |   |   |   |   |   |   |   |   |   |   |   |   |   |   Mean_Mem20_PeakRatio_Chroma_A_Power_powerFFT_WinHamming_HopSize512_WinSize512_Sum_AudioCh0 <= 0.00001\
|   |   |   |   |   |   |   |   |   |   |   |   |   |   |   |   Mean_Mem20_ZeroCrossings_HopSize512_WinSize512_Sum_AudioCh0 <= 0.010645: m26 (3.0)\
|   |   |   |   |   |   |   |   |   |   |   |   |   |   |   |   Mean_Mem20_ZeroCrossings_HopSize512_WinSize512_Sum_AudioCh0 > 0.010645: m30 (2.0)\
|   |   |   |   |   |   |   |   |   |   |   |   |   |   |   Mean_Mem20_PeakRatio_Chroma_A_Power_powerFFT_WinHamming_HopSize512_WinSize512_Sum_AudioCh0 > 0.00001\
|   |   |   |   |   |   |   |   |   |   |   |   |   |   |   |   Mean_Mem20_PeakRatio_Chroma_A_Power_powerFFT_WinHamming_HopSize512_WinSize512_Sum_AudioCh0 <= 0.000024: m28 (2.0)\
|   |   |   |   |   |   |   |   |   |   |   |   |   |   |   |   Mean_Mem20_PeakRatio_Chroma_A_Power_powerFFT_WinHamming_HopSize512_WinSize512_Sum_AudioCh0 > 0.000024\
|   |   |   |   |   |   |   |   |   |   |   |   |   |   |   |   |   Mean_Mem20_PeakRatio_Chroma_A_Power_powerFFT_WinHamming_HopSize512_WinSize512_Sum_AudioCh0 <= 0.000045: m22 (3.0)\
|   |   |   |   |   |   |   |   |   |   |   |   |   |   |   |   |   Mean_Mem20_PeakRatio_Chroma_A_Power_powerFFT_WinHamming_HopSize512_WinSize512_Sum_AudioCh0 > 0.000045: m23 (2.0)\
|   |   |   |   |   |   |   |   |   |   |   |   |   Std_Mem20_MFCC9_Power_powerFFT_WinHamming_HopSize512_WinSize512_Sum_AudioCh0 > 0.519402\
|   |   |   |   |   |   |   |   |   |   |   |   |   |   Std_Mem20_Rolloff_Power_powerFFT_WinHamming_HopSize512_WinSize512_Sum_AudioCh0 <= 0.467192: m28 (2.0/1.0)\
|   |   |   |   |   |   |   |   |   |   |   |   |   |   Std_Mem20_Rolloff_Power_powerFFT_WinHamming_HopSize512_WinSize512_Sum_AudioCh0 > 0.467192: m26 (32.0)\
|   |   |   |   |   |   |   |   |   |   |   Mean_Mem20_MFCC1_Power_powerFFT_WinHamming_HopSize512_WinSize512_Sum_AudioCh0 > 11.644794\
|   |   |   |   |   |   |   |   |   |   |   |   Mean_Mem20_MFCC9_Power_powerFFT_WinHamming_HopSize512_WinSize512_Sum_AudioCh0 <= 0.636305\
|   |   |   |   |   |   |   |   |   |   |   |   |   Mean_Mem20_MFCC6_Power_powerFFT_WinHamming_HopSize512_WinSize512_Sum_AudioCh0 <= -0.019263\
|   |   |   |   |   |   |   |   |   |   |   |   |   |   Mean_Mem20_MFCC8_Power_powerFFT_WinHamming_HopSize512_WinSize512_Sum_AudioCh0 <= 0.327478\
|   |   |   |   |   |   |   |   |   |   |   |   |   |   |   Std_Mem20_MFCC12_Power_powerFFT_WinHamming_HopSize512_WinSize512_Sum_AudioCh0 <= 0.38273: m22 (3.0)\
|   |   |   |   |   |   |   |   |   |   |   |   |   |   |   Std_Mem20_MFCC12_Power_powerFFT_WinHamming_HopSize512_WinSize512_Sum_AudioCh0 > 0.38273: m21 (39.0)\
|   |   |   |   |   |   |   |   |   |   |   |   |   |   Mean_Mem20_MFCC8_Power_powerFFT_WinHamming_HopSize512_WinSize512_Sum_AudioCh0 > 0.327478: m22 (13.0)\
|   |   |   |   |   |   |   |   |   |   |   |   |   Mean_Mem20_MFCC6_Power_powerFFT_WinHamming_HopSize512_WinSize512_Sum_AudioCh0 > -0.019263\
|   |   |   |   |   |   |   |   |   |   |   |   |   |   Mean_Mem20_MFCC10_Power_powerFFT_WinHamming_HopSize512_WinSize512_Sum_AudioCh0 <= 0.085706: m30 (17.0)\
|   |   |   |   |   |   |   |   |   |   |   |   |   |   Mean_Mem20_MFCC10_Power_powerFFT_WinHamming_HopSize512_WinSize512_Sum_AudioCh0 > 0.085706\
|   |   |   |   |   |   |   |   |   |   |   |   |   |   |   Mean_Mem20_PeakRatio_Chroma_A_Power_powerFFT_WinHamming_HopSize512_WinSize512_Sum_AudioCh0 <= 0.000012: m26 (7.0)\
|   |   |   |   |   |   |   |   |   |   |   |   |   |   |   Mean_Mem20_PeakRatio_Chroma_A_Power_powerFFT_WinHamming_HopSize512_WinSize512_Sum_AudioCh0 > 0.000012: m31 (5.0)\
|   |   |   |   |   |   |   |   |   |   |   |   Mean_Mem20_MFCC9_Power_powerFFT_WinHamming_HopSize512_WinSize512_Sum_AudioCh0 > 0.636305: m23 (34.0)\
|   |   |   |   |   |   |   |   |   |   Mean_Mem20_MFCC0_Power_powerFFT_WinHamming_HopSize512_WinSize512_Sum_AudioCh0 > -60.961377: m27 (22.0/1.0)\
|   |   |   |   |   |   |   Std_Mem20_MFCC0_Power_powerFFT_WinHamming_HopSize512_WinSize512_Sum_AudioCh0 > 3.379279\
|   |   |   |   |   |   |   |   Mean_Mem20_MFCC1_Power_powerFFT_WinHamming_HopSize512_WinSize512_Sum_AudioCh0 <= 9.378216\
|   |   |   |   |   |   |   |   |   Mean_Mem20_MFCC8_Power_powerFFT_WinHamming_HopSize512_WinSize512_Sum_AudioCh0 <= 0.215139\
|   |   |   |   |   |   |   |   |   |   Std_Mem20_ZeroCrossings_HopSize512_WinSize512_Sum_AudioCh0 <= 0.009438\
|   |   |   |   |   |   |   |   |   |   |   Mean_Mem20_MFCC5_Power_powerFFT_WinHamming_HopSize512_WinSize512_Sum_AudioCh0 <= 0.581619: m29 (5.0/1.0)\
|   |   |   |   |   |   |   |   |   |   |   Mean_Mem20_MFCC5_Power_powerFFT_WinHamming_HopSize512_WinSize512_Sum_AudioCh0 > 0.581619\
|   |   |   |   |   |   |   |   |   |   |   |   Std_Mem20_PeakRatio_Chroma_D#_Power_powerFFT_WinHamming_HopSize512_WinSize512_Sum_AudioCh0 <= 0.000007: m44 (2.0)\
|   |   |   |   |   |   |   |   |   |   |   |   Std_Mem20_PeakRatio_Chroma_D#_Power_powerFFT_WinHamming_HopSize512_WinSize512_Sum_AudioCh0 > 0.000007: m61 (3.0/1.0)\
|   |   |   |   |   |   |   |   |   |   Std_Mem20_ZeroCrossings_HopSize512_WinSize512_Sum_AudioCh0 > 0.009438\
|   |   |   |   |   |   |   |   |   |   |   Std_Mem20_ZeroCrossings_HopSize512_WinSize512_Sum_AudioCh0 <= 0.010291: m54 (7.0)\
|   |   |   |   |   |   |   |   |   |   |   Std_Mem20_ZeroCrossings_HopSize512_WinSize512_Sum_AudioCh0 > 0.010291: m43 (4.0/1.0)\
|   |   |   |   |   |   |   |   |   Mean_Mem20_MFCC8_Power_powerFFT_WinHamming_HopSize512_WinSize512_Sum_AudioCh0 > 0.215139\
|   |   |   |   |   |   |   |   |   |   Mean_Mem20_MFCC11_Power_powerFFT_WinHamming_HopSize512_WinSize512_Sum_AudioCh0 <= 0.309437\
|   |   |   |   |   |   |   |   |   |   |   Mean_Mem20_MFCC11_Power_powerFFT_WinHamming_HopSize512_WinSize512_Sum_AudioCh0 <= 0.211093: m45 (4.0)\
|   |   |   |   |   |   |   |   |   |   |   Mean_Mem20_MFCC11_Power_powerFFT_WinHamming_HopSize512_WinSize512_Sum_AudioCh0 > 0.211093\
|   |   |   |   |   |   |   |   |   |   |   |   Mean_Mem20_Rolloff_Power_powerFFT_WinHamming_HopSize512_WinSize512_Sum_AudioCh0 <= 0.754086: m46 (2.0)\
|   |   |   |   |   |   |   |   |   |   |   |   Mean_Mem20_Rolloff_Power_powerFFT_WinHamming_HopSize512_WinSize512_Sum_AudioCh0 > 0.754086: m59 (2.0/1.0)\
|   |   |   |   |   |   |   |   |   |   Mean_Mem20_MFCC11_Power_powerFFT_WinHamming_HopSize512_WinSize512_Sum_AudioCh0 > 0.309437\
|   |   |   |   |   |   |   |   |   |   |   Mean_Mem20_MFCC8_Power_powerFFT_WinHamming_HopSize512_WinSize512_Sum_AudioCh0 <= 0.280162\
|   |   |   |   |   |   |   |   |   |   |   |   Mean_Mem20_PeakRatio_Chroma_D#_Power_powerFFT_WinHamming_HopSize512_WinSize512_Sum_AudioCh0 <= 0.000031\
|   |   |   |   |   |   |   |   |   |   |   |   |   Mean_Mem20_Centroid_Power_powerFFT_WinHamming_HopSize512_WinSize512_Sum_AudioCh0 <= 0.007624: m59 (3.0)\
|   |   |   |   |   |   |   |   |   |   |   |   |   Mean_Mem20_Centroid_Power_powerFFT_WinHamming_HopSize512_WinSize512_Sum_AudioCh0 > 0.007624: m50 (2.0)\
|   |   |   |   |   |   |   |   |   |   |   |   Mean_Mem20_PeakRatio_Chroma_D#_Power_powerFFT_WinHamming_HopSize512_WinSize512_Sum_AudioCh0 > 0.000031: m56 (2.0/1.0)\
|   |   |   |   |   |   |   |   |   |   |   Mean_Mem20_MFCC8_Power_powerFFT_WinHamming_HopSize512_WinSize512_Sum_AudioCh0 > 0.280162\
|   |   |   |   |   |   |   |   |   |   |   |   Std_Mem20_MFCC12_Power_powerFFT_WinHamming_HopSize512_WinSize512_Sum_AudioCh0 <= 0.387289: m44 (3.0)\
|   |   |   |   |   |   |   |   |   |   |   |   Std_Mem20_MFCC12_Power_powerFFT_WinHamming_HopSize512_WinSize512_Sum_AudioCh0 > 0.387289\
|   |   |   |   |   |   |   |   |   |   |   |   |   Mean_Mem20_MFCC7_Power_powerFFT_WinHamming_HopSize512_WinSize512_Sum_AudioCh0 <= 0.287165: m53 (3.0/1.0)\
|   |   |   |   |   |   |   |   |   |   |   |   |   Mean_Mem20_MFCC7_Power_powerFFT_WinHamming_HopSize512_WinSize512_Sum_AudioCh0 > 0.287165\
|   |   |   |   |   |   |   |   |   |   |   |   |   |   Mean_Mem20_MFCC4_Power_powerFFT_WinHamming_HopSize512_WinSize512_Sum_AudioCh0 <= 0.822017\
|   |   |   |   |   |   |   |   |   |   |   |   |   |   |   Mean_Mem20_ZeroCrossings_HopSize512_WinSize512_Sum_AudioCh0 <= 0.010059: m51 (2.0)\
|   |   |   |   |   |   |   |   |   |   |   |   |   |   |   Mean_Mem20_ZeroCrossings_HopSize512_WinSize512_Sum_AudioCh0 > 0.010059: m50 (2.0)\
|   |   |   |   |   |   |   |   |   |   |   |   |   |   Mean_Mem20_MFCC4_Power_powerFFT_WinHamming_HopSize512_WinSize512_Sum_AudioCh0 > 0.822017: m51 (8.0)\
|   |   |   |   |   |   |   |   Mean_Mem20_MFCC1_Power_powerFFT_WinHamming_HopSize512_WinSize512_Sum_AudioCh0 > 9.378216\
|   |   |   |   |   |   |   |   |   Std_Mem20_MFCC1_Power_powerFFT_WinHamming_HopSize512_WinSize512_Sum_AudioCh0 <= 1.048302\
|   |   |   |   |   |   |   |   |   |   Mean_Mem20_MFCC12_Power_powerFFT_WinHamming_HopSize512_WinSize512_Sum_AudioCh0 <= -0.050683\
|   |   |   |   |   |   |   |   |   |   |   Std_Mem20_Flux_Power_powerFFT_WinHamming_HopSize512_WinSize512_Sum_AudioCh0 <= 0.045565: m43 (4.0)\
|   |   |   |   |   |   |   |   |   |   |   Std_Mem20_Flux_Power_powerFFT_WinHamming_HopSize512_WinSize512_Sum_AudioCh0 > 0.045565: m28 (4.0)\
|   |   |   |   |   |   |   |   |   |   Mean_Mem20_MFCC12_Power_powerFFT_WinHamming_HopSize512_WinSize512_Sum_AudioCh0 > -0.050683\
|   |   |   |   |   |   |   |   |   |   |   Mean_Mem20_MFCC6_Power_powerFFT_WinHamming_HopSize512_WinSize512_Sum_AudioCh0 <= -0.109459: m40 (2.0)\
|   |   |   |   |   |   |   |   |   |   |   Mean_Mem20_MFCC6_Power_powerFFT_WinHamming_HopSize512_WinSize512_Sum_AudioCh0 > -0.109459: m41 (33.0)\
|   |   |   |   |   |   |   |   |   Std_Mem20_MFCC1_Power_powerFFT_WinHamming_HopSize512_WinSize512_Sum_AudioCh0 > 1.048302\
|   |   |   |   |   |   |   |   |   |   Mean_Mem20_MFCC4_Power_powerFFT_WinHamming_HopSize512_WinSize512_Sum_AudioCh0 <= 0.777706\
|   |   |   |   |   |   |   |   |   |   |   Mean_Mem20_Rolloff_Power_powerFFT_WinHamming_HopSize512_WinSize512_Sum_AudioCh0 <= 0.162257: m32 (7.0)\
|   |   |   |   |   |   |   |   |   |   |   Mean_Mem20_Rolloff_Power_powerFFT_WinHamming_HopSize512_WinSize512_Sum_AudioCh0 > 0.162257\
|   |   |   |   |   |   |   |   |   |   |   |   Std_Mem20_ZeroCrossings_HopSize512_WinSize512_Sum_AudioCh0 <= 0.003706: m31 (4.0)\
|   |   |   |   |   |   |   |   |   |   |   |   Std_Mem20_ZeroCrossings_HopSize512_WinSize512_Sum_AudioCh0 > 0.003706\
|   |   |   |   |   |   |   |   |   |   |   |   |   Mean_Mem20_ZeroCrossings_HopSize512_WinSize512_Sum_AudioCh0 <= 0.010449: m23 (3.0)\
|   |   |   |   |   |   |   |   |   |   |   |   |   Mean_Mem20_ZeroCrossings_HopSize512_WinSize512_Sum_AudioCh0 > 0.010449: m30 (4.0)\
|   |   |   |   |   |   |   |   |   |   Mean_Mem20_MFCC4_Power_powerFFT_WinHamming_HopSize512_WinSize512_Sum_AudioCh0 > 0.777706\
|   |   |   |   |   |   |   |   |   |   |   Std_Mem20_MFCC12_Power_powerFFT_WinHamming_HopSize512_WinSize512_Sum_AudioCh0 <= 0.374277\
|   |   |   |   |   |   |   |   |   |   |   |   Mean_Mem20_Rolloff_Power_powerFFT_WinHamming_HopSize512_WinSize512_Sum_AudioCh0 <= 0.011673: m36 (5.0)\
|   |   |   |   |   |   |   |   |   |   |   |   Mean_Mem20_Rolloff_Power_powerFFT_WinHamming_HopSize512_WinSize512_Sum_AudioCh0 > 0.011673\
|   |   |   |   |   |   |   |   |   |   |   |   |   Mean_Mem20_Flux_Power_powerFFT_WinHamming_HopSize512_WinSize512_Sum_AudioCh0 <= 0.079718: m40 (4.0)\
|   |   |   |   |   |   |   |   |   |   |   |   |   Mean_Mem20_Flux_Power_powerFFT_WinHamming_HopSize512_WinSize512_Sum_AudioCh0 > 0.079718: m43 (3.0)\
|   |   |   |   |   |   |   |   |   |   |   Std_Mem20_MFCC12_Power_powerFFT_WinHamming_HopSize512_WinSize512_Sum_AudioCh0 > 0.374277: m42 (11.0/1.0)\
|   |   |   |   |   |   Mean_Mem20_MFCC10_Power_powerFFT_WinHamming_HopSize512_WinSize512_Sum_AudioCh0 > 0.603241\
|   |   |   |   |   |   |   Mean_Mem20_MFCC3_Power_powerFFT_WinHamming_HopSize512_WinSize512_Sum_AudioCh0 <= 0.937147\
|   |   |   |   |   |   |   |   Std_Mem20_Rolloff_Power_powerFFT_WinHamming_HopSize512_WinSize512_Sum_AudioCh0 <= 0.444361\
|   |   |   |   |   |   |   |   |   Std_Mem20_Centroid_Power_powerFFT_WinHamming_HopSize512_WinSize512_Sum_AudioCh0 <= 0.0009: m34 (9.0)\
|   |   |   |   |   |   |   |   |   Std_Mem20_Centroid_Power_powerFFT_WinHamming_HopSize512_WinSize512_Sum_AudioCh0 > 0.0009\
|   |   |   |   |   |   |   |   |   |   Std_Mem20_ZeroCrossings_HopSize512_WinSize512_Sum_AudioCh0 <= 0.003245: m33 (5.0)\
|   |   |   |   |   |   |   |   |   |   Std_Mem20_ZeroCrossings_HopSize512_WinSize512_Sum_AudioCh0 > 0.003245\
|   |   |   |   |   |   |   |   |   |   |   Mean_Mem20_ZeroCrossings_HopSize512_WinSize512_Sum_AudioCh0 <= 0.010449: m52 (3.0)\
|   |   |   |   |   |   |   |   |   |   |   Mean_Mem20_ZeroCrossings_HopSize512_WinSize512_Sum_AudioCh0 > 0.010449: m36 (5.0)\
|   |   |   |   |   |   |   |   Std_Mem20_Rolloff_Power_powerFFT_WinHamming_HopSize512_WinSize512_Sum_AudioCh0 > 0.444361: m28 (21.0/1.0)\
|   |   |   |   |   |   |   Mean_Mem20_MFCC3_Power_powerFFT_WinHamming_HopSize512_WinSize512_Sum_AudioCh0 > 0.937147\
|   |   |   |   |   |   |   |   Mean_Mem20_MFCC8_Power_powerFFT_WinHamming_HopSize512_WinSize512_Sum_AudioCh0 <= 0.011384\
|   |   |   |   |   |   |   |   |   Std_Mem20_Centroid_Power_powerFFT_WinHamming_HopSize512_WinSize512_Sum_AudioCh0 <= 0.001274: m43 (16.0)\
|   |   |   |   |   |   |   |   |   Std_Mem20_Centroid_Power_powerFFT_WinHamming_HopSize512_WinSize512_Sum_AudioCh0 > 0.001274: m44 (6.0)\
|   |   |   |   |   |   |   |   Mean_Mem20_MFCC8_Power_powerFFT_WinHamming_HopSize512_WinSize512_Sum_AudioCh0 > 0.011384\
|   |   |   |   |   |   |   |   |   Mean_Mem20_MFCC11_Power_powerFFT_WinHamming_HopSize512_WinSize512_Sum_AudioCh0 <= 0.632346\
|   |   |   |   |   |   |   |   |   |   Mean_Mem20_ZeroCrossings_HopSize512_WinSize512_Sum_AudioCh0 <= 0.00918: m53 (4.0)\
|   |   |   |   |   |   |   |   |   |   Mean_Mem20_ZeroCrossings_HopSize512_WinSize512_Sum_AudioCh0 > 0.00918: m47 (4.0)\
|   |   |   |   |   |   |   |   |   Mean_Mem20_MFCC11_Power_powerFFT_WinHamming_HopSize512_WinSize512_Sum_AudioCh0 > 0.632346: m35 (13.0)\
|   |   |   |   |   Mean_Mem20_Centroid_Power_powerFFT_WinHamming_HopSize512_WinSize512_Sum_AudioCh0 > 0.008116\
|   |   |   |   |   |   Mean_Mem20_MFCC1_Power_powerFFT_WinHamming_HopSize512_WinSize512_Sum_AudioCh0 <= 12.282079\
|   |   |   |   |   |   |   Mean_Mem20_MFCC11_Power_powerFFT_WinHamming_HopSize512_WinSize512_Sum_AudioCh0 <= -0.366515\
|   |   |   |   |   |   |   |   Mean_Mem20_MFCC8_Power_powerFFT_WinHamming_HopSize512_WinSize512_Sum_AudioCh0 <= 0.291616\
|   |   |   |   |   |   |   |   |   Mean_Mem20_MFCC7_Power_powerFFT_WinHamming_HopSize512_WinSize512_Sum_AudioCh0 <= 0.672406\
|   |   |   |   |   |   |   |   |   |   Mean_Mem20_MFCC10_Power_powerFFT_WinHamming_HopSize512_WinSize512_Sum_AudioCh0 <= 0.545225\
|   |   |   |   |   |   |   |   |   |   |   Mean_Mem20_MFCC8_Power_powerFFT_WinHamming_HopSize512_WinSize512_Sum_AudioCh0 <= -0.564524\
|   |   |   |   |   |   |   |   |   |   |   |   Mean_Mem20_MFCC6_Power_powerFFT_WinHamming_HopSize512_WinSize512_Sum_AudioCh0 <= 0.358807\
|   |   |   |   |   |   |   |   |   |   |   |   |   Mean_Mem20_ZeroCrossings_HopSize512_WinSize512_Sum_AudioCh0 <= 0.024707\
|   |   |   |   |   |   |   |   |   |   |   |   |   |   Mean_Mem20_PeakRatio_Chroma_A_Power_powerFFT_WinHamming_HopSize512_WinSize512_Sum_AudioCh0 <= 0.00001: m47 (9.0/1.0)\
|   |   |   |   |   |   |   |   |   |   |   |   |   |   Mean_Mem20_PeakRatio_Chroma_A_Power_powerFFT_WinHamming_HopSize512_WinSize512_Sum_AudioCh0 > 0.00001\
|   |   |   |   |   |   |   |   |   |   |   |   |   |   |   Mean_Mem20_Rolloff_Power_powerFFT_WinHamming_HopSize512_WinSize512_Sum_AudioCh0 <= 0.101362: m49 (10.0)\
|   |   |   |   |   |   |   |   |   |   |   |   |   |   |   Mean_Mem20_Rolloff_Power_powerFFT_WinHamming_HopSize512_WinSize512_Sum_AudioCh0 > 0.101362: m48 (3.0)\
|   |   |   |   |   |   |   |   |   |   |   |   |   Mean_Mem20_ZeroCrossings_HopSize512_WinSize512_Sum_AudioCh0 > 0.024707\
|   |   |   |   |   |   |   |   |   |   |   |   |   |   Mean_Mem20_PeakRatio_Chroma_E_Power_powerFFT_WinHamming_HopSize512_WinSize512_Sum_AudioCh0 <= 0.000015\
|   |   |   |   |   |   |   |   |   |   |   |   |   |   |   Mean_Mem20_ZeroCrossings_HopSize512_WinSize512_Sum_AudioCh0 <= 0.035352: m21 (5.0)\
|   |   |   |   |   |   |   |   |   |   |   |   |   |   |   Mean_Mem20_ZeroCrossings_HopSize512_WinSize512_Sum_AudioCh0 > 0.035352: m53 (2.0)\
|   |   |   |   |   |   |   |   |   |   |   |   |   |   Mean_Mem20_PeakRatio_Chroma_E_Power_powerFFT_WinHamming_HopSize512_WinSize512_Sum_AudioCh0 > 0.000015: m66 (12.0)\
|   |   |   |   |   |   |   |   |   |   |   |   Mean_Mem20_MFCC6_Power_powerFFT_WinHamming_HopSize512_WinSize512_Sum_AudioCh0 > 0.358807\
|   |   |   |   |   |   |   |   |   |   |   |   |   Mean_Mem20_MFCC5_Power_powerFFT_WinHamming_HopSize512_WinSize512_Sum_AudioCh0 <= 0.016923\
|   |   |   |   |   |   |   |   |   |   |   |   |   |   Mean_Mem20_MFCC4_Power_powerFFT_WinHamming_HopSize512_WinSize512_Sum_AudioCh0 <= -0.209193: m53 (16.0/1.0)\
|   |   |   |   |   |   |   |   |   |   |   |   |   |   Mean_Mem20_MFCC4_Power_powerFFT_WinHamming_HopSize512_WinSize512_Sum_AudioCh0 > -0.209193\
|   |   |   |   |   |   |   |   |   |   |   |   |   |   |   Mean_Mem20_MFCC4_Power_powerFFT_WinHamming_HopSize512_WinSize512_Sum_AudioCh0 <= 0.195293: m39 (16.0)\
|   |   |   |   |   |   |   |   |   |   |   |   |   |   |   Mean_Mem20_MFCC4_Power_powerFFT_WinHamming_HopSize512_WinSize512_Sum_AudioCh0 > 0.195293: m56 (4.0/1.0)\
|   |   |   |   |   |   |   |   |   |   |   |   |   Mean_Mem20_MFCC5_Power_powerFFT_WinHamming_HopSize512_WinSize512_Sum_AudioCh0 > 0.016923\
|   |   |   |   |   |   |   |   |   |   |   |   |   |   Mean_Mem20_MFCC5_Power_powerFFT_WinHamming_HopSize512_WinSize512_Sum_AudioCh0 <= 1.007553\
|   |   |   |   |   |   |   |   |   |   |   |   |   |   |   Mean_Mem20_MFCC0_Power_powerFFT_WinHamming_HopSize512_WinSize512_Sum_AudioCh0 <= -68.100733\
|   |   |   |   |   |   |   |   |   |   |   |   |   |   |   |   Mean_Mem20_ZeroCrossings_HopSize512_WinSize512_Sum_AudioCh0 <= 0.018066: m25 (2.0)\
|   |   |   |   |   |   |   |   |   |   |   |   |   |   |   |   Mean_Mem20_ZeroCrossings_HopSize512_WinSize512_Sum_AudioCh0 > 0.018066: m26 (2.0/1.0)\
|   |   |   |   |   |   |   |   |   |   |   |   |   |   |   Mean_Mem20_MFCC0_Power_powerFFT_WinHamming_HopSize512_WinSize512_Sum_AudioCh0 > -68.100733\
|   |   |   |   |   |   |   |   |   |   |   |   |   |   |   |   Mean_Mem20_ZeroCrossings_HopSize512_WinSize512_Sum_AudioCh0 <= 0.024023: m40 (10.0)\
|   |   |   |   |   |   |   |   |   |   |   |   |   |   |   |   Mean_Mem20_ZeroCrossings_HopSize512_WinSize512_Sum_AudioCh0 > 0.024023: m52 (2.0)\
|   |   |   |   |   |   |   |   |   |   |   |   |   |   Mean_Mem20_MFCC5_Power_powerFFT_WinHamming_HopSize512_WinSize512_Sum_AudioCh0 > 1.007553: m54 (14.0)\
|   |   |   |   |   |   |   |   |   |   |   Mean_Mem20_MFCC8_Power_powerFFT_WinHamming_HopSize512_WinSize512_Sum_AudioCh0 > -0.564524\
|   |   |   |   |   |   |   |   |   |   |   |   Mean_Mem20_MFCC3_Power_powerFFT_WinHamming_HopSize512_WinSize512_Sum_AudioCh0 <= 1.316567\
|   |   |   |   |   |   |   |   |   |   |   |   |   Mean_Mem20_MFCC0_Power_powerFFT_WinHamming_HopSize512_WinSize512_Sum_AudioCh0 <= -59.542331\
|   |   |   |   |   |   |   |   |   |   |   |   |   |   Std_Mem20_Flux_Power_powerFFT_WinHamming_HopSize512_WinSize512_Sum_AudioCh0 <= 0.081732\
|   |   |   |   |   |   |   |   |   |   |   |   |   |   |   Mean_Mem20_PeakRatio_Average_Chroma_A_Power_powerFFT_WinHamming_HopSize512_WinSize512_Sum_AudioCh0 <= 1.284333\
|   |   |   |   |   |   |   |   |   |   |   |   |   |   |   |   Mean_Mem20_MFCC6_Power_powerFFT_WinHamming_HopSize512_WinSize512_Sum_AudioCh0 <= 0.389874\
|   |   |   |   |   |   |   |   |   |   |   |   |   |   |   |   |   Mean_Mem20_MFCC2_Power_powerFFT_WinHamming_HopSize512_WinSize512_Sum_AudioCh0 <= -0.704769: m49 (15.0)\
|   |   |   |   |   |   |   |   |   |   |   |   |   |   |   |   |   Mean_Mem20_MFCC2_Power_powerFFT_WinHamming_HopSize512_WinSize512_Sum_AudioCh0 > -0.704769: m51 (4.0/1.0)\
|   |   |   |   |   |   |   |   |   |   |   |   |   |   |   |   Mean_Mem20_MFCC6_Power_powerFFT_WinHamming_HopSize512_WinSize512_Sum_AudioCh0 > 0.389874\
|   |   |   |   |   |   |   |   |   |   |   |   |   |   |   |   |   Std_Mem20_ZeroCrossings_HopSize512_WinSize512_Sum_AudioCh0 <= 0.004148: m36 (12.0)\
|   |   |   |   |   |   |   |   |   |   |   |   |   |   |   |   |   Std_Mem20_ZeroCrossings_HopSize512_WinSize512_Sum_AudioCh0 > 0.004148\
|   |   |   |   |   |   |   |   |   |   |   |   |   |   |   |   |   |   Mean_Mem20_ZeroCrossings_HopSize512_WinSize512_Sum_AudioCh0 <= 0.023535: m39 (4.0)\
|   |   |   |   |   |   |   |   |   |   |   |   |   |   |   |   |   |   Mean_Mem20_ZeroCrossings_HopSize512_WinSize512_Sum_AudioCh0 > 0.023535: m30 (2.0)\
|   |   |   |   |   |   |   |   |   |   |   |   |   |   |   Mean_Mem20_PeakRatio_Average_Chroma_A_Power_powerFFT_WinHamming_HopSize512_WinSize512_Sum_AudioCh0 > 1.284333\
|   |   |   |   |   |   |   |   |   |   |   |   |   |   |   |   Mean_Mem20_Centroid_Power_powerFFT_WinHamming_HopSize512_WinSize512_Sum_AudioCh0 <= 0.01913\
|   |   |   |   |   |   |   |   |   |   |   |   |   |   |   |   |   Std_Mem20_MFCC9_Power_powerFFT_WinHamming_HopSize512_WinSize512_Sum_AudioCh0 <= 0.551162: m39 (40.0)\
|   |   |   |   |   |   |   |   |   |   |   |   |   |   |   |   |   Std_Mem20_MFCC9_Power_powerFFT_WinHamming_HopSize512_WinSize512_Sum_AudioCh0 > 0.551162: m47 (2.0)\
|   |   |   |   |   |   |   |   |   |   |   |   |   |   |   |   Mean_Mem20_Centroid_Power_powerFFT_WinHamming_HopSize512_WinSize512_Sum_AudioCh0 > 0.01913\
|   |   |   |   |   |   |   |   |   |   |   |   |   |   |   |   |   Std_Mem20_ZeroCrossings_HopSize512_WinSize512_Sum_AudioCh0 <= 0.006268: m38 (5.0)\
|   |   |   |   |   |   |   |   |   |   |   |   |   |   |   |   |   Std_Mem20_ZeroCrossings_HopSize512_WinSize512_Sum_AudioCh0 > 0.006268: m47 (2.0)\
|   |   |   |   |   |   |   |   |   |   |   |   |   |   Std_Mem20_Flux_Power_powerFFT_WinHamming_HopSize512_WinSize512_Sum_AudioCh0 > 0.081732\
|   |   |   |   |   |   |   |   |   |   |   |   |   |   |   Std_Mem20_Rolloff_Power_powerFFT_WinHamming_HopSize512_WinSize512_Sum_AudioCh0 <= 0.009379\
|   |   |   |   |   |   |   |   |   |   |   |   |   |   |   |   Std_Mem20_Rolloff_Power_powerFFT_WinHamming_HopSize512_WinSize512_Sum_AudioCh0 <= 0.004191: m48 (8.0)\
|   |   |   |   |   |   |   |   |   |   |   |   |   |   |   |   Std_Mem20_Rolloff_Power_powerFFT_WinHamming_HopSize512_WinSize512_Sum_AudioCh0 > 0.004191: m36 (2.0)\
|   |   |   |   |   |   |   |   |   |   |   |   |   |   |   Std_Mem20_Rolloff_Power_powerFFT_WinHamming_HopSize512_WinSize512_Sum_AudioCh0 > 0.009379: m51 (28.0)\
|   |   |   |   |   |   |   |   |   |   |   |   |   Mean_Mem20_MFCC0_Power_powerFFT_WinHamming_HopSize512_WinSize512_Sum_AudioCh0 > -59.542331\
|   |   |   |   |   |   |   |   |   |   |   |   |   |   Mean_Mem20_PeakRatio_Chroma_C#_Power_powerFFT_WinHamming_HopSize512_WinSize512_Sum_AudioCh0 <= 0.000044\
|   |   |   |   |   |   |   |   |   |   |   |   |   |   |   Mean_Mem20_PeakRatio_Chroma_A#_Power_powerFFT_WinHamming_HopSize512_WinSize512_Sum_AudioCh0 <= 0.000015: m49 (5.0)\
|   |   |   |   |   |   |   |   |   |   |   |   |   |   |   Mean_Mem20_PeakRatio_Chroma_A#_Power_powerFFT_WinHamming_HopSize512_WinSize512_Sum_AudioCh0 > 0.000015\
|   |   |   |   |   |   |   |   |   |   |   |   |   |   |   |   Mean_Mem20_ZeroCrossings_HopSize512_WinSize512_Sum_AudioCh0 <= 0.012891: m50 (3.0)\
|   |   |   |   |   |   |   |   |   |   |   |   |   |   |   |   Mean_Mem20_ZeroCrossings_HopSize512_WinSize512_Sum_AudioCh0 > 0.012891: m52 (3.0/1.0)\
|   |   |   |   |   |   |   |   |   |   |   |   |   |   Mean_Mem20_PeakRatio_Chroma_C#_Power_powerFFT_WinHamming_HopSize512_WinSize512_Sum_AudioCh0 > 0.000044\
|   |   |   |   |   |   |   |   |   |   |   |   |   |   |   Mean_Mem20_PeakRatio_Chroma_D#_Power_powerFFT_WinHamming_HopSize512_WinSize512_Sum_AudioCh0 <= 0.000062: m44 (2.0)\
|   |   |   |   |   |   |   |   |   |   |   |   |   |   |   Mean_Mem20_PeakRatio_Chroma_D#_Power_powerFFT_WinHamming_HopSize512_WinSize512_Sum_AudioCh0 > 0.000062: m27 (7.0)\
|   |   |   |   |   |   |   |   |   |   |   |   Mean_Mem20_MFCC3_Power_powerFFT_WinHamming_HopSize512_WinSize512_Sum_AudioCh0 > 1.316567\
|   |   |   |   |   |   |   |   |   |   |   |   |   Mean_Mem20_PeakRatio_Chroma_A_Power_powerFFT_WinHamming_HopSize512_WinSize512_Sum_AudioCh0 <= 0.000109\
|   |   |   |   |   |   |   |   |   |   |   |   |   |   Mean_Mem20_MFCC7_Power_powerFFT_WinHamming_HopSize512_WinSize512_Sum_AudioCh0 <= -0.308304\
|   |   |   |   |   |   |   |   |   |   |   |   |   |   |   Mean_Mem20_MFCC4_Power_powerFFT_WinHamming_HopSize512_WinSize512_Sum_AudioCh0 <= 0.06427\
|   |   |   |   |   |   |   |   |   |   |   |   |   |   |   |   Mean_Mem20_PeakRatio_Chroma_A_Power_powerFFT_WinHamming_HopSize512_WinSize512_Sum_AudioCh0 <= 0.000015\
|   |   |   |   |   |   |   |   |   |   |   |   |   |   |   |   |   Mean_Mem20_MFCC6_Power_powerFFT_WinHamming_HopSize512_WinSize512_Sum_AudioCh0 <= 0.028429: m43 (21.0/1.0)\
|   |   |   |   |   |   |   |   |   |   |   |   |   |   |   |   |   Mean_Mem20_MFCC6_Power_powerFFT_WinHamming_HopSize512_WinSize512_Sum_AudioCh0 > 0.028429\
|   |   |   |   |   |   |   |   |   |   |   |   |   |   |   |   |   |   Mean_Mem20_ZeroCrossings_HopSize512_WinSize512_Sum_AudioCh0 <= 0.023047: m54 (2.0)\
|   |   |   |   |   |   |   |   |   |   |   |   |   |   |   |   |   |   Mean_Mem20_ZeroCrossings_HopSize512_WinSize512_Sum_AudioCh0 > 0.023047: m25 (2.0)\
|   |   |   |   |   |   |   |   |   |   |   |   |   |   |   |   Mean_Mem20_PeakRatio_Chroma_A_Power_powerFFT_WinHamming_HopSize512_WinSize512_Sum_AudioCh0 > 0.000015: m53 (6.0)\
|   |   |   |   |   |   |   |   |   |   |   |   |   |   |   Mean_Mem20_MFCC4_Power_powerFFT_WinHamming_HopSize512_WinSize512_Sum_AudioCh0 > 0.06427\
|   |   |   |   |   |   |   |   |   |   |   |   |   |   |   |   Mean_Mem20_PeakRatio_Chroma_A_Power_powerFFT_WinHamming_HopSize512_WinSize512_Sum_AudioCh0 <= 0.000049\
|   |   |   |   |   |   |   |   |   |   |   |   |   |   |   |   |   Mean_Mem20_Centroid_Power_powerFFT_WinHamming_HopSize512_WinSize512_Sum_AudioCh0 <= 0.01926: m46 (14.0)\
|   |   |   |   |   |   |   |   |   |   |   |   |   |   |   |   |   Mean_Mem20_Centroid_Power_powerFFT_WinHamming_HopSize512_WinSize512_Sum_AudioCh0 > 0.01926: m47 (4.0/1.0)\
|   |   |   |   |   |   |   |   |   |   |   |   |   |   |   |   Mean_Mem20_PeakRatio_Chroma_A_Power_powerFFT_WinHamming_HopSize512_WinSize512_Sum_AudioCh0 > 0.000049: m55 (6.0)\
|   |   |   |   |   |   |   |   |   |   |   |   |   |   Mean_Mem20_MFCC7_Power_powerFFT_WinHamming_HopSize512_WinSize512_Sum_AudioCh0 > -0.308304\
|   |   |   |   |   |   |   |   |   |   |   |   |   |   |   Mean_Mem20_MFCC4_Power_powerFFT_WinHamming_HopSize512_WinSize512_Sum_AudioCh0 <= 0.561964\
|   |   |   |   |   |   |   |   |   |   |   |   |   |   |   |   Mean_Mem20_MFCC12_Power_powerFFT_WinHamming_HopSize512_WinSize512_Sum_AudioCh0 <= 0.218841\
|   |   |   |   |   |   |   |   |   |   |   |   |   |   |   |   |   Std_Mem20_PeakRatio_Average_Chroma_A_Power_powerFFT_WinHamming_HopSize512_WinSize512_Sum_AudioCh0 <= 0.166695\
|   |   |   |   |   |   |   |   |   |   |   |   |   |   |   |   |   |   Mean_Mem20_PeakRatio_Minimum_Chroma_A_Power_powerFFT_WinHamming_HopSize512_WinSize512_Sum_AudioCh0 <= 1.453544\
|   |   |   |   |   |   |   |   |   |   |   |   |   |   |   |   |   |   |   Mean_Mem20_PeakRatio_Chroma_A_Power_powerFFT_WinHamming_HopSize512_WinSize512_Sum_AudioCh0 <= 0.000022\
|   |   |   |   |   |   |   |   |   |   |   |   |   |   |   |   |   |   |   |   Std_Mem20_Rolloff_Power_powerFFT_WinHamming_HopSize512_WinSize512_Sum_AudioCh0 <= 0.002491: m43 (6.0)\
|   |   |   |   |   |   |   |   |   |   |   |   |   |   |   |   |   |   |   |   Std_Mem20_Rolloff_Power_powerFFT_WinHamming_HopSize512_WinSize512_Sum_AudioCh0 > 0.002491: m49 (7.0)\
|   |   |   |   |   |   |   |   |   |   |   |   |   |   |   |   |   |   |   Mean_Mem20_PeakRatio_Chroma_A_Power_powerFFT_WinHamming_HopSize512_WinSize512_Sum_AudioCh0 > 0.000022: m42 (4.0)\
|   |   |   |   |   |   |   |   |   |   |   |   |   |   |   |   |   |   Mean_Mem20_PeakRatio_Minimum_Chroma_A_Power_powerFFT_WinHamming_HopSize512_WinSize512_Sum_AudioCh0 > 1.453544\
|   |   |   |   |   |   |   |   |   |   |   |   |   |   |   |   |   |   |   Mean_Mem20_Centroid_Power_powerFFT_WinHamming_HopSize512_WinSize512_Sum_AudioCh0 <= 0.018206\
|   |   |   |   |   |   |   |   |   |   |   |   |   |   |   |   |   |   |   |   Mean_Mem20_MFCC2_Power_powerFFT_WinHamming_HopSize512_WinSize512_Sum_AudioCh0 <= -2.325872: m36 (5.0/1.0)\
|   |   |   |   |   |   |   |   |   |   |   |   |   |   |   |   |   |   |   |   Mean_Mem20_MFCC2_Power_powerFFT_WinHamming_HopSize512_WinSize512_Sum_AudioCh0 > -2.325872\
|   |   |   |   |   |   |   |   |   |   |   |   |   |   |   |   |   |   |   |   |   Mean_Mem20_MFCC6_Power_powerFFT_WinHamming_HopSize512_WinSize512_Sum_AudioCh0 <= 0.239605: m47 (9.0)\
|   |   |   |   |   |   |   |   |   |   |   |   |   |   |   |   |   |   |   |   |   Mean_Mem20_MFCC6_Power_powerFFT_WinHamming_HopSize512_WinSize512_Sum_AudioCh0 > 0.239605\
|   |   |   |   |   |   |   |   |   |   |   |   |   |   |   |   |   |   |   |   |   |   Std_Mem20_PeakRatio_Chroma_B_Power_powerFFT_WinHamming_HopSize512_WinSize512_Sum_AudioCh0 <= 0.000043\
|   |   |   |   |   |   |   |   |   |   |   |   |   |   |   |   |   |   |   |   |   |   |   Mean_Mem20_ZeroCrossings_HopSize512_WinSize512_Sum_AudioCh0 <= 0.019922: m51 (19.0/1.0)\
|   |   |   |   |   |   |   |   |   |   |   |   |   |   |   |   |   |   |   |   |   |   |   Mean_Mem20_ZeroCrossings_HopSize512_WinSize512_Sum_AudioCh0 > 0.019922: m45 (5.0)\
|   |   |   |   |   |   |   |   |   |   |   |   |   |   |   |   |   |   |   |   |   |   Std_Mem20_PeakRatio_Chroma_B_Power_powerFFT_WinHamming_HopSize512_WinSize512_Sum_AudioCh0 > 0.000043: m53 (2.0)\
|   |   |   |   |   |   |   |   |   |   |   |   |   |   |   |   |   |   |   Mean_Mem20_Centroid_Power_powerFFT_WinHamming_HopSize512_WinSize512_Sum_AudioCh0 > 0.018206\
|   |   |   |   |   |   |   |   |   |   |   |   |   |   |   |   |   |   |   |   Mean_Mem20_MFCC5_Power_powerFFT_WinHamming_HopSize512_WinSize512_Sum_AudioCh0 <= 0.052496\
|   |   |   |   |   |   |   |   |   |   |   |   |   |   |   |   |   |   |   |   |   Std_Mem20_Rolloff_Power_powerFFT_WinHamming_HopSize512_WinSize512_Sum_AudioCh0 <= 0.006152: m48 (4.0)\
|   |   |   |   |   |   |   |   |   |   |   |   |   |   |   |   |   |   |   |   |   Std_Mem20_Rolloff_Power_powerFFT_WinHamming_HopSize512_WinSize512_Sum_AudioCh0 > 0.006152: m30 (2.0/1.0)\
|   |   |   |   |   |   |   |   |   |   |   |   |   |   |   |   |   |   |   |   Mean_Mem20_MFCC5_Power_powerFFT_WinHamming_HopSize512_WinSize512_Sum_AudioCh0 > 0.052496: m52 (12.0)\
|   |   |   |   |   |   |   |   |   |   |   |   |   |   |   |   |   Std_Mem20_PeakRatio_Average_Chroma_A_Power_powerFFT_WinHamming_HopSize512_WinSize512_Sum_AudioCh0 > 0.166695\
