=== Run information ===

Scheme:       weka.classifiers.trees.J48 -C 0.25 -M 2
Relation:     MARSYAS_EMPTYm_multi.arff-weka.filters.unsupervised.attribute.Remove-R1-2,5,18-28,33-41,49-60
Instances:    118215
Attributes:   28
              Mean_Mem20_Rolloff_Power_powerFFT_WinHamming_HopSize512_WinSize512_Sum_AudioCh0
              Mean_Mem20_Flux_Power_powerFFT_WinHamming_HopSize512_WinSize512_Sum_AudioCh0
              Mean_Mem20_MFCC1_Power_powerFFT_WinHamming_HopSize512_WinSize512_Sum_AudioCh0
              Mean_Mem20_MFCC2_Power_powerFFT_WinHamming_HopSize512_WinSize512_Sum_AudioCh0
              Mean_Mem20_MFCC3_Power_powerFFT_WinHamming_HopSize512_WinSize512_Sum_AudioCh0
              Mean_Mem20_MFCC4_Power_powerFFT_WinHamming_HopSize512_WinSize512_Sum_AudioCh0
              Mean_Mem20_MFCC5_Power_powerFFT_WinHamming_HopSize512_WinSize512_Sum_AudioCh0
              Mean_Mem20_MFCC6_Power_powerFFT_WinHamming_HopSize512_WinSize512_Sum_AudioCh0
              Mean_Mem20_MFCC7_Power_powerFFT_WinHamming_HopSize512_WinSize512_Sum_AudioCh0
              Mean_Mem20_MFCC8_Power_powerFFT_WinHamming_HopSize512_WinSize512_Sum_AudioCh0
              Mean_Mem20_MFCC9_Power_powerFFT_WinHamming_HopSize512_WinSize512_Sum_AudioCh0
              Mean_Mem20_MFCC10_Power_powerFFT_WinHamming_HopSize512_WinSize512_Sum_AudioCh0
              Mean_Mem20_MFCC11_Power_powerFFT_WinHamming_HopSize512_WinSize512_Sum_AudioCh0
              Mean_Mem20_MFCC12_Power_powerFFT_WinHamming_HopSize512_WinSize512_Sum_AudioCh0
              Mean_Mem20_PeakRatio_Chroma_G#_Power_powerFFT_WinHamming_HopSize512_WinSize512_Sum_AudioCh0
              Mean_Mem20_PeakRatio_Average_Chroma_A_Power_powerFFT_WinHamming_HopSize512_WinSize512_Sum_AudioCh0
              Mean_Mem20_PeakRatio_Minimum_Chroma_A_Power_powerFFT_WinHamming_HopSize512_WinSize512_Sum_AudioCh0
              Std_Mem20_ZeroCrossings_HopSize512_WinSize512_Sum_AudioCh0
              Std_Mem20_MFCC6_Power_powerFFT_WinHamming_HopSize512_WinSize512_Sum_AudioCh0
              Std_Mem20_MFCC7_Power_powerFFT_WinHamming_HopSize512_WinSize512_Sum_AudioCh0
              Std_Mem20_MFCC8_Power_powerFFT_WinHamming_HopSize512_WinSize512_Sum_AudioCh0
              Std_Mem20_MFCC9_Power_powerFFT_WinHamming_HopSize512_WinSize512_Sum_AudioCh0
              Std_Mem20_MFCC10_Power_powerFFT_WinHamming_HopSize512_WinSize512_Sum_AudioCh0
              Std_Mem20_MFCC11_Power_powerFFT_WinHamming_HopSize512_WinSize512_Sum_AudioCh0
              Std_Mem20_MFCC12_Power_powerFFT_WinHamming_HopSize512_WinSize512_Sum_AudioCh0
              Std_Mem20_PeakRatio_Average_Chroma_A_Power_powerFFT_WinHamming_HopSize512_WinSize512_Sum_AudioCh0
              Std_Mem20_PeakRatio_Minimum_Chroma_A_Power_powerFFT_WinHamming_HopSize512_WinSize512_Sum_AudioCh0
              output
Test mode:    5-fold cross-validation

=== Classifier model (full training set) ===

J48 pruned tree
------------------

Std_Mem20_PeakRatio_Minimum_Chroma_A_Power_powerFFT_WinHamming_HopSize512_WinSize512_Sum_AudioCh0 <= 2.496173
|   Mean_Mem20_PeakRatio_Minimum_Chroma_A_Power_powerFFT_WinHamming_HopSize512_WinSize512_Sum_AudioCh0 <= 2.234151
|   |   Std_Mem20_MFCC7_Power_powerFFT_WinHamming_HopSize512_WinSize512_Sum_AudioCh0 <= 0.280901
|   |   |   Mean_Mem20_Flux_Power_powerFFT_WinHamming_HopSize512_WinSize512_Sum_AudioCh0 <= 0.082579
|   |   |   |   Mean_Mem20_PeakRatio_Minimum_Chroma_A_Power_powerFFT_WinHamming_HopSize512_WinSize512_Sum_AudioCh0 <= 1.846137
|   |   |   |   |   Mean_Mem20_MFCC1_Power_powerFFT_WinHamming_HopSize512_WinSize512_Sum_AudioCh0 <= 4.395071
|   |   |   |   |   |   Std_Mem20_PeakRatio_Minimum_Chroma_A_Power_powerFFT_WinHamming_HopSize512_WinSize512_Sum_AudioCh0 <= 1.19576
|   |   |   |   |   |   |   Mean_Mem20_MFCC8_Power_powerFFT_WinHamming_HopSize512_WinSize512_Sum_AudioCh0 <= -0.027437
|   |   |   |   |   |   |   |   Std_Mem20_MFCC6_Power_powerFFT_WinHamming_HopSize512_WinSize512_Sum_AudioCh0 <= 0.298093
|   |   |   |   |   |   |   |   |   Mean_Mem20_MFCC10_Power_powerFFT_WinHamming_HopSize512_WinSize512_Sum_AudioCh0 <= -0.004094
|   |   |   |   |   |   |   |   |   |   Mean_Mem20_MFCC9_Power_powerFFT_WinHamming_HopSize512_WinSize512_Sum_AudioCh0 <= -0.004258
|   |   |   |   |   |   |   |   |   |   |   Mean_Mem20_MFCC7_Power_powerFFT_WinHamming_HopSize512_WinSize512_Sum_AudioCh0 <= -0.028305
|   |   |   |   |   |   |   |   |   |   |   |   Mean_Mem20_Rolloff_Power_powerFFT_WinHamming_HopSize512_WinSize512_Sum_AudioCh0 <= 0.903502: m52 (7.0)
|   |   |   |   |   |   |   |   |   |   |   |   Mean_Mem20_Rolloff_Power_powerFFT_WinHamming_HopSize512_WinSize512_Sum_AudioCh0 > 0.903502: m57 (3.0/2.0)
|   |   |   |   |   |   |   |   |   |   |   Mean_Mem20_MFCC7_Power_powerFFT_WinHamming_HopSize512_WinSize512_Sum_AudioCh0 > -0.028305
|   |   |   |   |   |   |   |   |   |   |   |   Std_Mem20_MFCC10_Power_powerFFT_WinHamming_HopSize512_WinSize512_Sum_AudioCh0 <= 0.297969
|   |   |   |   |   |   |   |   |   |   |   |   |   Std_Mem20_MFCC11_Power_powerFFT_WinHamming_HopSize512_WinSize512_Sum_AudioCh0 <= 0.27684
|   |   |   |   |   |   |   |   |   |   |   |   |   |   Mean_Mem20_MFCC1_Power_powerFFT_WinHamming_HopSize512_WinSize512_Sum_AudioCh0 <= 0.467052: m66 (2.0)
|   |   |   |   |   |   |   |   |   |   |   |   |   |   Mean_Mem20_MFCC1_Power_powerFFT_WinHamming_HopSize512_WinSize512_Sum_AudioCh0 > 0.467052
|   |   |   |   |   |   |   |   |   |   |   |   |   |   |   Std_Mem20_MFCC8_Power_powerFFT_WinHamming_HopSize512_WinSize512_Sum_AudioCh0 <= 0.230809: m23 (5.0/1.0)
|   |   |   |   |   |   |   |   |   |   |   |   |   |   |   Std_Mem20_MFCC8_Power_powerFFT_WinHamming_HopSize512_WinSize512_Sum_AudioCh0 > 0.230809: m51 (16.0)
|   |   |   |   |   |   |   |   |   |   |   |   |   Std_Mem20_MFCC11_Power_powerFFT_WinHamming_HopSize512_WinSize512_Sum_AudioCh0 > 0.27684
|   |   |   |   |   |   |   |   |   |   |   |   |   |   Mean_Mem20_Rolloff_Power_powerFFT_WinHamming_HopSize512_WinSize512_Sum_AudioCh0 <= 0.879183: m44 (3.0)
|   |   |   |   |   |   |   |   |   |   |   |   |   |   Mean_Mem20_Rolloff_Power_powerFFT_WinHamming_HopSize512_WinSize512_Sum_AudioCh0 > 0.879183: m26 (2.0)
|   |   |   |   |   |   |   |   |   |   |   |   Std_Mem20_MFCC10_Power_powerFFT_WinHamming_HopSize512_WinSize512_Sum_AudioCh0 > 0.297969: m29 (4.0/1.0)
|   |   |   |   |   |   |   |   |   |   Mean_Mem20_MFCC9_Power_powerFFT_WinHamming_HopSize512_WinSize512_Sum_AudioCh0 > -0.004258
|   |   |   |   |   |   |   |   |   |   |   Mean_Mem20_MFCC1_Power_powerFFT_WinHamming_HopSize512_WinSize512_Sum_AudioCh0 <= 0.719587
|   |   |   |   |   |   |   |   |   |   |   |   Std_Mem20_MFCC10_Power_powerFFT_WinHamming_HopSize512_WinSize512_Sum_AudioCh0 <= 0.168228: m53 (6.0/1.0)
|   |   |   |   |   |   |   |   |   |   |   |   Std_Mem20_MFCC10_Power_powerFFT_WinHamming_HopSize512_WinSize512_Sum_AudioCh0 > 0.168228
|   |   |   |   |   |   |   |   |   |   |   |   |   Mean_Mem20_MFCC3_Power_powerFFT_WinHamming_HopSize512_WinSize512_Sum_AudioCh0 <= 0.138127: m67 (3.0/1.0)
|   |   |   |   |   |   |   |   |   |   |   |   |   Mean_Mem20_MFCC3_Power_powerFFT_WinHamming_HopSize512_WinSize512_Sum_AudioCh0 > 0.138127: m39 (2.0/1.0)
|   |   |   |   |   |   |   |   |   |   |   Mean_Mem20_MFCC1_Power_powerFFT_WinHamming_HopSize512_WinSize512_Sum_AudioCh0 > 0.719587
|   |   |   |   |   |   |   |   |   |   |   |   Mean_Mem20_MFCC10_Power_powerFFT_WinHamming_HopSize512_WinSize512_Sum_AudioCh0 <= -0.029422
|   |   |   |   |   |   |   |   |   |   |   |   |   Std_Mem20_MFCC7_Power_powerFFT_WinHamming_HopSize512_WinSize512_Sum_AudioCh0 <= 0.250119: m55 (12.0)
|   |   |   |   |   |   |   |   |   |   |   |   |   Std_Mem20_MFCC7_Power_powerFFT_WinHamming_HopSize512_WinSize512_Sum_AudioCh0 > 0.250119: m54 (3.0/1.0)
|   |   |   |   |   |   |   |   |   |   |   |   Mean_Mem20_MFCC10_Power_powerFFT_WinHamming_HopSize512_WinSize512_Sum_AudioCh0 > -0.029422
|   |   |   |   |   |   |   |   |   |   |   |   |   Mean_Mem20_Rolloff_Power_powerFFT_WinHamming_HopSize512_WinSize512_Sum_AudioCh0 <= 0.903891: m52 (3.0/1.0)
|   |   |   |   |   |   |   |   |   |   |   |   |   Mean_Mem20_Rolloff_Power_powerFFT_WinHamming_HopSize512_WinSize512_Sum_AudioCh0 > 0.903891: m44 (2.0/1.0)
|   |   |   |   |   |   |   |   |   Mean_Mem20_MFCC10_Power_powerFFT_WinHamming_HopSize512_WinSize512_Sum_AudioCh0 > -0.004094
|   |   |   |   |   |   |   |   |   |   Std_Mem20_MFCC9_Power_powerFFT_WinHamming_HopSize512_WinSize512_Sum_AudioCh0 <= 0.182645
|   |   |   |   |   |   |   |   |   |   |   Std_Mem20_MFCC6_Power_powerFFT_WinHamming_HopSize512_WinSize512_Sum_AudioCh0 <= 0.21067
|   |   |   |   |   |   |   |   |   |   |   |   Mean_Mem20_MFCC4_Power_powerFFT_WinHamming_HopSize512_WinSize512_Sum_AudioCh0 <= -0.032658
|   |   |   |   |   |   |   |   |   |   |   |   |   Mean_Mem20_MFCC7_Power_powerFFT_WinHamming_HopSize512_WinSize512_Sum_AudioCh0 <= -0.024057
|   |   |   |   |   |   |   |   |   |   |   |   |   |   Mean_Mem20_Rolloff_Power_powerFFT_WinHamming_HopSize512_WinSize512_Sum_AudioCh0 <= 0.85856: m50 (2.0)
|   |   |   |   |   |   |   |   |   |   |   |   |   |   Mean_Mem20_Rolloff_Power_powerFFT_WinHamming_HopSize512_WinSize512_Sum_AudioCh0 > 0.85856: m29 (2.0/1.0)
|   |   |   |   |   |   |   |   |   |   |   |   |   Mean_Mem20_MFCC7_Power_powerFFT_WinHamming_HopSize512_WinSize512_Sum_AudioCh0 > -0.024057
|   |   |   |   |   |   |   |   |   |   |   |   |   |   Mean_Mem20_MFCC3_Power_powerFFT_WinHamming_HopSize512_WinSize512_Sum_AudioCh0 <= 0.218589
|   |   |   |   |   |   |   |   |   |   |   |   |   |   |   Mean_Mem20_Rolloff_Power_powerFFT_WinHamming_HopSize512_WinSize512_Sum_AudioCh0 <= 0.924514: m31 (2.0)
|   |   |   |   |   |   |   |   |   |   |   |   |   |   |   Mean_Mem20_Rolloff_Power_powerFFT_WinHamming_HopSize512_WinSize512_Sum_AudioCh0 > 0.924514: m51 (2.0/1.0)
|   |   |   |   |   |   |   |   |   |   |   |   |   |   Mean_Mem20_MFCC3_Power_powerFFT_WinHamming_HopSize512_WinSize512_Sum_AudioCh0 > 0.218589: m52 (7.0)
|   |   |   |   |   |   |   |   |   |   |   |   Mean_Mem20_MFCC4_Power_powerFFT_WinHamming_HopSize512_WinSize512_Sum_AudioCh0 > -0.032658
|   |   |   |   |   |   |   |   |   |   |   |   |   Mean_Mem20_MFCC9_Power_powerFFT_WinHamming_HopSize512_WinSize512_Sum_AudioCh0 <= 0.004385
|   |   |   |   |   |   |   |   |   |   |   |   |   |   Std_Mem20_ZeroCrossings_HopSize512_WinSize512_Sum_AudioCh0 <= 0.009476
|   |   |   |   |   |   |   |   |   |   |   |   |   |   |   Mean_Mem20_Flux_Power_powerFFT_WinHamming_HopSize512_WinSize512_Sum_AudioCh0 <= 0.056364: m21 (2.0/1.0)
|   |   |   |   |   |   |   |   |   |   |   |   |   |   |   Mean_Mem20_Flux_Power_powerFFT_WinHamming_HopSize512_WinSize512_Sum_AudioCh0 > 0.056364: m31 (2.0)
|   |   |   |   |   |   |   |   |   |   |   |   |   |   Std_Mem20_ZeroCrossings_HopSize512_WinSize512_Sum_AudioCh0 > 0.009476: m61 (5.0/1.0)
|   |   |   |   |   |   |   |   |   |   |   |   |   Mean_Mem20_MFCC9_Power_powerFFT_WinHamming_HopSize512_WinSize512_Sum_AudioCh0 > 0.004385
|   |   |   |   |   |   |   |   |   |   |   |   |   |   Mean_Mem20_MFCC7_Power_powerFFT_WinHamming_HopSize512_WinSize512_Sum_AudioCh0 <= -0.013442: m63 (3.0/1.0)
|   |   |   |   |   |   |   |   |   |   |   |   |   |   Mean_Mem20_MFCC7_Power_powerFFT_WinHamming_HopSize512_WinSize512_Sum_AudioCh0 > -0.013442: m62 (5.0)
|   |   |   |   |   |   |   |   |   |   |   Std_Mem20_MFCC6_Power_powerFFT_WinHamming_HopSize512_WinSize512_Sum_AudioCh0 > 0.21067
|   |   |   |   |   |   |   |   |   |   |   |   Mean_Mem20_MFCC4_Power_powerFFT_WinHamming_HopSize512_WinSize512_Sum_AudioCh0 <= -0.036832: m53 (6.0/1.0)
|   |   |   |   |   |   |   |   |   |   |   |   Mean_Mem20_MFCC4_Power_powerFFT_WinHamming_HopSize512_WinSize512_Sum_AudioCh0 > -0.036832
|   |   |   |   |   |   |   |   |   |   |   |   |   Mean_Mem20_Rolloff_Power_powerFFT_WinHamming_HopSize512_WinSize512_Sum_AudioCh0 <= 0.853891: m54 (3.0/1.0)
|   |   |   |   |   |   |   |   |   |   |   |   |   Mean_Mem20_Rolloff_Power_powerFFT_WinHamming_HopSize512_WinSize512_Sum_AudioCh0 > 0.853891
|   |   |   |   |   |   |   |   |   |   |   |   |   |   Mean_Mem20_Rolloff_Power_powerFFT_WinHamming_HopSize512_WinSize512_Sum_AudioCh0 <= 0.904864: m40 (2.0/1.0)
|   |   |   |   |   |   |   |   |   |   |   |   |   |   Mean_Mem20_Rolloff_Power_powerFFT_WinHamming_HopSize512_WinSize512_Sum_AudioCh0 > 0.904864: m29 (2.0/1.0)
|   |   |   |   |   |   |   |   |   |   Std_Mem20_MFCC9_Power_powerFFT_WinHamming_HopSize512_WinSize512_Sum_AudioCh0 > 0.182645
|   |   |   |   |   |   |   |   |   |   |   Mean_Mem20_MFCC9_Power_powerFFT_WinHamming_HopSize512_WinSize512_Sum_AudioCh0 <= -0.06681
|   |   |   |   |   |   |   |   |   |   |   |   Mean_Mem20_MFCC2_Power_powerFFT_WinHamming_HopSize512_WinSize512_Sum_AudioCh0 <= -0.338031: m30 (4.0)
|   |   |   |   |   |   |   |   |   |   |   |   Mean_Mem20_MFCC2_Power_powerFFT_WinHamming_HopSize512_WinSize512_Sum_AudioCh0 > -0.338031
|   |   |   |   |   |   |   |   |   |   |   |   |   Mean_Mem20_Rolloff_Power_powerFFT_WinHamming_HopSize512_WinSize512_Sum_AudioCh0 <= 0.879183: m50 (2.0/1.0)
|   |   |   |   |   |   |   |   |   |   |   |   |   Mean_Mem20_Rolloff_Power_powerFFT_WinHamming_HopSize512_WinSize512_Sum_AudioCh0 > 0.879183: m49 (2.0/1.0)
|   |   |   |   |   |   |   |   |   |   |   Mean_Mem20_MFCC9_Power_powerFFT_WinHamming_HopSize512_WinSize512_Sum_AudioCh0 > -0.06681
|   |   |   |   |   |   |   |   |   |   |   |   Mean_Mem20_MFCC12_Power_powerFFT_WinHamming_HopSize512_WinSize512_Sum_AudioCh0 <= 0.040837
|   |   |   |   |   |   |   |   |   |   |   |   |   Std_Mem20_MFCC8_Power_powerFFT_WinHamming_HopSize512_WinSize512_Sum_AudioCh0 <= 0.248761
|   |   |   |   |   |   |   |   |   |   |   |   |   |   Mean_Mem20_MFCC11_Power_powerFFT_WinHamming_HopSize512_WinSize512_Sum_AudioCh0 <= 0.011457
|   |   |   |   |   |   |   |   |   |   |   |   |   |   |   Mean_Mem20_MFCC2_Power_powerFFT_WinHamming_HopSize512_WinSize512_Sum_AudioCh0 <= -0.204856: m34 (3.0/1.0)
|   |   |   |   |   |   |   |   |   |   |   |   |   |   |   Mean_Mem20_MFCC2_Power_powerFFT_WinHamming_HopSize512_WinSize512_Sum_AudioCh0 > -0.204856: m40 (4.0)
|   |   |   |   |   |   |   |   |   |   |   |   |   |   Mean_Mem20_MFCC11_Power_powerFFT_WinHamming_HopSize512_WinSize512_Sum_AudioCh0 > 0.011457
|   |   |   |   |   |   |   |   |   |   |   |   |   |   |   Mean_Mem20_MFCC2_Power_powerFFT_WinHamming_HopSize512_WinSize512_Sum_AudioCh0 <= -0.291865: m49 (2.0)
|   |   |   |   |   |   |   |   |   |   |   |   |   |   |   Mean_Mem20_MFCC2_Power_powerFFT_WinHamming_HopSize512_WinSize512_Sum_AudioCh0 > -0.291865: m32 (14.0/1.0)
|   |   |   |   |   |   |   |   |   |   |   |   |   Std_Mem20_MFCC8_Power_powerFFT_WinHamming_HopSize512_WinSize512_Sum_AudioCh0 > 0.248761
|   |   |   |   |   |   |   |   |   |   |   |   |   |   Std_Mem20_ZeroCrossings_HopSize512_WinSize512_Sum_AudioCh0 <= 0.011647: m33 (12.0)
|   |   |   |   |   |   |   |   |   |   |   |   |   |   Std_Mem20_ZeroCrossings_HopSize512_WinSize512_Sum_AudioCh0 > 0.011647: m32 (2.0/1.0)
|   |   |   |   |   |   |   |   |   |   |   |   Mean_Mem20_MFCC12_Power_powerFFT_WinHamming_HopSize512_WinSize512_Sum_AudioCh0 > 0.040837
|   |   |   |   |   |   |   |   |   |   |   |   |   Mean_Mem20_PeakRatio_Chroma_G#_Power_powerFFT_WinHamming_HopSize512_WinSize512_Sum_AudioCh0 <= 0.000088
|   |   |   |   |   |   |   |   |   |   |   |   |   |   Std_Mem20_MFCC10_Power_powerFFT_WinHamming_HopSize512_WinSize512_Sum_AudioCh0 <= 0.204508: m41 (7.0)
|   |   |   |   |   |   |   |   |   |   |   |   |   |   Std_Mem20_MFCC10_Power_powerFFT_WinHamming_HopSize512_WinSize512_Sum_AudioCh0 > 0.204508: m54 (4.0/1.0)
|   |   |   |   |   |   |   |   |   |   |   |   |   Mean_Mem20_PeakRatio_Chroma_G#_Power_powerFFT_WinHamming_HopSize512_WinSize512_Sum_AudioCh0 > 0.000088: m32 (3.0)
|   |   |   |   |   |   |   |   Std_Mem20_MFCC6_Power_powerFFT_WinHamming_HopSize512_WinSize512_Sum_AudioCh0 > 0.298093
|   |   |   |   |   |   |   |   |   Mean_Mem20_MFCC11_Power_powerFFT_WinHamming_HopSize512_WinSize512_Sum_AudioCh0 <= 0.005304
|   |   |   |   |   |   |   |   |   |   Mean_Mem20_MFCC9_Power_powerFFT_WinHamming_HopSize512_WinSize512_Sum_AudioCh0 <= 0.035431
|   |   |   |   |   |   |   |   |   |   |   Mean_Mem20_MFCC6_Power_powerFFT_WinHamming_HopSize512_WinSize512_Sum_AudioCh0 <= -0.044178: m48 (9.0)
|   |   |   |   |   |   |   |   |   |   |   Mean_Mem20_MFCC6_Power_powerFFT_WinHamming_HopSize512_WinSize512_Sum_AudioCh0 > -0.044178
|   |   |   |   |   |   |   |   |   |   |   |   Std_Mem20_MFCC10_Power_powerFFT_WinHamming_HopSize512_WinSize512_Sum_AudioCh0 <= 0.334161: m53 (14.0)
|   |   |   |   |   |   |   |   |   |   |   |   Std_Mem20_MFCC10_Power_powerFFT_WinHamming_HopSize512_WinSize512_Sum_AudioCh0 > 0.334161: m40 (3.0)
|   |   |   |   |   |   |   |   |   |   Mean_Mem20_MFCC9_Power_powerFFT_WinHamming_HopSize512_WinSize512_Sum_AudioCh0 > 0.035431
|   |   |   |   |   |   |   |   |   |   |   Mean_Mem20_MFCC4_Power_powerFFT_WinHamming_HopSize512_WinSize512_Sum_AudioCh0 <= -0.010613
|   |   |   |   |   |   |   |   |   |   |   |   Mean_Mem20_MFCC4_Power_powerFFT_WinHamming_HopSize512_WinSize512_Sum_AudioCh0 <= -0.072526: m38 (4.0)
|   |   |   |   |   |   |   |   |   |   |   |   Mean_Mem20_MFCC4_Power_powerFFT_WinHamming_HopSize512_WinSize512_Sum_AudioCh0 > -0.072526: m29 (4.0)
|   |   |   |   |   |   |   |   |   |   |   Mean_Mem20_MFCC4_Power_powerFFT_WinHamming_HopSize512_WinSize512_Sum_AudioCh0 > -0.010613
|   |   |   |   |   |   |   |   |   |   |   |   Mean_Mem20_MFCC2_Power_powerFFT_WinHamming_HopSize512_WinSize512_Sum_AudioCh0 <= -0.267205: m22 (4.0)
|   |   |   |   |   |   |   |   |   |   |   |   Mean_Mem20_MFCC2_Power_powerFFT_WinHamming_HopSize512_WinSize512_Sum_AudioCh0 > -0.267205: m50 (2.0)
|   |   |   |   |   |   |   |   |   Mean_Mem20_MFCC11_Power_powerFFT_WinHamming_HopSize512_WinSize512_Sum_AudioCh0 > 0.005304
|   |   |   |   |   |   |   |   |   |   Mean_Mem20_MFCC11_Power_powerFFT_WinHamming_HopSize512_WinSize512_Sum_AudioCh0 <= 0.164027
|   |   |   |   |   |   |   |   |   |   |   Mean_Mem20_MFCC2_Power_powerFFT_WinHamming_HopSize512_WinSize512_Sum_AudioCh0 <= -0.080961
|   |   |   |   |   |   |   |   |   |   |   |   Mean_Mem20_MFCC4_Power_powerFFT_WinHamming_HopSize512_WinSize512_Sum_AudioCh0 <= 0.053055
|   |   |   |   |   |   |   |   |   |   |   |   |   Std_Mem20_MFCC7_Power_powerFFT_WinHamming_HopSize512_WinSize512_Sum_AudioCh0 <= 0.14721: m27 (11.0/1.0)
|   |   |   |   |   |   |   |   |   |   |   |   |   Std_Mem20_MFCC7_Power_powerFFT_WinHamming_HopSize512_WinSize512_Sum_AudioCh0 > 0.14721
|   |   |   |   |   |   |   |   |   |   |   |   |   |   Std_Mem20_MFCC10_Power_powerFFT_WinHamming_HopSize512_WinSize512_Sum_AudioCh0 <= 0.076926: m27 (3.0)
|   |   |   |   |   |   |   |   |   |   |   |   |   |   Std_Mem20_MFCC10_Power_powerFFT_WinHamming_HopSize512_WinSize512_Sum_AudioCh0 > 0.076926: m28 (15.0)
|   |   |   |   |   |   |   |   |   |   |   |   Mean_Mem20_MFCC4_Power_powerFFT_WinHamming_HopSize512_WinSize512_Sum_AudioCh0 > 0.053055
|   |   |   |   |   |   |   |   |   |   |   |   |   Mean_Mem20_Rolloff_Power_powerFFT_WinHamming_HopSize512_WinSize512_Sum_AudioCh0 <= 0.830156
|   |   |   |   |   |   |   |   |   |   |   |   |   |   Std_Mem20_MFCC8_Power_powerFFT_WinHamming_HopSize512_WinSize512_Sum_AudioCh0 <= 0.278562: m54 (2.0)
|   |   |   |   |   |   |   |   |   |   |   |   |   |   Std_Mem20_MFCC8_Power_powerFFT_WinHamming_HopSize512_WinSize512_Sum_AudioCh0 > 0.278562: m27 (4.0)
|   |   |   |   |   |   |   |   |   |   |   |   |   Mean_Mem20_Rolloff_Power_powerFFT_WinHamming_HopSize512_WinSize512_Sum_AudioCh0 > 0.830156: m66 (3.0/1.0)
|   |   |   |   |   |   |   |   |   |   |   Mean_Mem20_MFCC2_Power_powerFFT_WinHamming_HopSize512_WinSize512_Sum_AudioCh0 > -0.080961
|   |   |   |   |   |   |   |   |   |   |   |   Mean_Mem20_MFCC3_Power_powerFFT_WinHamming_HopSize512_WinSize512_Sum_AudioCh0 <= 0.098804
|   |   |   |   |   |   |   |   |   |   |   |   |   Mean_Mem20_MFCC8_Power_powerFFT_WinHamming_HopSize512_WinSize512_Sum_AudioCh0 <= -0.121942
|   |   |   |   |   |   |   |   |   |   |   |   |   |   Mean_Mem20_MFCC4_Power_powerFFT_WinHamming_HopSize512_WinSize512_Sum_AudioCh0 <= 0.146255: m39 (3.0)
|   |   |   |   |   |   |   |   |   |   |   |   |   |   Mean_Mem20_MFCC4_Power_powerFFT_WinHamming_HopSize512_WinSize512_Sum_AudioCh0 > 0.146255: m40 (3.0)
|   |   |   |   |   |   |   |   |   |   |   |   |   Mean_Mem20_MFCC8_Power_powerFFT_WinHamming_HopSize512_WinSize512_Sum_AudioCh0 > -0.121942
|   |   |   |   |   |   |   |   |   |   |   |   |   |   Mean_Mem20_MFCC2_Power_powerFFT_WinHamming_HopSize512_WinSize512_Sum_AudioCh0 <= 0.246453: m27 (3.0/1.0)
|   |   |   |   |   |   |   |   |   |   |   |   |   |   Mean_Mem20_MFCC2_Power_powerFFT_WinHamming_HopSize512_WinSize512_Sum_AudioCh0 > 0.246453: m24 (3.0)
|   |   |   |   |   |   |   |   |   |   |   |   Mean_Mem20_MFCC3_Power_powerFFT_WinHamming_HopSize512_WinSize512_Sum_AudioCh0 > 0.098804
|   |   |   |   |   |   |   |   |   |   |   |   |   Std_Mem20_ZeroCrossings_HopSize512_WinSize512_Sum_AudioCh0 <= 0.009959: m63 (4.0/1.0)
|   |   |   |   |   |   |   |   |   |   |   |   |   Std_Mem20_ZeroCrossings_HopSize512_WinSize512_Sum_AudioCh0 > 0.009959: m62 (6.0/1.0)
|   |   |   |   |   |   |   |   |   |   Mean_Mem20_MFCC11_Power_powerFFT_WinHamming_HopSize512_WinSize512_Sum_AudioCh0 > 0.164027
|   |   |   |   |   |   |   |   |   |   |   Mean_Mem20_MFCC10_Power_powerFFT_WinHamming_HopSize512_WinSize512_Sum_AudioCh0 <= 0.067404
|   |   |   |   |   |   |   |   |   |   |   |   Mean_Mem20_Flux_Power_powerFFT_WinHamming_HopSize512_WinSize512_Sum_AudioCh0 <= 0.06968: m29 (3.0)
|   |   |   |   |   |   |   |   |   |   |   |   Mean_Mem20_Flux_Power_powerFFT_WinHamming_HopSize512_WinSize512_Sum_AudioCh0 > 0.06968: m27 (2.0/1.0)
|   |   |   |   |   |   |   |   |   |   |   Mean_Mem20_MFCC10_Power_powerFFT_WinHamming_HopSize512_WinSize512_Sum_AudioCh0 > 0.067404: m30 (7.0/1.0)
|   |   |   |   |   |   |   Mean_Mem20_MFCC8_Power_powerFFT_WinHamming_HopSize512_WinSize512_Sum_AudioCh0 > -0.027437
|   |   |   |   |   |   |   |   Mean_Mem20_MFCC9_Power_powerFFT_WinHamming_HopSize512_WinSize512_Sum_AudioCh0 <= 0.003139
|   |   |   |   |   |   |   |   |   Std_Mem20_MFCC6_Power_powerFFT_WinHamming_HopSize512_WinSize512_Sum_AudioCh0 <= 0.1717
|   |   |   |   |   |   |   |   |   |   Mean_Mem20_MFCC5_Power_powerFFT_WinHamming_HopSize512_WinSize512_Sum_AudioCh0 <= 0.032842
|   |   |   |   |   |   |   |   |   |   |   Mean_Mem20_MFCC11_Power_powerFFT_WinHamming_HopSize512_WinSize512_Sum_AudioCh0 <= 0.007297
|   |   |   |   |   |   |   |   |   |   |   |   Mean_Mem20_Rolloff_Power_powerFFT_WinHamming_HopSize512_WinSize512_Sum_AudioCh0 <= 0.903307: m36 (4.0/1.0)
|   |   |   |   |   |   |   |   |   |   |   |   Mean_Mem20_Rolloff_Power_powerFFT_WinHamming_HopSize512_WinSize512_Sum_AudioCh0 > 0.903307: m59 (3.0/1.0)
|   |   |   |   |   |   |   |   |   |   |   Mean_Mem20_MFCC11_Power_powerFFT_WinHamming_HopSize512_WinSize512_Sum_AudioCh0 > 0.007297
|   |   |   |   |   |   |   |   |   |   |   |   Mean_Mem20_MFCC2_Power_powerFFT_WinHamming_HopSize512_WinSize512_Sum_AudioCh0 <= -0.161419: m28 (4.0)
|   |   |   |   |   |   |   |   |   |   |   |   Mean_Mem20_MFCC2_Power_powerFFT_WinHamming_HopSize512_WinSize512_Sum_AudioCh0 > -0.161419
|   |   |   |   |   |   |   |   |   |   |   |   |   Mean_Mem20_Flux_Power_powerFFT_WinHamming_HopSize512_WinSize512_Sum_AudioCh0 <= 0.048183: m57 (3.0/1.0)
|   |   |   |   |   |   |   |   |   |   |   |   |   Mean_Mem20_Flux_Power_powerFFT_WinHamming_HopSize512_WinSize512_Sum_AudioCh0 > 0.048183: m56 (9.0/1.0)
|   |   |   |   |   |   |   |   |   |   Mean_Mem20_MFCC5_Power_powerFFT_WinHamming_HopSize512_WinSize512_Sum_AudioCh0 > 0.032842
|   |   |   |   |   |   |   |   |   |   |   Mean_Mem20_MFCC9_Power_powerFFT_WinHamming_HopSize512_WinSize512_Sum_AudioCh0 <= -0.028187
|   |   |   |   |   |   |   |   |   |   |   |   Std_Mem20_MFCC7_Power_powerFFT_WinHamming_HopSize512_WinSize512_Sum_AudioCh0 <= 0.239377
|   |   |   |   |   |   |   |   |   |   |   |   |   Mean_Mem20_MFCC10_Power_powerFFT_WinHamming_HopSize512_WinSize512_Sum_AudioCh0 <= 0.018686
|   |   |   |   |   |   |   |   |   |   |   |   |   |   Mean_Mem20_MFCC2_Power_powerFFT_WinHamming_HopSize512_WinSize512_Sum_AudioCh0 <= -0.143723: m58 (11.0/1.0)
|   |   |   |   |   |   |   |   |   |   |   |   |   |   Mean_Mem20_MFCC2_Power_powerFFT_WinHamming_HopSize512_WinSize512_Sum_AudioCh0 > -0.143723: m59 (3.0/1.0)
|   |   |   |   |   |   |   |   |   |   |   |   |   Mean_Mem20_MFCC10_Power_powerFFT_WinHamming_HopSize512_WinSize512_Sum_AudioCh0 > 0.018686
|   |   |   |   |   |   |   |   |   |   |   |   |   |   Mean_Mem20_MFCC8_Power_powerFFT_WinHamming_HopSize512_WinSize512_Sum_AudioCh0 <= 0.020809: m59 (6.0)
|   |   |   |   |   |   |   |   |   |   |   |   |   |   Mean_Mem20_MFCC8_Power_powerFFT_WinHamming_HopSize512_WinSize512_Sum_AudioCh0 > 0.020809: m60 (3.0)
|   |   |   |   |   |   |   |   |   |   |   |   Std_Mem20_MFCC7_Power_powerFFT_WinHamming_HopSize512_WinSize512_Sum_AudioCh0 > 0.239377: m47 (4.0)
|   |   |   |   |   |   |   |   |   |   |   Mean_Mem20_MFCC9_Power_powerFFT_WinHamming_HopSize512_WinSize512_Sum_AudioCh0 > -0.028187
|   |   |   |   |   |   |   |   |   |   |   |   Mean_Mem20_MFCC6_Power_powerFFT_WinHamming_HopSize512_WinSize512_Sum_AudioCh0 <= 0.02691
|   |   |   |   |   |   |   |   |   |   |   |   |   Mean_Mem20_MFCC10_Power_powerFFT_WinHamming_HopSize512_WinSize512_Sum_AudioCh0 <= -0.03045: m58 (3.0)
|   |   |   |   |   |   |   |   |   |   |   |   |   Mean_Mem20_MFCC10_Power_powerFFT_WinHamming_HopSize512_WinSize512_Sum_AudioCh0 > -0.03045
|   |   |   |   |   |   |   |   |   |   |   |   |   |   Mean_Mem20_MFCC1_Power_powerFFT_WinHamming_HopSize512_WinSize512_Sum_AudioCh0 <= 0.99804: m50 (5.0/1.0)
|   |   |   |   |   |   |   |   |   |   |   |   |   |   Mean_Mem20_MFCC1_Power_powerFFT_WinHamming_HopSize512_WinSize512_Sum_AudioCh0 > 0.99804
|   |   |   |   |   |   |   |   |   |   |   |   |   |   |   Mean_Mem20_Rolloff_Power_powerFFT_WinHamming_HopSize512_WinSize512_Sum_AudioCh0 <= 0.828405: m26 (2.0)
|   |   |   |   |   |   |   |   |   |   |   |   |   |   |   Mean_Mem20_Rolloff_Power_powerFFT_WinHamming_HopSize512_WinSize512_Sum_AudioCh0 > 0.828405: m33 (3.0)
|   |   |   |   |   |   |   |   |   |   |   |   Mean_Mem20_MFCC6_Power_powerFFT_WinHamming_HopSize512_WinSize512_Sum_AudioCh0 > 0.02691
|   |   |   |   |   |   |   |   |   |   |   |   |   Mean_Mem20_MFCC5_Power_powerFFT_WinHamming_HopSize512_WinSize512_Sum_AudioCh0 <= 0.117626: m48 (6.0/1.0)
|   |   |   |   |   |   |   |   |   |   |   |   |   Mean_Mem20_MFCC5_Power_powerFFT_WinHamming_HopSize512_WinSize512_Sum_AudioCh0 > 0.117626
|   |   |   |   |   |   |   |   |   |   |   |   |   |   Mean_Mem20_MFCC1_Power_powerFFT_WinHamming_HopSize512_WinSize512_Sum_AudioCh0 <= 0.730313: m49 (2.0/1.0)
|   |   |   |   |   |   |   |   |   |   |   |   |   |   Mean_Mem20_MFCC1_Power_powerFFT_WinHamming_HopSize512_WinSize512_Sum_AudioCh0 > 0.730313: m54 (2.0)
|   |   |   |   |   |   |   |   |   Std_Mem20_MFCC6_Power_powerFFT_WinHamming_HopSize512_WinSize512_Sum_AudioCh0 > 0.1717
|   |   |   |   |   |   |   |   |   |   Std_Mem20_MFCC9_Power_powerFFT_WinHamming_HopSize512_WinSize512_Sum_AudioCh0 <= 0.315543
|   |   |   |   |   |   |   |   |   |   |   Std_Mem20_MFCC11_Power_powerFFT_WinHamming_HopSize512_WinSize512_Sum_AudioCh0 <= 0.203532
|   |   |   |   |   |   |   |   |   |   |   |   Mean_Mem20_MFCC3_Power_powerFFT_WinHamming_HopSize512_WinSize512_Sum_AudioCh0 <= 0.085114
|   |   |   |   |   |   |   |   |   |   |   |   |   Mean_Mem20_MFCC8_Power_powerFFT_WinHamming_HopSize512_WinSize512_Sum_AudioCh0 <= 0.011179
|   |   |   |   |   |   |   |   |   |   |   |   |   |   Mean_Mem20_MFCC11_Power_powerFFT_WinHamming_HopSize512_WinSize512_Sum_AudioCh0 <= 0.000793: m22 (2.0/1.0)
|   |   |   |   |   |   |   |   |   |   |   |   |   |   Mean_Mem20_MFCC11_Power_powerFFT_WinHamming_HopSize512_WinSize512_Sum_AudioCh0 > 0.000793: m24 (5.0)
|   |   |   |   |   |   |   |   |   |   |   |   |   Mean_Mem20_MFCC8_Power_powerFFT_WinHamming_HopSize512_WinSize512_Sum_AudioCh0 > 0.011179
|   |   |   |   |   |   |   |   |   |   |   |   |   |   Mean_Mem20_Flux_Power_powerFFT_WinHamming_HopSize512_WinSize512_Sum_AudioCh0 <= 0.057923
|   |   |   |   |   |   |   |   |   |   |   |   |   |   |   Mean_Mem20_Flux_Power_powerFFT_WinHamming_HopSize512_WinSize512_Sum_AudioCh0 <= 0.05069: m25 (2.0)
|   |   |   |   |   |   |   |   |   |   |   |   |   |   |   Mean_Mem20_Flux_Power_powerFFT_WinHamming_HopSize512_WinSize512_Sum_AudioCh0 > 0.05069: m32 (2.0/1.0)
|   |   |   |   |   |   |   |   |   |   |   |   |   |   Mean_Mem20_Flux_Power_powerFFT_WinHamming_HopSize512_WinSize512_Sum_AudioCh0 > 0.057923: m26 (5.0/1.0)
|   |   |   |   |   |   |   |   |   |   |   |   Mean_Mem20_MFCC3_Power_powerFFT_WinHamming_HopSize512_WinSize512_Sum_AudioCh0 > 0.085114
|   |   |   |   |   |   |   |   |   |   |   |   |   Mean_Mem20_MFCC12_Power_powerFFT_WinHamming_HopSize512_WinSize512_Sum_AudioCh0 <= -0.013815
|   |   |   |   |   |   |   |   |   |   |   |   |   |   Mean_Mem20_MFCC10_Power_powerFFT_WinHamming_HopSize512_WinSize512_Sum_AudioCh0 <= -0.00778
|   |   |   |   |   |   |   |   |   |   |   |   |   |   |   Mean_Mem20_MFCC11_Power_powerFFT_WinHamming_HopSize512_WinSize512_Sum_AudioCh0 <= -0.072236: m48 (4.0)
|   |   |   |   |   |   |   |   |   |   |   |   |   |   |   Mean_Mem20_MFCC11_Power_powerFFT_WinHamming_HopSize512_WinSize512_Sum_AudioCh0 > -0.072236
|   |   |   |   |   |   |   |   |   |   |   |   |   |   |   |   Mean_Mem20_MFCC12_Power_powerFFT_WinHamming_HopSize512_WinSize512_Sum_AudioCh0 <= -0.021837
|   |   |   |   |   |   |   |   |   |   |   |   |   |   |   |   |   Mean_Mem20_PeakRatio_Minimum_Chroma_A_Power_powerFFT_WinHamming_HopSize512_WinSize512_Sum_AudioCh0 <= 0.210358: m38 (3.0/1.0)
|   |   |   |   |   |   |   |   |   |   |   |   |   |   |   |   |   Mean_Mem20_PeakRatio_Minimum_Chroma_A_Power_powerFFT_WinHamming_HopSize512_WinSize512_Sum_AudioCh0 > 0.210358: m57 (20.0)
|   |   |   |   |   |   |   |   |   |   |   |   |   |   |   |   Mean_Mem20_MFCC12_Power_powerFFT_WinHamming_HopSize512_WinSize512_Sum_AudioCh0 > -0.021837: m48 (3.0)
|   |   |   |   |   |   |   |   |   |   |   |   |   |   Mean_Mem20_MFCC10_Power_powerFFT_WinHamming_HopSize512_WinSize512_Sum_AudioCh0 > -0.00778
|   |   |   |   |   |   |   |   |   |   |   |   |   |   |   Mean_Mem20_MFCC2_Power_powerFFT_WinHamming_HopSize512_WinSize512_Sum_AudioCh0 <= -0.444436: m39 (2.0)
|   |   |   |   |   |   |   |   |   |   |   |   |   |   |   Mean_Mem20_MFCC2_Power_powerFFT_WinHamming_HopSize512_WinSize512_Sum_AudioCh0 > -0.444436: m48 (9.0)
|   |   |   |   |   |   |   |   |   |   |   |   |   Mean_Mem20_MFCC12_Power_powerFFT_WinHamming_HopSize512_WinSize512_Sum_AudioCh0 > -0.013815
|   |   |   |   |   |   |   |   |   |   |   |   |   |   Mean_Mem20_MFCC6_Power_powerFFT_WinHamming_HopSize512_WinSize512_Sum_AudioCh0 <= -0.081663
|   |   |   |   |   |   |   |   |   |   |   |   |   |   |   Mean_Mem20_MFCC2_Power_powerFFT_WinHamming_HopSize512_WinSize512_Sum_AudioCh0 <= -0.221297
|   |   |   |   |   |   |   |   |   |   |   |   |   |   |   |   Mean_Mem20_Flux_Power_powerFFT_WinHamming_HopSize512_WinSize512_Sum_AudioCh0 <= 0.059876: m48 (3.0)
|   |   |   |   |   |   |   |   |   |   |   |   |   |   |   |   Mean_Mem20_Flux_Power_powerFFT_WinHamming_HopSize512_WinSize512_Sum_AudioCh0 > 0.059876: m36 (2.0)
|   |   |   |   |   |   |   |   |   |   |   |   |   |   |   Mean_Mem20_MFCC2_Power_powerFFT_WinHamming_HopSize512_WinSize512_Sum_AudioCh0 > -0.221297: m63 (4.0)
|   |   |   |   |   |   |   |   |   |   |   |   |   |   Mean_Mem20_MFCC6_Power_powerFFT_WinHamming_HopSize512_WinSize512_Sum_AudioCh0 > -0.081663
|   |   |   |   |   |   |   |   |   |   |   |   |   |   |   Mean_Mem20_MFCC10_Power_powerFFT_WinHamming_HopSize512_WinSize512_Sum_AudioCh0 <= -0.03355
|   |   |   |   |   |   |   |   |   |   |   |   |   |   |   |   Mean_Mem20_MFCC5_Power_powerFFT_WinHamming_HopSize512_WinSize512_Sum_AudioCh0 <= -0.025879
|   |   |   |   |   |   |   |   |   |   |   |   |   |   |   |   |   Mean_Mem20_Flux_Power_powerFFT_WinHamming_HopSize512_WinSize512_Sum_AudioCh0 <= 0.064217: m21 (2.0)
|   |   |   |   |   |   |   |   |   |   |   |   |   |   |   |   |   Mean_Mem20_Flux_Power_powerFFT_WinHamming_HopSize512_WinSize512_Sum_AudioCh0 > 0.064217: m28 (2.0)
|   |   |   |   |   |   |   |   |   |   |   |   |   |   |   |   Mean_Mem20_MFCC5_Power_powerFFT_WinHamming_HopSize512_WinSize512_Sum_AudioCh0 > -0.025879
|   |   |   |   |   |   |   |   |   |   |   |   |   |   |   |   |   Mean_Mem20_Flux_Power_powerFFT_WinHamming_HopSize512_WinSize512_Sum_AudioCh0 <= 0.056561: m62 (2.0)
|   |   |   |   |   |   |   |   |   |   |   |   |   |   |   |   |   Mean_Mem20_Flux_Power_powerFFT_WinHamming_HopSize512_WinSize512_Sum_AudioCh0 > 0.056561: m58 (3.0/1.0)
|   |   |   |   |   |   |   |   |   |   |   |   |   |   |   Mean_Mem20_MFCC10_Power_powerFFT_WinHamming_HopSize512_WinSize512_Sum_AudioCh0 > -0.03355
|   |   |   |   |   |   |   |   |   |   |   |   |   |   |   |   Mean_Mem20_MFCC5_Power_powerFFT_WinHamming_HopSize512_WinSize512_Sum_AudioCh0 <= 0.051373: m39 (3.0/1.0)
|   |   |   |   |   |   |   |   |   |   |   |   |   |   |   |   Mean_Mem20_MFCC5_Power_powerFFT_WinHamming_HopSize512_WinSize512_Sum_AudioCh0 > 0.051373: m49 (4.0/1.0)
|   |   |   |   |   |   |   |   |   |   |   Std_Mem20_MFCC11_Power_powerFFT_WinHamming_HopSize512_WinSize512_Sum_AudioCh0 > 0.203532
|   |   |   |   |   |   |   |   |   |   |   |   Std_Mem20_MFCC12_Power_powerFFT_WinHamming_HopSize512_WinSize512_Sum_AudioCh0 <= 0.103036
|   |   |   |   |   |   |   |   |   |   |   |   |   Mean_Mem20_MFCC6_Power_powerFFT_WinHamming_HopSize512_WinSize512_Sum_AudioCh0 <= 0.055776
|   |   |   |   |   |   |   |   |   |   |   |   |   |   Mean_Mem20_MFCC4_Power_powerFFT_WinHamming_HopSize512_WinSize512_Sum_AudioCh0 <= -0.031899: m26 (3.0/1.0)
|   |   |   |   |   |   |   |   |   |   |   |   |   |   Mean_Mem20_MFCC4_Power_powerFFT_WinHamming_HopSize512_WinSize512_Sum_AudioCh0 > -0.031899: m59 (3.0)
|   |   |   |   |   |   |   |   |   |   |   |   |   Mean_Mem20_MFCC6_Power_powerFFT_WinHamming_HopSize512_WinSize512_Sum_AudioCh0 > 0.055776
|   |   |   |   |   |   |   |   |   |   |   |   |   |   Mean_Mem20_MFCC3_Power_powerFFT_WinHamming_HopSize512_WinSize512_Sum_AudioCh0 <= 0.247059: m24 (2.0/1.0)
|   |   |   |   |   |   |   |   |   |   |   |   |   |   Mean_Mem20_MFCC3_Power_powerFFT_WinHamming_HopSize512_WinSize512_Sum_AudioCh0 > 0.247059: m51 (3.0)
|   |   |   |   |   |   |   |   |   |   |   |   Std_Mem20_MFCC12_Power_powerFFT_WinHamming_HopSize512_WinSize512_Sum_AudioCh0 > 0.103036
|   |   |   |   |   |   |   |   |   |   |   |   |   Mean_Mem20_MFCC4_Power_powerFFT_WinHamming_HopSize512_WinSize512_Sum_AudioCh0 <= -0.051063
|   |   |   |   |   |   |   |   |   |   |   |   |   |   Mean_Mem20_MFCC5_Power_powerFFT_WinHamming_HopSize512_WinSize512_Sum_AudioCh0 <= 0.130717
|   |   |   |   |   |   |   |   |   |   |   |   |   |   |   Std_Mem20_ZeroCrossings_HopSize512_WinSize512_Sum_AudioCh0 <= 0.011676: m26 (2.0/1.0)
|   |   |   |   |   |   |   |   |   |   |   |   |   |   |   Std_Mem20_ZeroCrossings_HopSize512_WinSize512_Sum_AudioCh0 > 0.011676: m49 (10.0)
|   |   |   |   |   |   |   |   |   |   |   |   |   |   Mean_Mem20_MFCC5_Power_powerFFT_WinHamming_HopSize512_WinSize512_Sum_AudioCh0 > 0.130717
|   |   |   |   |   |   |   |   |   |   |   |   |   |   |   Mean_Mem20_MFCC3_Power_powerFFT_WinHamming_HopSize512_WinSize512_Sum_AudioCh0 <= 0.587055: m26 (10.0)
|   |   |   |   |   |   |   |   |   |   |   |   |   |   |   Mean_Mem20_MFCC3_Power_powerFFT_WinHamming_HopSize512_WinSize512_Sum_AudioCh0 > 0.587055: m51 (2.0)
|   |   |   |   |   |   |   |   |   |   |   |   |   Mean_Mem20_MFCC4_Power_powerFFT_WinHamming_HopSize512_WinSize512_Sum_AudioCh0 > -0.051063
|   |   |   |   |   |   |   |   |   |   |   |   |   |   Mean_Mem20_MFCC5_Power_powerFFT_WinHamming_HopSize512_WinSize512_Sum_AudioCh0 <= 0.065346: m49 (8.0)
|   |   |   |   |   |   |   |   |   |   |   |   |   |   Mean_Mem20_MFCC5_Power_powerFFT_WinHamming_HopSize512_WinSize512_Sum_AudioCh0 > 0.065346
|   |   |   |   |   |   |   |   |   |   |   |   |   |   |   Mean_Mem20_MFCC6_Power_powerFFT_WinHamming_HopSize512_WinSize512_Sum_AudioCh0 <= -0.157782: m48 (6.0/1.0)
|   |   |   |   |   |   |   |   |   |   |   |   |   |   |   Mean_Mem20_MFCC6_Power_powerFFT_WinHamming_HopSize512_WinSize512_Sum_AudioCh0 > -0.157782
|   |   |   |   |   |   |   |   |   |   |   |   |   |   |   |   Mean_Mem20_MFCC12_Power_powerFFT_WinHamming_HopSize512_WinSize512_Sum_AudioCh0 <= 0.070516: m47 (11.0)
|   |   |   |   |   |   |   |   |   |   |   |   |   |   |   |   Mean_Mem20_MFCC12_Power_powerFFT_WinHamming_HopSize512_WinSize512_Sum_AudioCh0 > 0.070516: m38 (3.0)
|   |   |   |   |   |   |   |   |   |   Std_Mem20_MFCC9_Power_powerFFT_WinHamming_HopSize512_WinSize512_Sum_AudioCh0 > 0.315543
|   |   |   |   |   |   |   |   |   |   |   Mean_Mem20_MFCC12_Power_powerFFT_WinHamming_HopSize512_WinSize512_Sum_AudioCh0 <= 0.062773
|   |   |   |   |   |   |   |   |   |   |   |   Mean_Mem20_MFCC3_Power_powerFFT_WinHamming_HopSize512_WinSize512_Sum_AudioCh0 <= 0.259277
|   |   |   |   |   |   |   |   |   |   |   |   |   Mean_Mem20_MFCC2_Power_powerFFT_WinHamming_HopSize512_WinSize512_Sum_AudioCh0 <= -0.181829: m26 (2.0/1.0)
|   |   |   |   |   |   |   |   |   |   |   |   |   Mean_Mem20_MFCC2_Power_powerFFT_WinHamming_HopSize512_WinSize512_Sum_AudioCh0 > -0.181829: m58 (3.0)
|   |   |   |   |   |   |   |   |   |   |   |   Mean_Mem20_MFCC3_Power_powerFFT_WinHamming_HopSize512_WinSize512_Sum_AudioCh0 > 0.259277: m47 (7.0)
|   |   |   |   |   |   |   |   |   |   |   Mean_Mem20_MFCC12_Power_powerFFT_WinHamming_HopSize512_WinSize512_Sum_AudioCh0 > 0.062773: m46 (11.0/1.0)
|   |   |   |   |   |   |   |   Mean_Mem20_MFCC9_Power_powerFFT_WinHamming_HopSize512_WinSize512_Sum_AudioCh0 > 0.003139
|   |   |   |   |   |   |   |   |   Mean_Mem20_MFCC10_Power_powerFFT_WinHamming_HopSize512_WinSize512_Sum_AudioCh0 <= -0.009727
|   |   |   |   |   |   |   |   |   |   Mean_Mem20_MFCC12_Power_powerFFT_WinHamming_HopSize512_WinSize512_Sum_AudioCh0 <= 0.030407
|   |   |   |   |   |   |   |   |   |   |   Mean_Mem20_MFCC5_Power_powerFFT_WinHamming_HopSize512_WinSize512_Sum_AudioCh0 <= 0.271803
|   |   |   |   |   |   |   |   |   |   |   |   Mean_Mem20_MFCC8_Power_powerFFT_WinHamming_HopSize512_WinSize512_Sum_AudioCh0 <= 0.049521
|   |   |   |   |   |   |   |   |   |   |   |   |   Mean_Mem20_MFCC5_Power_powerFFT_WinHamming_HopSize512_WinSize512_Sum_AudioCh0 <= 0.010834
|   |   |   |   |   |   |   |   |   |   |   |   |   |   Mean_Mem20_MFCC2_Power_powerFFT_WinHamming_HopSize512_WinSize512_Sum_AudioCh0 <= -0.135985: m35 (2.0)
|   |   |   |   |   |   |   |   |   |   |   |   |   |   Mean_Mem20_MFCC2_Power_powerFFT_WinHamming_HopSize512_WinSize512_Sum_AudioCh0 > -0.135985
|   |   |   |   |   |   |   |   |   |   |   |   |   |   |   Std_Mem20_MFCC10_Power_powerFFT_WinHamming_HopSize512_WinSize512_Sum_AudioCh0 <= 0.191862
|   |   |   |   |   |   |   |   |   |   |   |   |   |   |   |   Mean_Mem20_Rolloff_Power_powerFFT_WinHamming_HopSize512_WinSize512_Sum_AudioCh0 <= 0.924514: m54 (3.0)
|   |   |   |   |   |   |   |   |   |   |   |   |   |   |   |   Mean_Mem20_Rolloff_Power_powerFFT_WinHamming_HopSize512_WinSize512_Sum_AudioCh0 > 0.924514: m56 (2.0/1.0)
|   |   |   |   |   |   |   |   |   |   |   |   |   |   |   Std_Mem20_MFCC10_Power_powerFFT_WinHamming_HopSize512_WinSize512_Sum_AudioCh0 > 0.191862: m55 (5.0/1.0)
|   |   |   |   |   |   |   |   |   |   |   |   |   Mean_Mem20_MFCC5_Power_powerFFT_WinHamming_HopSize512_WinSize512_Sum_AudioCh0 > 0.010834
|   |   |   |   |   |   |   |   |   |   |   |   |   |   Mean_Mem20_MFCC10_Power_powerFFT_WinHamming_HopSize512_WinSize512_Sum_AudioCh0 <= -0.051311
|   |   |   |   |   |   |   |   |   |   |   |   |   |   |   Mean_Mem20_Rolloff_Power_powerFFT_WinHamming_HopSize512_WinSize512_Sum_AudioCh0 <= 0.879183: m39 (3.0)
|   |   |   |   |   |   |   |   |   |   |   |   |   |   |   Mean_Mem20_Rolloff_Power_powerFFT_WinHamming_HopSize512_WinSize512_Sum_AudioCh0 > 0.879183
|   |   |   |   |   |   |   |   |   |   |   |   |   |   |   |   Mean_Mem20_MFCC4_Power_powerFFT_WinHamming_HopSize512_WinSize512_Sum_AudioCh0 <= 0.054381: m23 (2.0/1.0)
|   |   |   |   |   |   |   |   |   |   |   |   |   |   |   |   Mean_Mem20_MFCC4_Power_powerFFT_WinHamming_HopSize512_WinSize512_Sum_AudioCh0 > 0.054381: m65 (2.0)
|   |   |   |   |   |   |   |   |   |   |   |   |   |   Mean_Mem20_MFCC10_Power_powerFFT_WinHamming_HopSize512_WinSize512_Sum_AudioCh0 > -0.051311
|   |   |   |   |   |   |   |   |   |   |   |   |   |   |   Mean_Mem20_MFCC9_Power_powerFFT_WinHamming_HopSize512_WinSize512_Sum_AudioCh0 <= 0.037312: m51 (2.0/1.0)
|   |   |   |   |   |   |   |   |   |   |   |   |   |   |   Mean_Mem20_MFCC9_Power_powerFFT_WinHamming_HopSize512_WinSize512_Sum_AudioCh0 > 0.037312: m49 (4.0)
|   |   |   |   |   |   |   |   |   |   |   |   Mean_Mem20_MFCC8_Power_powerFFT_WinHamming_HopSize512_WinSize512_Sum_AudioCh0 > 0.049521
|   |   |   |   |   |   |   |   |   |   |   |   |   Mean_Mem20_MFCC2_Power_powerFFT_WinHamming_HopSize512_WinSize512_Sum_AudioCh0 <= -0.055164
|   |   |   |   |   |   |   |   |   |   |   |   |   |   Mean_Mem20_MFCC11_Power_powerFFT_WinHamming_HopSize512_WinSize512_Sum_AudioCh0 <= -0.032685
|   |   |   |   |   |   |   |   |   |   |   |   |   |   |   Mean_Mem20_PeakRatio_Chroma_G#_Power_powerFFT_WinHamming_HopSize512_WinSize512_Sum_AudioCh0 <= 0.000069
|   |   |   |   |   |   |   |   |   |   |   |   |   |   |   |   Std_Mem20_MFCC10_Power_powerFFT_WinHamming_HopSize512_WinSize512_Sum_AudioCh0 <= 0.171414
|   |   |   |   |   |   |   |   |   |   |   |   |   |   |   |   |   Mean_Mem20_MFCC2_Power_powerFFT_WinHamming_HopSize512_WinSize512_Sum_AudioCh0 <= -0.331969: m34 (2.0)
|   |   |   |   |   |   |   |   |   |   |   |   |   |   |   |   |   Mean_Mem20_MFCC2_Power_powerFFT_WinHamming_HopSize512_WinSize512_Sum_AudioCh0 > -0.331969: m24 (3.0)
|   |   |   |   |   |   |   |   |   |   |   |   |   |   |   |   Std_Mem20_MFCC10_Power_powerFFT_WinHamming_HopSize512_WinSize512_Sum_AudioCh0 > 0.171414: m35 (11.0/1.0)
|   |   |   |   |   |   |   |   |   |   |   |   |   |   |   Mean_Mem20_PeakRatio_Chroma_G#_Power_powerFFT_WinHamming_HopSize512_WinSize512_Sum_AudioCh0 > 0.000069: m48 (2.0)
|   |   |   |   |   |   |   |   |   |   |   |   |   |   Mean_Mem20_MFCC11_Power_powerFFT_WinHamming_HopSize512_WinSize512_Sum_AudioCh0 > -0.032685
|   |   |   |   |   |   |   |   |   |   |   |   |   |   |   Std_Mem20_MFCC9_Power_powerFFT_WinHamming_HopSize512_WinSize512_Sum_AudioCh0 <= 0.130199
|   |   |   |   |   |   |   |   |   |   |   |   |   |   |   |   Mean_Mem20_Flux_Power_powerFFT_WinHamming_HopSize512_WinSize512_Sum_AudioCh0 <= 0.065627: m36 (3.0/1.0)
|   |   |   |   |   |   |   |   |   |   |   |   |   |   |   |   Mean_Mem20_Flux_Power_powerFFT_WinHamming_HopSize512_WinSize512_Sum_AudioCh0 > 0.065627: m45 (2.0)
|   |   |   |   |   |   |   |   |   |   |   |   |   |   |   Std_Mem20_MFCC9_Power_powerFFT_WinHamming_HopSize512_WinSize512_Sum_AudioCh0 > 0.130199
|   |   |   |   |   |   |   |   |   |   |   |   |   |   |   |   Mean_Mem20_Rolloff_Power_powerFFT_WinHamming_HopSize512_WinSize512_Sum_AudioCh0 <= 0.854669: m48 (9.0/1.0)
|   |   |   |   |   |   |   |   |   |   |   |   |   |   |   |   Mean_Mem20_Rolloff_Power_powerFFT_WinHamming_HopSize512_WinSize512_Sum_AudioCh0 > 0.854669: m26 (5.0/1.0)
|   |   |   |   |   |   |   |   |   |   |   |   |   Mean_Mem20_MFCC2_Power_powerFFT_WinHamming_HopSize512_WinSize512_Sum_AudioCh0 > -0.055164
|   |   |   |   |   |   |   |   |   |   |   |   |   |   Mean_Mem20_MFCC1_Power_powerFFT_WinHamming_HopSize512_WinSize512_Sum_AudioCh0 <= 1.648489: m55 (3.0/1.0)
|   |   |   |   |   |   |   |   |   |   |   |   |   |   Mean_Mem20_MFCC1_Power_powerFFT_WinHamming_HopSize512_WinSize512_Sum_AudioCh0 > 1.648489: m21 (4.0/1.0)
|   |   |   |   |   |   |   |   |   |   |   Mean_Mem20_MFCC5_Power_powerFFT_WinHamming_HopSize512_WinSize512_Sum_AudioCh0 > 0.271803
|   |   |   |   |   |   |   |   |   |   |   |   Mean_Mem20_MFCC9_Power_powerFFT_WinHamming_HopSize512_WinSize512_Sum_AudioCh0 <= 0.157018
|   |   |   |   |   |   |   |   |   |   |   |   |   Mean_Mem20_PeakRatio_Chroma_G#_Power_powerFFT_WinHamming_HopSize512_WinSize512_Sum_AudioCh0 <= 0.000007: m57 (3.0)
|   |   |   |   |   |   |   |   |   |   |   |   |   Mean_Mem20_PeakRatio_Chroma_G#_Power_powerFFT_WinHamming_HopSize512_WinSize512_Sum_AudioCh0 > 0.000007
|   |   |   |   |   |   |   |   |   |   |   |   |   |   Mean_Mem20_Rolloff_Power_powerFFT_WinHamming_HopSize512_WinSize512_Sum_AudioCh0 <= 0.740856: m23 (4.0)
|   |   |   |   |   |   |   |   |   |   |   |   |   |   Mean_Mem20_Rolloff_Power_powerFFT_WinHamming_HopSize512_WinSize512_Sum_AudioCh0 > 0.740856: m26 (2.0)
|   |   |   |   |   |   |   |   |   |   |   |   Mean_Mem20_MFCC9_Power_powerFFT_WinHamming_HopSize512_WinSize512_Sum_AudioCh0 > 0.157018
|   |   |   |   |   |   |   |   |   |   |   |   |   Mean_Mem20_MFCC6_Power_powerFFT_WinHamming_HopSize512_WinSize512_Sum_AudioCh0 <= 0.211913: m41 (7.0)
|   |   |   |   |   |   |   |   |   |   |   |   |   Mean_Mem20_MFCC6_Power_powerFFT_WinHamming_HopSize512_WinSize512_Sum_AudioCh0 > 0.211913: m42 (2.0)
|   |   |   |   |   |   |   |   |   |   Mean_Mem20_MFCC12_Power_powerFFT_WinHamming_HopSize512_WinSize512_Sum_AudioCh0 > 0.030407
|   |   |   |   |   |   |   |   |   |   |   Std_Mem20_MFCC12_Power_powerFFT_WinHamming_HopSize512_WinSize512_Sum_AudioCh0 <= 0.114111
|   |   |   |   |   |   |   |   |   |   |   |   Std_Mem20_MFCC7_Power_powerFFT_WinHamming_HopSize512_WinSize512_Sum_AudioCh0 <= 0.182435: m63 (2.0)
|   |   |   |   |   |   |   |   |   |   |   |   Std_Mem20_MFCC7_Power_powerFFT_WinHamming_HopSize512_WinSize512_Sum_AudioCh0 > 0.182435: m54 (6.0)
|   |   |   |   |   |   |   |   |   |   |   Std_Mem20_MFCC12_Power_powerFFT_WinHamming_HopSize512_WinSize512_Sum_AudioCh0 > 0.114111
|   |   |   |   |   |   |   |   |   |   |   |   Mean_Mem20_MFCC7_Power_powerFFT_WinHamming_HopSize512_WinSize512_Sum_AudioCh0 <= 0.022314
|   |   |   |   |   |   |   |   |   |   |   |   |   Mean_Mem20_MFCC6_Power_powerFFT_WinHamming_HopSize512_WinSize512_Sum_AudioCh0 <= -0.009687
|   |   |   |   |   |   |   |   |   |   |   |   |   |   Mean_Mem20_MFCC2_Power_powerFFT_WinHamming_HopSize512_WinSize512_Sum_AudioCh0 <= -0.035188
|   |   |   |   |   |   |   |   |   |   |   |   |   |   |   Std_Mem20_MFCC8_Power_powerFFT_WinHamming_HopSize512_WinSize512_Sum_AudioCh0 <= 0.201297: m44 (10.0)
|   |   |   |   |   |   |   |   |   |   |   |   |   |   |   Std_Mem20_MFCC8_Power_powerFFT_WinHamming_HopSize512_WinSize512_Sum_AudioCh0 > 0.201297
|   |   |   |   |   |   |   |   |   |   |   |   |   |   |   |   Mean_Mem20_PeakRatio_Chroma_G#_Power_powerFFT_WinHamming_HopSize512_WinSize512_Sum_AudioCh0 <= 0.000038
|   |   |   |   |   |   |   |   |   |   |   |   |   |   |   |   |   Std_Mem20_MFCC6_Power_powerFFT_WinHamming_HopSize512_WinSize512_Sum_AudioCh0 <= 0.183212: m45 (16.0/1.0)
|   |   |   |   |   |   |   |   |   |   |   |   |   |   |   |   |   Std_Mem20_MFCC6_Power_powerFFT_WinHamming_HopSize512_WinSize512_Sum_AudioCh0 > 0.183212
|   |   |   |   |   |   |   |   |   |   |   |   |   |   |   |   |   |   Mean_Mem20_MFCC4_Power_powerFFT_WinHamming_HopSize512_WinSize512_Sum_AudioCh0 <= 0.10896: m38 (2.0/1.0)
|   |   |   |   |   |   |   |   |   |   |   |   |   |   |   |   |   |   Mean_Mem20_MFCC4_Power_powerFFT_WinHamming_HopSize512_WinSize512_Sum_AudioCh0 > 0.10896: m44 (4.0)
|   |   |   |   |   |   |   |   |   |   |   |   |   |   |   |   Mean_Mem20_PeakRatio_Chroma_G#_Power_powerFFT_WinHamming_HopSize512_WinSize512_Sum_AudioCh0 > 0.000038: m44 (3.0)
|   |   |   |   |   |   |   |   |   |   |   |   |   |   Mean_Mem20_MFCC2_Power_powerFFT_WinHamming_HopSize512_WinSize512_Sum_AudioCh0 > -0.035188: m38 (3.0/1.0)
|   |   |   |   |   |   |   |   |   |   |   |   |   Mean_Mem20_MFCC6_Power_powerFFT_WinHamming_HopSize512_WinSize512_Sum_AudioCh0 > -0.009687
|   |   |   |   |   |   |   |   |   |   |   |   |   |   Mean_Mem20_MFCC10_Power_powerFFT_WinHamming_HopSize512_WinSize512_Sum_AudioCh0 <= -0.047293
|   |   |   |   |   |   |   |   |   |   |   |   |   |   |   Std_Mem20_MFCC10_Power_powerFFT_WinHamming_HopSize512_WinSize512_Sum_AudioCh0 <= 0.300711
|   |   |   |   |   |   |   |   |   |   |   |   |   |   |   |   Mean_Mem20_MFCC8_Power_powerFFT_WinHamming_HopSize512_WinSize512_Sum_AudioCh0 <= 0.120711: m42 (4.0/1.0)
|   |   |   |   |   |   |   |   |   |   |   |   |   |   |   |   Mean_Mem20_MFCC8_Power_powerFFT_WinHamming_HopSize512_WinSize512_Sum_AudioCh0 > 0.120711: m57 (9.0)
|   |   |   |   |   |   |   |   |   |   |   |   |   |   |   Std_Mem20_MFCC10_Power_powerFFT_WinHamming_HopSize512_WinSize512_Sum_AudioCh0 > 0.300711: m55 (8.0/1.0)
|   |   |   |   |   |   |   |   |   |   |   |   |   |   Mean_Mem20_MFCC10_Power_powerFFT_WinHamming_HopSize512_WinSize512_Sum_AudioCh0 > -0.047293: m44 (4.0/1.0)
|   |   |   |   |   |   |   |   |   |   |   |   Mean_Mem20_MFCC7_Power_powerFFT_WinHamming_HopSize512_WinSize512_Sum_AudioCh0 > 0.022314
|   |   |   |   |   |   |   |   |   |   |   |   |   Mean_Mem20_MFCC2_Power_powerFFT_WinHamming_HopSize512_WinSize512_Sum_AudioCh0 <= -0.177673: m37 (5.0)
|   |   |   |   |   |   |   |   |   |   |   |   |   Mean_Mem20_MFCC2_Power_powerFFT_WinHamming_HopSize512_WinSize512_Sum_AudioCh0 > -0.177673
|   |   |   |   |   |   |   |   |   |   |   |   |   |   Mean_Mem20_Rolloff_Power_powerFFT_WinHamming_HopSize512_WinSize512_Sum_AudioCh0 <= 0.837549: m57 (2.0)
|   |   |   |   |   |   |   |   |   |   |   |   |   |   Mean_Mem20_Rolloff_Power_powerFFT_WinHamming_HopSize512_WinSize512_Sum_AudioCh0 > 0.837549: m64 (2.0)
|   |   |   |   |   |   |   |   |   Mean_Mem20_MFCC10_Power_powerFFT_WinHamming_HopSize512_WinSize512_Sum_AudioCh0 > -0.009727
|   |   |   |   |   |   |   |   |   |   Mean_Mem20_MFCC4_Power_powerFFT_WinHamming_HopSize512_WinSize512_Sum_AudioCh0 <= -0.011609
|   |   |   |   |   |   |   |   |   |   |   Mean_Mem20_MFCC11_Power_powerFFT_WinHamming_HopSize512_WinSize512_Sum_AudioCh0 <= 0.007297
|   |   |   |   |   |   |   |   |   |   |   |   Mean_Mem20_MFCC5_Power_powerFFT_WinHamming_HopSize512_WinSize512_Sum_AudioCh0 <= 0.10386
|   |   |   |   |   |   |   |   |   |   |   |   |   Mean_Mem20_MFCC7_Power_powerFFT_WinHamming_HopSize512_WinSize512_Sum_AudioCh0 <= 0.017479: m60 (10.0/1.0)
|   |   |   |   |   |   |   |   |   |   |   |   |   Mean_Mem20_MFCC7_Power_powerFFT_WinHamming_HopSize512_WinSize512_Sum_AudioCh0 > 0.017479
|   |   |   |   |   |   |   |   |   |   |   |   |   |   Mean_Mem20_Flux_Power_powerFFT_WinHamming_HopSize512_WinSize512_Sum_AudioCh0 <= 0.051499
|   |   |   |   |   |   |   |   |   |   |   |   |   |   |   Mean_Mem20_MFCC2_Power_powerFFT_WinHamming_HopSize512_WinSize512_Sum_AudioCh0 <= -0.164361: m108 (2.0/1.0)
|   |   |   |   |   |   |   |   |   |   |   |   |   |   |   Mean_Mem20_MFCC2_Power_powerFFT_WinHamming_HopSize512_WinSize512_Sum_AudioCh0 > -0.164361: m31 (2.0)
|   |   |   |   |   |   |   |   |   |   |   |   |   |   Mean_Mem20_Flux_Power_powerFFT_WinHamming_HopSize512_WinSize512_Sum_AudioCh0 > 0.051499
|   |   |   |   |   |   |   |   |   |   |   |   |   |   |   Mean_Mem20_Rolloff_Power_powerFFT_WinHamming_HopSize512_WinSize512_Sum_AudioCh0 <= 0.812062: m35 (2.0)
|   |   |   |   |   |   |   |   |   |   |   |   |   |   |   Mean_Mem20_Rolloff_Power_powerFFT_WinHamming_HopSize512_WinSize512_Sum_AudioCh0 > 0.812062: m34 (2.0)
|   |   |   |   |   |   |   |   |   |   |   |   Mean_Mem20_MFCC5_Power_powerFFT_WinHamming_HopSize512_WinSize512_Sum_AudioCh0 > 0.10386
|   |   |   |   |   |   |   |   |   |   |   |   |   Mean_Mem20_MFCC3_Power_powerFFT_WinHamming_HopSize512_WinSize512_Sum_AudioCh0 <= 0.246995: m41 (5.0)
|   |   |   |   |   |   |   |   |   |   |   |   |   Mean_Mem20_MFCC3_Power_powerFFT_WinHamming_HopSize512_WinSize512_Sum_AudioCh0 > 0.246995: m50 (7.0)
|   |   |   |   |   |   |   |   |   |   |   Mean_Mem20_MFCC11_Power_powerFFT_WinHamming_HopSize512_WinSize512_Sum_AudioCh0 > 0.007297
|   |   |   |   |   |   |   |   |   |   |   |   Mean_Mem20_MFCC8_Power_powerFFT_WinHamming_HopSize512_WinSize512_Sum_AudioCh0 <= -0.000793
|   |   |   |   |   |   |   |   |   |   |   |   |   Mean_Mem20_MFCC6_Power_powerFFT_WinHamming_HopSize512_WinSize512_Sum_AudioCh0 <= 0.052173
|   |   |   |   |   |   |   |   |   |   |   |   |   |   Mean_Mem20_Flux_Power_powerFFT_WinHamming_HopSize512_WinSize512_Sum_AudioCh0 <= 0.056506: m25 (2.0/1.0)
|   |   |   |   |   |   |   |   |   |   |   |   |   |   Mean_Mem20_Flux_Power_powerFFT_WinHamming_HopSize512_WinSize512_Sum_AudioCh0 > 0.056506: m50 (3.0/1.0)
|   |   |   |   |   |   |   |   |   |   |   |   |   Mean_Mem20_MFCC6_Power_powerFFT_WinHamming_HopSize512_WinSize512_Sum_AudioCh0 > 0.052173
|   |   |   |   |   |   |   |   |   |   |   |   |   |   Mean_Mem20_Rolloff_Power_powerFFT_WinHamming_HopSize512_WinSize512_Sum_AudioCh0 <= 0.855253: m31 (2.0)
|   |   |   |   |   |   |   |   |   |   |   |   |   |   Mean_Mem20_Rolloff_Power_powerFFT_WinHamming_HopSize512_WinSize512_Sum_AudioCh0 > 0.855253: m28 (3.0)
|   |   |   |   |   |   |   |   |   |   |   |   Mean_Mem20_MFCC8_Power_powerFFT_WinHamming_HopSize512_WinSize512_Sum_AudioCh0 > -0.000793
|   |   |   |   |   |   |   |   |   |   |   |   |   Std_Mem20_ZeroCrossings_HopSize512_WinSize512_Sum_AudioCh0 <= 0.015061
|   |   |   |   |   |   |   |   |   |   |   |   |   |   Std_Mem20_MFCC9_Power_powerFFT_WinHamming_HopSize512_WinSize512_Sum_AudioCh0 <= 0.223984
|   |   |   |   |   |   |   |   |   |   |   |   |   |   |   Mean_Mem20_MFCC4_Power_powerFFT_WinHamming_HopSize512_WinSize512_Sum_AudioCh0 <= -0.160783: m51 (7.0)
|   |   |   |   |   |   |   |   |   |   |   |   |   |   |   Mean_Mem20_MFCC4_Power_powerFFT_WinHamming_HopSize512_WinSize512_Sum_AudioCh0 > -0.160783
|   |   |   |   |   |   |   |   |   |   |   |   |   |   |   |   Mean_Mem20_MFCC10_Power_powerFFT_WinHamming_HopSize512_WinSize512_Sum_AudioCh0 <= 0.015801
|   |   |   |   |   |   |   |   |   |   |   |   |   |   |   |   |   Std_Mem20_MFCC7_Power_powerFFT_WinHamming_HopSize512_WinSize512_Sum_AudioCh0 <= 0.242173: m44 (5.0)
|   |   |   |   |   |   |   |   |   |   |   |   |   |   |   |   |   Std_Mem20_MFCC7_Power_powerFFT_WinHamming_HopSize512_WinSize512_Sum_AudioCh0 > 0.242173: m39 (2.0/1.0)
|   |   |   |   |   |   |   |   |   |   |   |   |   |   |   |   Mean_Mem20_MFCC10_Power_powerFFT_WinHamming_HopSize512_WinSize512_Sum_AudioCh0 > 0.015801
|   |   |   |   |   |   |   |   |   |   |   |   |   |   |   |   |   Mean_Mem20_MFCC4_Power_powerFFT_WinHamming_HopSize512_WinSize512_Sum_AudioCh0 <= -0.028745: m39 (4.0)
|   |   |   |   |   |   |   |   |   |   |   |   |   |   |   |   |   Mean_Mem20_MFCC4_Power_powerFFT_WinHamming_HopSize512_WinSize512_Sum_AudioCh0 > -0.028745: m29 (3.0/1.0)
|   |   |   |   |   |   |   |   |   |   |   |   |   |   Std_Mem20_MFCC9_Power_powerFFT_WinHamming_HopSize512_WinSize512_Sum_AudioCh0 > 0.223984: m40 (11.0/1.0)
|   |   |   |   |   |   |   |   |   |   |   |   |   Std_Mem20_ZeroCrossings_HopSize512_WinSize512_Sum_AudioCh0 > 0.015061
|   |   |   |   |   |   |   |   |   |   |   |   |   |   Mean_Mem20_MFCC1_Power_powerFFT_WinHamming_HopSize512_WinSize512_Sum_AudioCh0 <= 1.153771: m49 (6.0/1.0)
|   |   |   |   |   |   |   |   |   |   |   |   |   |   Mean_Mem20_MFCC1_Power_powerFFT_WinHamming_HopSize512_WinSize512_Sum_AudioCh0 > 1.153771: m47 (5.0)
|   |   |   |   |   |   |   |   |   |   Mean_Mem20_MFCC4_Power_powerFFT_WinHamming_HopSize512_WinSize512_Sum_AudioCh0 > -0.011609
|   |   |   |   |   |   |   |   |   |   |   Mean_Mem20_MFCC6_Power_powerFFT_WinHamming_HopSize512_WinSize512_Sum_AudioCh0 <= -0.030688
|   |   |   |   |   |   |   |   |   |   |   |   Mean_Mem20_MFCC7_Power_powerFFT_WinHamming_HopSize512_WinSize512_Sum_AudioCh0 <= -0.015178
|   |   |   |   |   |   |   |   |   |   |   |   |   Mean_Mem20_MFCC3_Power_powerFFT_WinHamming_HopSize512_WinSize512_Sum_AudioCh0 <= 0.13293
|   |   |   |   |   |   |   |   |   |   |   |   |   |   Mean_Mem20_Rolloff_Power_powerFFT_WinHamming_HopSize512_WinSize512_Sum_AudioCh0 <= 0.828794: m31 (2.0)
|   |   |   |   |   |   |   |   |   |   |   |   |   |   Mean_Mem20_Rolloff_Power_powerFFT_WinHamming_HopSize512_WinSize512_Sum_AudioCh0 > 0.828794: m48 (2.0/1.0)
|   |   |   |   |   |   |   |   |   |   |   |   |   Mean_Mem20_MFCC3_Power_powerFFT_WinHamming_HopSize512_WinSize512_Sum_AudioCh0 > 0.13293
|   |   |   |   |   |   |   |   |   |   |   |   |   |   Mean_Mem20_Flux_Power_powerFFT_WinHamming_HopSize512_WinSize512_Sum_AudioCh0 <= 0.058255: m23 (2.0)
|   |   |   |   |   |   |   |   |   |   |   |   |   |   Mean_Mem20_Flux_Power_powerFFT_WinHamming_HopSize512_WinSize512_Sum_AudioCh0 > 0.058255: m46 (7.0)
|   |   |   |   |   |   |   |   |   |   |   |   Mean_Mem20_MFCC7_Power_powerFFT_WinHamming_HopSize512_WinSize512_Sum_AudioCh0 > -0.015178
|   |   |   |   |   |   |   |   |   |   |   |   |   Mean_Mem20_MFCC11_Power_powerFFT_WinHamming_HopSize512_WinSize512_Sum_AudioCh0 <= 0.014459
|   |   |   |   |   |   |   |   |   |   |   |   |   |   Std_Mem20_ZeroCrossings_HopSize512_WinSize512_Sum_AudioCh0 <= 0.013462
|   |   |   |   |   |   |   |   |   |   |   |   |   |   |   Mean_Mem20_MFCC5_Power_powerFFT_WinHamming_HopSize512_WinSize512_Sum_AudioCh0 <= -0.013376: m23 (3.0)
|   |   |   |   |   |   |   |   |   |   |   |   |   |   |   Mean_Mem20_MFCC5_Power_powerFFT_WinHamming_HopSize512_WinSize512_Sum_AudioCh0 > -0.013376
|   |   |   |   |   |   |   |   |   |   |   |   |   |   |   |   Mean_Mem20_MFCC2_Power_powerFFT_WinHamming_HopSize512_WinSize512_Sum_AudioCh0 <= -0.200558: m37 (2.0)
|   |   |   |   |   |   |   |   |   |   |   |   |   |   |   |   Mean_Mem20_MFCC2_Power_powerFFT_WinHamming_HopSize512_WinSize512_Sum_AudioCh0 > -0.200558: m22 (2.0)
|   |   |   |   |   |   |   |   |   |   |   |   |   |   Std_Mem20_ZeroCrossings_HopSize512_WinSize512_Sum_AudioCh0 > 0.013462: m34 (5.0)
|   |   |   |   |   |   |   |   |   |   |   |   |   Mean_Mem20_MFCC11_Power_powerFFT_WinHamming_HopSize512_WinSize512_Sum_AudioCh0 > 0.014459
|   |   |   |   |   |   |   |   |   |   |   |   |   |   Mean_Mem20_MFCC10_Power_powerFFT_WinHamming_HopSize512_WinSize512_Sum_AudioCh0 <= 0.019398: m25 (3.0/1.0)
|   |   |   |   |   |   |   |   |   |   |   |   |   |   Mean_Mem20_MFCC10_Power_powerFFT_WinHamming_HopSize512_WinSize512_Sum_AudioCh0 > 0.019398: m32 (10.0)
|   |   |   |   |   |   |   |   |   |   |   Mean_Mem20_MFCC6_Power_powerFFT_WinHamming_HopSize512_WinSize512_Sum_AudioCh0 > -0.030688
|   |   |   |   |   |   |   |   |   |   |   |   Std_Mem20_MFCC9_Power_powerFFT_WinHamming_HopSize512_WinSize512_Sum_AudioCh0 <= 0.26548
|   |   |   |   |   |   |   |   |   |   |   |   |   Std_Mem20_MFCC12_Power_powerFFT_WinHamming_HopSize512_WinSize512_Sum_AudioCh0 <= 0.152635
|   |   |   |   |   |   |   |   |   |   |   |   |   |   Mean_Mem20_MFCC1_Power_powerFFT_WinHamming_HopSize512_WinSize512_Sum_AudioCh0 <= 0.946215
|   |   |   |   |   |   |   |   |   |   |   |   |   |   |   Mean_Mem20_Rolloff_Power_powerFFT_WinHamming_HopSize512_WinSize512_Sum_AudioCh0 <= 0.905642: m37 (2.0/1.0)
|   |   |   |   |   |   |   |   |   |   |   |   |   |   |   Mean_Mem20_Rolloff_Power_powerFFT_WinHamming_HopSize512_WinSize512_Sum_AudioCh0 > 0.905642: m41 (3.0/2.0)
|   |   |   |   |   |   |   |   |   |   |   |   |   |   Mean_Mem20_MFCC1_Power_powerFFT_WinHamming_HopSize512_WinSize512_Sum_AudioCh0 > 0.946215
|   |   |   |   |   |   |   |   |   |   |   |   |   |   |   Mean_Mem20_MFCC2_Power_powerFFT_WinHamming_HopSize512_WinSize512_Sum_AudioCh0 <= -0.007554: m54 (3.0/1.0)
|   |   |   |   |   |   |   |   |   |   |   |   |   |   |   Mean_Mem20_MFCC2_Power_powerFFT_WinHamming_HopSize512_WinSize512_Sum_AudioCh0 > -0.007554: m52 (3.0/1.0)
|   |   |   |   |   |   |   |   |   |   |   |   |   Std_Mem20_MFCC12_Power_powerFFT_WinHamming_HopSize512_WinSize512_Sum_AudioCh0 > 0.152635
|   |   |   |   |   |   |   |   |   |   |   |   |   |   Std_Mem20_MFCC7_Power_powerFFT_WinHamming_HopSize512_WinSize512_Sum_AudioCh0 <= 0.19754
|   |   |   |   |   |   |   |   |   |   |   |   |   |   |   Mean_Mem20_MFCC4_Power_powerFFT_WinHamming_HopSize512_WinSize512_Sum_AudioCh0 <= 0.083151: m33 (4.0)
|   |   |   |   |   |   |   |   |   |   |   |   |   |   |   Mean_Mem20_MFCC4_Power_powerFFT_WinHamming_HopSize512_WinSize512_Sum_AudioCh0 > 0.083151: m43 (3.0)
|   |   |   |   |   |   |   |   |   |   |   |   |   |   Std_Mem20_MFCC7_Power_powerFFT_WinHamming_HopSize512_WinSize512_Sum_AudioCh0 > 0.19754
|   |   |   |   |   |   |   |   |   |   |   |   |   |   |   Mean_Mem20_Rolloff_Power_powerFFT_WinHamming_HopSize512_WinSize512_Sum_AudioCh0 <= 0.779961: m26 (3.0)
|   |   |   |   |   |   |   |   |   |   |   |   |   |   |   Mean_Mem20_Rolloff_Power_powerFFT_WinHamming_HopSize512_WinSize512_Sum_AudioCh0 > 0.779961: m49 (2.0/1.0)
|   |   |   |   |   |   |   |   |   |   |   |   Std_Mem20_MFCC9_Power_powerFFT_WinHamming_HopSize512_WinSize512_Sum_AudioCh0 > 0.26548
|   |   |   |   |   |   |   |   |   |   |   |   |   Mean_Mem20_MFCC7_Power_powerFFT_WinHamming_HopSize512_WinSize512_Sum_AudioCh0 <= 0.030774
|   |   |   |   |   |   |   |   |   |   |   |   |   |   Std_Mem20_PeakRatio_Minimum_Chroma_A_Power_powerFFT_WinHamming_HopSize512_WinSize512_Sum_AudioCh0 <= 0.741761
|   |   |   |   |   |   |   |   |   |   |   |   |   |   |   Mean_Mem20_Flux_Power_powerFFT_WinHamming_HopSize512_WinSize512_Sum_AudioCh0 <= 0.067436: m43 (6.0/1.0)
|   |   |   |   |   |   |   |   |   |   |   |   |   |   |   Mean_Mem20_Flux_Power_powerFFT_WinHamming_HopSize512_WinSize512_Sum_AudioCh0 > 0.067436: m21 (3.0/2.0)
|   |   |   |   |   |   |   |   |   |   |   |   |   |   Std_Mem20_PeakRatio_Minimum_Chroma_A_Power_powerFFT_WinHamming_HopSize512_WinSize512_Sum_AudioCh0 > 0.741761
|   |   |   |   |   |   |   |   |   |   |   |   |   |   |   Std_Mem20_MFCC10_Power_powerFFT_WinHamming_HopSize512_WinSize512_Sum_AudioCh0 <= 0.155462: m30 (4.0/1.0)
|   |   |   |   |   |   |   |   |   |   |   |   |   |   |   Std_Mem20_MFCC10_Power_powerFFT_WinHamming_HopSize512_WinSize512_Sum_AudioCh0 > 0.155462: m34 (8.0)
|   |   |   |   |   |   |   |   |   |   |   |   |   Mean_Mem20_MFCC7_Power_powerFFT_WinHamming_HopSize512_WinSize512_Sum_AudioCh0 > 0.030774
|   |   |   |   |   |   |   |   |   |   |   |   |   |   Mean_Mem20_MFCC2_Power_powerFFT_WinHamming_HopSize512_WinSize512_Sum_AudioCh0 <= -0.250097: m35 (3.0)
|   |   |   |   |   |   |   |   |   |   |   |   |   |   Mean_Mem20_MFCC2_Power_powerFFT_WinHamming_HopSize512_WinSize512_Sum_AudioCh0 > -0.250097: m42 (2.0)
|   |   |   |   |   |   Std_Mem20_PeakRatio_Minimum_Chroma_A_Power_powerFFT_WinHamming_HopSize512_WinSize512_Sum_AudioCh0 > 1.19576
|   |   |   |   |   |   |   Mean_Mem20_MFCC9_Power_powerFFT_WinHamming_HopSize512_WinSize512_Sum_AudioCh0 <= 0.004145
|   |   |   |   |   |   |   |   Mean_Mem20_MFCC6_Power_powerFFT_WinHamming_HopSize512_WinSize512_Sum_AudioCh0 <= -0.003882
|   |   |   |   |   |   |   |   |   Mean_Mem20_MFCC10_Power_powerFFT_WinHamming_HopSize512_WinSize512_Sum_AudioCh0 <= -0.017597
|   |   |   |   |   |   |   |   |   |   Mean_Mem20_Rolloff_Power_powerFFT_WinHamming_HopSize512_WinSize512_Sum_AudioCh0 <= 0.857198
|   |   |   |   |   |   |   |   |   |   |   Mean_Mem20_MFCC6_Power_powerFFT_WinHamming_HopSize512_WinSize512_Sum_AudioCh0 <= -0.123735: m59 (2.0)
|   |   |   |   |   |   |   |   |   |   |   Mean_Mem20_MFCC6_Power_powerFFT_WinHamming_HopSize512_WinSize512_Sum_AudioCh0 > -0.123735: m58 (8.0)
|   |   |   |   |   |   |   |   |   |   Mean_Mem20_Rolloff_Power_powerFFT_WinHamming_HopSize512_WinSize512_Sum_AudioCh0 > 0.857198
|   |   |   |   |   |   |   |   |   |   |   Std_Mem20_ZeroCrossings_HopSize512_WinSize512_Sum_AudioCh0 <= 0.016202
|   |   |   |   |   |   |   |   |   |   |   |   Mean_Mem20_MFCC3_Power_powerFFT_WinHamming_HopSize512_WinSize512_Sum_AudioCh0 <= 0.16658
|   |   |   |   |   |   |   |   |   |   |   |   |   Mean_Mem20_MFCC2_Power_powerFFT_WinHamming_HopSize512_WinSize512_Sum_AudioCh0 <= 0.024442: m70 (3.0/1.0)
|   |   |   |   |   |   |   |   |   |   |   |   |   Mean_Mem20_MFCC2_Power_powerFFT_WinHamming_HopSize512_WinSize512_Sum_AudioCh0 > 0.024442: m67 (2.0)
|   |   |   |   |   |   |   |   |   |   |   |   Mean_Mem20_MFCC3_Power_powerFFT_WinHamming_HopSize512_WinSize512_Sum_AudioCh0 > 0.16658: m68 (4.0/1.0)
|   |   |   |   |   |   |   |   |   |   |   Std_Mem20_ZeroCrossings_HopSize512_WinSize512_Sum_AudioCh0 > 0.016202: m72 (4.0/1.0)
|   |   |   |   |   |   |   |   |   Mean_Mem20_MFCC10_Power_powerFFT_WinHamming_HopSize512_WinSize512_Sum_AudioCh0 > -0.017597
|   |   |   |   |   |   |   |   |   |   Mean_Mem20_MFCC7_Power_powerFFT_WinHamming_HopSize512_WinSize512_Sum_AudioCh0 <= -0.015803
|   |   |   |   |   |   |   |   |   |   |   Mean_Mem20_MFCC11_Power_powerFFT_WinHamming_HopSize512_WinSize512_Sum_AudioCh0 <= -0.172775: m50 (4.0)
|   |   |   |   |   |   |   |   |   |   |   Mean_Mem20_MFCC11_Power_powerFFT_WinHamming_HopSize512_WinSize512_Sum_AudioCh0 > -0.172775
|   |   |   |   |   |   |   |   |   |   |   |   Std_Mem20_MFCC12_Power_powerFFT_WinHamming_HopSize512_WinSize512_Sum_AudioCh0 <= 0.190517
|   |   |   |   |   |   |   |   |   |   |   |   |   Std_Mem20_MFCC6_Power_powerFFT_WinHamming_HopSize512_WinSize512_Sum_AudioCh0 <= 0.155823: m59 (2.0)
|   |   |   |   |   |   |   |   |   |   |   |   |   Std_Mem20_MFCC6_Power_powerFFT_WinHamming_HopSize512_WinSize512_Sum_AudioCh0 > 0.155823: m62 (18.0)
|   |   |   |   |   |   |   |   |   |   |   |   Std_Mem20_MFCC12_Power_powerFFT_WinHamming_HopSize512_WinSize512_Sum_AudioCh0 > 0.190517
|   |   |   |   |   |   |   |   |   |   |   |   |   Mean_Mem20_MFCC5_Power_powerFFT_WinHamming_HopSize512_WinSize512_Sum_AudioCh0 <= 0.000562: m60 (3.0)
|   |   |   |   |   |   |   |   |   |   |   |   |   Mean_Mem20_MFCC5_Power_powerFFT_WinHamming_HopSize512_WinSize512_Sum_AudioCh0 > 0.000562: m61 (4.0)
|   |   |   |   |   |   |   |   |   |   Mean_Mem20_MFCC7_Power_powerFFT_WinHamming_HopSize512_WinSize512_Sum_AudioCh0 > -0.015803
|   |   |   |   |   |   |   |   |   |   |   Mean_Mem20_MFCC6_Power_powerFFT_WinHamming_HopSize512_WinSize512_Sum_AudioCh0 <= -0.21638: m63 (7.0)
|   |   |   |   |   |   |   |   |   |   |   Mean_Mem20_MFCC6_Power_powerFFT_WinHamming_HopSize512_WinSize512_Sum_AudioCh0 > -0.21638
|   |   |   |   |   |   |   |   |   |   |   |   Mean_Mem20_Rolloff_Power_powerFFT_WinHamming_HopSize512_WinSize512_Sum_AudioCh0 <= 0.879183
|   |   |   |   |   |   |   |   |   |   |   |   |   Mean_Mem20_MFCC9_Power_powerFFT_WinHamming_HopSize512_WinSize512_Sum_AudioCh0 <= -0.121563: m60 (3.0)
|   |   |   |   |   |   |   |   |   |   |   |   |   Mean_Mem20_MFCC9_Power_powerFFT_WinHamming_HopSize512_WinSize512_Sum_AudioCh0 > -0.121563: m21 (2.0/1.0)
|   |   |   |   |   |   |   |   |   |   |   |   Mean_Mem20_Rolloff_Power_powerFFT_WinHamming_HopSize512_WinSize512_Sum_AudioCh0 > 0.879183: m107 (3.0/2.0)
|   |   |   |   |   |   |   |   Mean_Mem20_MFCC6_Power_powerFFT_WinHamming_HopSize512_WinSize512_Sum_AudioCh0 > -0.003882
|   |   |   |   |   |   |   |   |   Std_Mem20_MFCC8_Power_powerFFT_WinHamming_HopSize512_WinSize512_Sum_AudioCh0 <= 0.335391
|   |   |   |   |   |   |   |   |   |   Mean_Mem20_MFCC9_Power_powerFFT_WinHamming_HopSize512_WinSize512_Sum_AudioCh0 <= -0.101615
|   |   |   |   |   |   |   |   |   |   |   Std_Mem20_MFCC11_Power_powerFFT_WinHamming_HopSize512_WinSize512_Sum_AudioCh0 <= 0.245354: m59 (19.0)
|   |   |   |   |   |   |   |   |   |   |   Std_Mem20_MFCC11_Power_powerFFT_WinHamming_HopSize512_WinSize512_Sum_AudioCh0 > 0.245354: m57 (3.0/1.0)
|   |   |   |   |   |   |   |   |   |   Mean_Mem20_MFCC9_Power_powerFFT_WinHamming_HopSize512_WinSize512_Sum_AudioCh0 > -0.101615
|   |   |   |   |   |   |   |   |   |   |   Mean_Mem20_MFCC5_Power_powerFFT_WinHamming_HopSize512_WinSize512_Sum_AudioCh0 <= 0.093168
|   |   |   |   |   |   |   |   |   |   |   |   Mean_Mem20_Rolloff_Power_powerFFT_WinHamming_HopSize512_WinSize512_Sum_AudioCh0 <= 0.879183: m25 (3.0)
|   |   |   |   |   |   |   |   |   |   |   |   Mean_Mem20_Rolloff_Power_powerFFT_WinHamming_HopSize512_WinSize512_Sum_AudioCh0 > 0.879183: m26 (3.0/2.0)
|   |   |   |   |   |   |   |   |   |   |   Mean_Mem20_MFCC5_Power_powerFFT_WinHamming_HopSize512_WinSize512_Sum_AudioCh0 > 0.093168: m29 (6.0)
|   |   |   |   |   |   |   |   |   Std_Mem20_MFCC8_Power_powerFFT_WinHamming_HopSize512_WinSize512_Sum_AudioCh0 > 0.335391
|   |   |   |   |   |   |   |   |   |   Mean_Mem20_MFCC10_Power_powerFFT_WinHamming_HopSize512_WinSize512_Sum_AudioCh0 <= 0.046531
|   |   |   |   |   |   |   |   |   |   |   Std_Mem20_MFCC6_Power_powerFFT_WinHamming_HopSize512_WinSize512_Sum_AudioCh0 <= 0.120435: m67 (3.0)
|   |   |   |   |   |   |   |   |   |   |   Std_Mem20_MFCC6_Power_powerFFT_WinHamming_HopSize512_WinSize512_Sum_AudioCh0 > 0.120435: m66 (29.0/1.0)
|   |   |   |   |   |   |   |   |   |   Mean_Mem20_MFCC10_Power_powerFFT_WinHamming_HopSize512_WinSize512_Sum_AudioCh0 > 0.046531: m61 (3.0/1.0)
|   |   |   |   |   |   |   Mean_Mem20_MFCC9_Power_powerFFT_WinHamming_HopSize512_WinSize512_Sum_AudioCh0 > 0.004145
|   |   |   |   |   |   |   |   Mean_Mem20_MFCC12_Power_powerFFT_WinHamming_HopSize512_WinSize512_Sum_AudioCh0 <= 0.005425
|   |   |   |   |   |   |   |   |   Std_Mem20_MFCC12_Power_powerFFT_WinHamming_HopSize512_WinSize512_Sum_AudioCh0 <= 0.379099
|   |   |   |   |   |   |   |   |   |   Mean_Mem20_MFCC4_Power_powerFFT_WinHamming_HopSize512_WinSize512_Sum_AudioCh0 <= 0.104744
|   |   |   |   |   |   |   |   |   |   |   Mean_Mem20_MFCC10_Power_powerFFT_WinHamming_HopSize512_WinSize512_Sum_AudioCh0 <= 0.066375
|   |   |   |   |   |   |   |   |   |   |   |   Std_Mem20_MFCC9_Power_powerFFT_WinHamming_HopSize512_WinSize512_Sum_AudioCh0 <= 0.30502
|   |   |   |   |   |   |   |   |   |   |   |   |   Mean_Mem20_Rolloff_Power_powerFFT_WinHamming_HopSize512_WinSize512_Sum_AudioCh0 <= 0.857198: m53 (7.0)
|   |   |   |   |   |   |   |   |   |   |   |   |   Mean_Mem20_Rolloff_Power_powerFFT_WinHamming_HopSize512_WinSize512_Sum_AudioCh0 > 0.857198
|   |   |   |   |   |   |   |   |   |   |   |   |   |   Mean_Mem20_Rolloff_Power_powerFFT_WinHamming_HopSize512_WinSize512_Sum_AudioCh0 <= 0.904086: m31 (2.0/1.0)
|   |   |   |   |   |   |   |   |   |   |   |   |   |   Mean_Mem20_Rolloff_Power_powerFFT_WinHamming_HopSize512_WinSize512_Sum_AudioCh0 > 0.904086: m102 (3.0/2.0)
|   |   |   |   |   |   |   |   |   |   |   |   Std_Mem20_MFCC9_Power_powerFFT_WinHamming_HopSize512_WinSize512_Sum_AudioCh0 > 0.30502: m21 (11.0/1.0)
|   |   |   |   |   |   |   |   |   |   |   Mean_Mem20_MFCC10_Power_powerFFT_WinHamming_HopSize512_WinSize512_Sum_AudioCh0 > 0.066375
|   |   |   |   |   |   |   |   |   |   |   |   Mean_Mem20_MFCC3_Power_powerFFT_WinHamming_HopSize512_WinSize512_Sum_AudioCh0 <= 0.198376
|   |   |   |   |   |   |   |   |   |   |   |   |   Mean_Mem20_MFCC1_Power_powerFFT_WinHamming_HopSize512_WinSize512_Sum_AudioCh0 <= 0.805212: m78 (2.0)
|   |   |   |   |   |   |   |   |   |   |   |   |   Mean_Mem20_MFCC1_Power_powerFFT_WinHamming_HopSize512_WinSize512_Sum_AudioCh0 > 0.805212: m32 (2.0)
|   |   |   |   |   |   |   |   |   |   |   |   Mean_Mem20_MFCC3_Power_powerFFT_WinHamming_HopSize512_WinSize512_Sum_AudioCh0 > 0.198376: m63 (6.0)
|   |   |   |   |   |   |   |   |   |   Mean_Mem20_MFCC4_Power_powerFFT_WinHamming_HopSize512_WinSize512_Sum_AudioCh0 > 0.104744
|   |   |   |   |   |   |   |   |   |   |   Mean_Mem20_MFCC6_Power_powerFFT_WinHamming_HopSize512_WinSize512_Sum_AudioCh0 <= 0.007404
|   |   |   |   |   |   |   |   |   |   |   |   Mean_Mem20_MFCC1_Power_powerFFT_WinHamming_HopSize512_WinSize512_Sum_AudioCh0 <= 1.21485: m45 (3.0)
|   |   |   |   |   |   |   |   |   |   |   |   Mean_Mem20_MFCC1_Power_powerFFT_WinHamming_HopSize512_WinSize512_Sum_AudioCh0 > 1.21485: m65 (4.0)
|   |   |   |   |   |   |   |   |   |   |   Mean_Mem20_MFCC6_Power_powerFFT_WinHamming_HopSize512_WinSize512_Sum_AudioCh0 > 0.007404
|   |   |   |   |   |   |   |   |   |   |   |   Mean_Mem20_Rolloff_Power_powerFFT_WinHamming_HopSize512_WinSize512_Sum_AudioCh0 <= 0.804669: m52 (4.0)
|   |   |   |   |   |   |   |   |   |   |   |   Mean_Mem20_Rolloff_Power_powerFFT_WinHamming_HopSize512_WinSize512_Sum_AudioCh0 > 0.804669
|   |   |   |   |   |   |   |   |   |   |   |   |   Mean_Mem20_Rolloff_Power_powerFFT_WinHamming_HopSize512_WinSize512_Sum_AudioCh0 <= 0.859533: m31 (3.0/1.0)
|   |   |   |   |   |   |   |   |   |   |   |   |   Mean_Mem20_Rolloff_Power_powerFFT_WinHamming_HopSize512_WinSize512_Sum_AudioCh0 > 0.859533: m44 (2.0)
|   |   |   |   |   |   |   |   |   Std_Mem20_MFCC12_Power_powerFFT_WinHamming_HopSize512_WinSize512_Sum_AudioCh0 > 0.379099
|   |   |   |   |   |   |   |   |   |   Mean_Mem20_MFCC10_Power_powerFFT_WinHamming_HopSize512_WinSize512_Sum_AudioCh0 <= 0.014257: m55 (3.0/2.0)
|   |   |   |   |   |   |   |   |   |   Mean_Mem20_MFCC10_Power_powerFFT_WinHamming_HopSize512_WinSize512_Sum_AudioCh0 > 0.014257: m33 (8.0)
|   |   |   |   |   |   |   |   Mean_Mem20_MFCC12_Power_powerFFT_WinHamming_HopSize512_WinSize512_Sum_AudioCh0 > 0.005425
|   |   |   |   |   |   |   |   |   Std_Mem20_MFCC6_Power_powerFFT_WinHamming_HopSize512_WinSize512_Sum_AudioCh0 <= 0.374838
|   |   |   |   |   |   |   |   |   |   Std_Mem20_MFCC9_Power_powerFFT_WinHamming_HopSize512_WinSize512_Sum_AudioCh0 <= 0.15423
|   |   |   |   |   |   |   |   |   |   |   Mean_Mem20_Rolloff_Power_powerFFT_WinHamming_HopSize512_WinSize512_Sum_AudioCh0 <= 0.831712: m52 (4.0/1.0)
|   |   |   |   |   |   |   |   |   |   |   Mean_Mem20_Rolloff_Power_powerFFT_WinHamming_HopSize512_WinSize512_Sum_AudioCh0 > 0.831712: m108 (3.0/2.0)
|   |   |   |   |   |   |   |   |   |   Std_Mem20_MFCC9_Power_powerFFT_WinHamming_HopSize512_WinSize512_Sum_AudioCh0 > 0.15423
|   |   |   |   |   |   |   |   |   |   |   Std_Mem20_PeakRatio_Average_Chroma_A_Power_powerFFT_WinHamming_HopSize512_WinSize512_Sum_AudioCh0 <= 0.686754
|   |   |   |   |   |   |   |   |   |   |   |   Std_Mem20_MFCC6_Power_powerFFT_WinHamming_HopSize512_WinSize512_Sum_AudioCh0 <= 0.206785
|   |   |   |   |   |   |   |   |   |   |   |   |   Mean_Mem20_Flux_Power_powerFFT_WinHamming_HopSize512_WinSize512_Sum_AudioCh0 <= 0.058795: m75 (3.0/1.0)
|   |   |   |   |   |   |   |   |   |   |   |   |   Mean_Mem20_Flux_Power_powerFFT_WinHamming_HopSize512_WinSize512_Sum_AudioCh0 > 0.058795: m21 (3.0/1.0)
|   |   |   |   |   |   |   |   |   |   |   |   Std_Mem20_MFCC6_Power_powerFFT_WinHamming_HopSize512_WinSize512_Sum_AudioCh0 > 0.206785: m62 (6.0/1.0)
|   |   |   |   |   |   |   |   |   |   |   Std_Mem20_PeakRatio_Average_Chroma_A_Power_powerFFT_WinHamming_HopSize512_WinSize512_Sum_AudioCh0 > 0.686754: m43 (10.0)
|   |   |   |   |   |   |   |   |   Std_Mem20_MFCC6_Power_powerFFT_WinHamming_HopSize512_WinSize512_Sum_AudioCh0 > 0.374838
|   |   |   |   |   |   |   |   |   |   Mean_Mem20_MFCC3_Power_powerFFT_WinHamming_HopSize512_WinSize512_Sum_AudioCh0 <= 0.319466
|   |   |   |   |   |   |   |   |   |   |   Mean_Mem20_MFCC2_Power_powerFFT_WinHamming_HopSize512_WinSize512_Sum_AudioCh0 <= -0.24212: m25 (3.0/1.0)
|   |   |   |   |   |   |   |   |   |   |   Mean_Mem20_MFCC2_Power_powerFFT_WinHamming_HopSize512_WinSize512_Sum_AudioCh0 > -0.24212: m30 (4.0)
|   |   |   |   |   |   |   |   |   |   Mean_Mem20_MFCC3_Power_powerFFT_WinHamming_HopSize512_WinSize512_Sum_AudioCh0 > 0.319466
|   |   |   |   |   |   |   |   |   |   |   Mean_Mem20_MFCC2_Power_powerFFT_WinHamming_HopSize512_WinSize512_Sum_AudioCh0 <= -0.517292: m64 (2.0)
|   |   |   |   |   |   |   |   |   |   |   Mean_Mem20_MFCC2_Power_powerFFT_WinHamming_HopSize512_WinSize512_Sum_AudioCh0 > -0.517292: m60 (11.0)
|   |   |   |   |   Mean_Mem20_MFCC1_Power_powerFFT_WinHamming_HopSize512_WinSize512_Sum_AudioCh0 > 4.395071
|   |   |   |   |   |   Mean_Mem20_Flux_Power_powerFFT_WinHamming_HopSize512_WinSize512_Sum_AudioCh0 <= 0.061227
|   |   |   |   |   |   |   Std_Mem20_MFCC10_Power_powerFFT_WinHamming_HopSize512_WinSize512_Sum_AudioCh0 <= 0.303044
|   |   |   |   |   |   |   |   Mean_Mem20_MFCC7_Power_powerFFT_WinHamming_HopSize512_WinSize512_Sum_AudioCh0 <= 0.885503
|   |   |   |   |   |   |   |   |   Mean_Mem20_MFCC3_Power_powerFFT_WinHamming_HopSize512_WinSize512_Sum_AudioCh0 <= 1.194016
|   |   |   |   |   |   |   |   |   |   Mean_Mem20_MFCC12_Power_powerFFT_WinHamming_HopSize512_WinSize512_Sum_AudioCh0 <= 0.005328
|   |   |   |   |   |   |   |   |   |   |   Mean_Mem20_Rolloff_Power_powerFFT_WinHamming_HopSize512_WinSize512_Sum_AudioCh0 <= 0.010895: m47 (4.0)
|   |   |   |   |   |   |   |   |   |   |   Mean_Mem20_Rolloff_Power_powerFFT_WinHamming_HopSize512_WinSize512_Sum_AudioCh0 > 0.010895
|   |   |   |   |   |   |   |   |   |   |   |   Mean_Mem20_Rolloff_Power_powerFFT_WinHamming_HopSize512_WinSize512_Sum_AudioCh0 <= 0.018677: m36 (6.0)
|   |   |   |   |   |   |   |   |   |   |   |   Mean_Mem20_Rolloff_Power_powerFFT_WinHamming_HopSize512_WinSize512_Sum_AudioCh0 > 0.018677: m48 (4.0)
|   |   |   |   |   |   |   |   |   |   Mean_Mem20_MFCC12_Power_powerFFT_WinHamming_HopSize512_WinSize512_Sum_AudioCh0 > 0.005328
|   |   |   |   |   |   |   |   |   |   |   Std_Mem20_PeakRatio_Average_Chroma_A_Power_powerFFT_WinHamming_HopSize512_WinSize512_Sum_AudioCh0 <= 0.026114: m35 (4.0/1.0)
|   |   |   |   |   |   |   |   |   |   |   Std_Mem20_PeakRatio_Average_Chroma_A_Power_powerFFT_WinHamming_HopSize512_WinSize512_Sum_AudioCh0 > 0.026114: m29 (32.0/1.0)
|   |   |   |   |   |   |   |   |   Mean_Mem20_MFCC3_Power_powerFFT_WinHamming_HopSize512_WinSize512_Sum_AudioCh0 > 1.194016
|   |   |   |   |   |   |   |   |   |   Mean_Mem20_MFCC12_Power_powerFFT_WinHamming_HopSize512_WinSize512_Sum_AudioCh0 <= 0.323873
|   |   |   |   |   |   |   |   |   |   |   Std_Mem20_MFCC11_Power_powerFFT_WinHamming_HopSize512_WinSize512_Sum_AudioCh0 <= 0.341494: m48 (215.0/1.0)
|   |   |   |   |   |   |   |   |   |   |   Std_Mem20_MFCC11_Power_powerFFT_WinHamming_HopSize512_WinSize512_Sum_AudioCh0 > 0.341494: m29 (4.0)
|   |   |   |   |   |   |   |   |   |   Mean_Mem20_MFCC12_Power_powerFFT_WinHamming_HopSize512_WinSize512_Sum_AudioCh0 > 0.323873
|   |   |   |   |   |   |   |   |   |   |   Mean_Mem20_PeakRatio_Chroma_G#_Power_powerFFT_WinHamming_HopSize512_WinSize512_Sum_AudioCh0 <= 0.000043
|   |   |   |   |   |   |   |   |   |   |   |   Mean_Mem20_Rolloff_Power_powerFFT_WinHamming_HopSize512_WinSize512_Sum_AudioCh0 <= 0.016537: m46 (4.0)
|   |   |   |   |   |   |   |   |   |   |   |   Mean_Mem20_Rolloff_Power_powerFFT_WinHamming_HopSize512_WinSize512_Sum_AudioCh0 > 0.016537: m57 (8.0/1.0)
|   |   |   |   |   |   |   |   |   |   |   Mean_Mem20_PeakRatio_Chroma_G#_Power_powerFFT_WinHamming_HopSize512_WinSize512_Sum_AudioCh0 > 0.000043: m29 (3.0)
|   |   |   |   |   |   |   |   Mean_Mem20_MFCC7_Power_powerFFT_WinHamming_HopSize512_WinSize512_Sum_AudioCh0 > 0.885503
|   |   |   |   |   |   |   |   |   Mean_Mem20_Rolloff_Power_powerFFT_WinHamming_HopSize512_WinSize512_Sum_AudioCh0 <= 0.034825: m41 (6.0)
|   |   |   |   |   |   |   |   |   Mean_Mem20_Rolloff_Power_powerFFT_WinHamming_HopSize512_WinSize512_Sum_AudioCh0 > 0.034825: m57 (19.0)
|   |   |   |   |   |   |   Std_Mem20_MFCC10_Power_powerFFT_WinHamming_HopSize512_WinSize512_Sum_AudioCh0 > 0.303044
|   |   |   |   |   |   |   |   Mean_Mem20_MFCC7_Power_powerFFT_WinHamming_HopSize512_WinSize512_Sum_AudioCh0 <= 0.77138
|   |   |   |   |   |   |   |   |   Mean_Mem20_MFCC11_Power_powerFFT_WinHamming_HopSize512_WinSize512_Sum_AudioCh0 <= -0.171465: m36 (7.0/1.0)
|   |   |   |   |   |   |   |   |   Mean_Mem20_MFCC11_Power_powerFFT_WinHamming_HopSize512_WinSize512_Sum_AudioCh0 > -0.171465
|   |   |   |   |   |   |   |   |   |   Mean_Mem20_MFCC10_Power_powerFFT_WinHamming_HopSize512_WinSize512_Sum_AudioCh0 <= 0.485716
|   |   |   |   |   |   |   |   |   |   |   Mean_Mem20_PeakRatio_Minimum_Chroma_A_Power_powerFFT_WinHamming_HopSize512_WinSize512_Sum_AudioCh0 <= 1.763078: m29 (99.0/1.0)
|   |   |   |   |   |   |   |   |   |   |   Mean_Mem20_PeakRatio_Minimum_Chroma_A_Power_powerFFT_WinHamming_HopSize512_WinSize512_Sum_AudioCh0 > 1.763078: m35 (2.0/1.0)
|   |   |   |   |   |   |   |   |   |   Mean_Mem20_MFCC10_Power_powerFFT_WinHamming_HopSize512_WinSize512_Sum_AudioCh0 > 0.485716: m27 (5.0)
|   |   |   |   |   |   |   |   Mean_Mem20_MFCC7_Power_powerFFT_WinHamming_HopSize512_WinSize512_Sum_AudioCh0 > 0.77138
|   |   |   |   |   |   |   |   |   Mean_Mem20_Rolloff_Power_powerFFT_WinHamming_HopSize512_WinSize512_Sum_AudioCh0 <= 0.021401: m40 (10.0)
|   |   |   |   |   |   |   |   |   Mean_Mem20_Rolloff_Power_powerFFT_WinHamming_HopSize512_WinSize512_Sum_AudioCh0 > 0.021401: m36 (3.0/1.0)
|   |   |   |   |   |   Mean_Mem20_Flux_Power_powerFFT_WinHamming_HopSize512_WinSize512_Sum_AudioCh0 > 0.061227
|   |   |   |   |   |   |   Mean_Mem20_MFCC12_Power_powerFFT_WinHamming_HopSize512_WinSize512_Sum_AudioCh0 <= -0.18438
|   |   |   |   |   |   |   |   Mean_Mem20_MFCC2_Power_powerFFT_WinHamming_HopSize512_WinSize512_Sum_AudioCh0 <= -1.833093
|   |   |   |   |   |   |   |   |   Mean_Mem20_PeakRatio_Average_Chroma_A_Power_powerFFT_WinHamming_HopSize512_WinSize512_Sum_AudioCh0 <= 1.214107
|   |   |   |   |   |   |   |   |   |   Std_Mem20_ZeroCrossings_HopSize512_WinSize512_Sum_AudioCh0 <= 0.007363
|   |   |   |   |   |   |   |   |   |   |   Std_Mem20_MFCC10_Power_powerFFT_WinHamming_HopSize512_WinSize512_Sum_AudioCh0 <= 0.387305
|   |   |   |   |   |   |   |   |   |   |   |   Std_Mem20_PeakRatio_Minimum_Chroma_A_Power_powerFFT_WinHamming_HopSize512_WinSize512_Sum_AudioCh0 <= 0.256223
|   |   |   |   |   |   |   |   |   |   |   |   |   Mean_Mem20_MFCC5_Power_powerFFT_WinHamming_HopSize512_WinSize512_Sum_AudioCh0 <= 1.479904: m41 (165.0/1.0)
|   |   |   |   |   |   |   |   |   |   |   |   |   Mean_Mem20_MFCC5_Power_powerFFT_WinHamming_HopSize512_WinSize512_Sum_AudioCh0 > 1.479904: m29 (3.0/2.0)
|   |   |   |   |   |   |   |   |   |   |   |   Std_Mem20_PeakRatio_Minimum_Chroma_A_Power_powerFFT_WinHamming_HopSize512_WinSize512_Sum_AudioCh0 > 0.256223
|   |   |   |   |   |   |   |   |   |   |   |   |   Mean_Mem20_Flux_Power_powerFFT_WinHamming_HopSize512_WinSize512_Sum_AudioCh0 <= 0.079793: m40 (2.0)
|   |   |   |   |   |   |   |   |   |   |   |   |   Mean_Mem20_Flux_Power_powerFFT_WinHamming_HopSize512_WinSize512_Sum_AudioCh0 > 0.079793: m39 (2.0/1.0)
|   |   |   |   |   |   |   |   |   |   |   Std_Mem20_MFCC10_Power_powerFFT_WinHamming_HopSize512_WinSize512_Sum_AudioCh0 > 0.387305: m40 (14.0)
|   |   |   |   |   |   |   |   |   |   Std_Mem20_ZeroCrossings_HopSize512_WinSize512_Sum_AudioCh0 > 0.007363: m56 (11.0/1.0)
|   |   |   |   |   |   |   |   |   Mean_Mem20_PeakRatio_Average_Chroma_A_Power_powerFFT_WinHamming_HopSize512_WinSize512_Sum_AudioCh0 > 1.214107
|   |   |   |   |   |   |   |   |   |   Std_Mem20_PeakRatio_Minimum_Chroma_A_Power_powerFFT_WinHamming_HopSize512_WinSize512_Sum_AudioCh0 <= 0.409142
|   |   |   |   |   |   |   |   |   |   |   Mean_Mem20_MFCC1_Power_powerFFT_WinHamming_HopSize512_WinSize512_Sum_AudioCh0 <= 9.837
|   |   |   |   |   |   |   |   |   |   |   |   Mean_Mem20_Rolloff_Power_powerFFT_WinHamming_HopSize512_WinSize512_Sum_AudioCh0 <= 0.035019: m45 (4.0)
|   |   |   |   |   |   |   |   |   |   |   |   Mean_Mem20_Rolloff_Power_powerFFT_WinHamming_HopSize512_WinSize512_Sum_AudioCh0 > 0.035019
|   |   |   |   |   |   |   |   |   |   |   |   |   Mean_Mem20_Rolloff_Power_powerFFT_WinHamming_HopSize512_WinSize512_Sum_AudioCh0 <= 0.041245: m39 (2.0)
|   |   |   |   |   |   |   |   |   |   |   |   |   Mean_Mem20_Rolloff_Power_powerFFT_WinHamming_HopSize512_WinSize512_Sum_AudioCh0 > 0.041245: m41 (3.0)
|   |   |   |   |   |   |   |   |   |   |   Mean_Mem20_MFCC1_Power_powerFFT_WinHamming_HopSize512_WinSize512_Sum_AudioCh0 > 9.837
|   |   |   |   |   |   |   |   |   |   |   |   Mean_Mem20_MFCC4_Power_powerFFT_WinHamming_HopSize512_WinSize512_Sum_AudioCh0 <= -0.986607: m49 (2.0)
|   |   |   |   |   |   |   |   |   |   |   |   Mean_Mem20_MFCC4_Power_powerFFT_WinHamming_HopSize512_WinSize512_Sum_AudioCh0 > -0.986607
|   |   |   |   |   |   |   |   |   |   |   |   |   Mean_Mem20_MFCC1_Power_powerFFT_WinHamming_HopSize512_WinSize512_Sum_AudioCh0 <= 11.578162: m38 (25.0/1.0)
|   |   |   |   |   |   |   |   |   |   |   |   |   Mean_Mem20_MFCC1_Power_powerFFT_WinHamming_HopSize512_WinSize512_Sum_AudioCh0 > 11.578162: m40 (4.0)
|   |   |   |   |   |   |   |   |   |   Std_Mem20_PeakRatio_Minimum_Chroma_A_Power_powerFFT_WinHamming_HopSize512_WinSize512_Sum_AudioCh0 > 0.409142
|   |   |   |   |   |   |   |   |   |   |   Mean_Mem20_MFCC12_Power_powerFFT_WinHamming_HopSize512_WinSize512_Sum_AudioCh0 <= -0.406395
|   |   |   |   |   |   |   |   |   |   |   |   Mean_Mem20_PeakRatio_Chroma_G#_Power_powerFFT_WinHamming_HopSize512_WinSize512_Sum_AudioCh0 <= 0.000018
|   |   |   |   |   |   |   |   |   |   |   |   |   Mean_Mem20_Rolloff_Power_powerFFT_WinHamming_HopSize512_WinSize512_Sum_AudioCh0 <= 0.035992: m48 (2.0)
|   |   |   |   |   |   |   |   |   |   |   |   |   Mean_Mem20_Rolloff_Power_powerFFT_WinHamming_HopSize512_WinSize512_Sum_AudioCh0 > 0.035992: m56 (3.0)
|   |   |   |   |   |   |   |   |   |   |   |   Mean_Mem20_PeakRatio_Chroma_G#_Power_powerFFT_WinHamming_HopSize512_WinSize512_Sum_AudioCh0 > 0.000018: m45 (3.0)
|   |   |   |   |   |   |   |   |   |   |   Mean_Mem20_MFCC12_Power_powerFFT_WinHamming_HopSize512_WinSize512_Sum_AudioCh0 > -0.406395: m29 (13.0)
|   |   |   |   |   |   |   |   Mean_Mem20_MFCC2_Power_powerFFT_WinHamming_HopSize512_WinSize512_Sum_AudioCh0 > -1.833093
|   |   |   |   |   |   |   |   |   Mean_Mem20_MFCC8_Power_powerFFT_WinHamming_HopSize512_WinSize512_Sum_AudioCh0 <= 0.562779
|   |   |   |   |   |   |   |   |   |   Mean_Mem20_MFCC3_Power_powerFFT_WinHamming_HopSize512_WinSize512_Sum_AudioCh0 <= 1.519129
|   |   |   |   |   |   |   |   |   |   |   Mean_Mem20_MFCC9_Power_powerFFT_WinHamming_HopSize512_WinSize512_Sum_AudioCh0 <= 0.248211
|   |   |   |   |   |   |   |   |   |   |   |   Mean_Mem20_Rolloff_Power_powerFFT_WinHamming_HopSize512_WinSize512_Sum_AudioCh0 <= 0.019261: m40 (23.0/1.0)
|   |   |   |   |   |   |   |   |   |   |   |   Mean_Mem20_Rolloff_Power_powerFFT_WinHamming_HopSize512_WinSize512_Sum_AudioCh0 > 0.019261
|   |   |   |   |   |   |   |   |   |   |   |   |   Std_Mem20_ZeroCrossings_HopSize512_WinSize512_Sum_AudioCh0 <= 0.010364
|   |   |   |   |   |   |   |   |   |   |   |   |   |   Mean_Mem20_MFCC5_Power_powerFFT_WinHamming_HopSize512_WinSize512_Sum_AudioCh0 <= 0.38161
|   |   |   |   |   |   |   |   |   |   |   |   |   |   |   Std_Mem20_PeakRatio_Average_Chroma_A_Power_powerFFT_WinHamming_HopSize512_WinSize512_Sum_AudioCh0 <= 0.027694: m41 (10.0)
|   |   |   |   |   |   |   |   |   |   |   |   |   |   |   Std_Mem20_PeakRatio_Average_Chroma_A_Power_powerFFT_WinHamming_HopSize512_WinSize512_Sum_AudioCh0 > 0.027694
|   |   |   |   |   |   |   |   |   |   |   |   |   |   |   |   Mean_Mem20_MFCC7_Power_powerFFT_WinHamming_HopSize512_WinSize512_Sum_AudioCh0 <= 0.406354: m48 (8.0)
|   |   |   |   |   |   |   |   |   |   |   |   |   |   |   |   Mean_Mem20_MFCC7_Power_powerFFT_WinHamming_HopSize512_WinSize512_Sum_AudioCh0 > 0.406354: m56 (3.0/1.0)
|   |   |   |   |   |   |   |   |   |   |   |   |   |   Mean_Mem20_MFCC5_Power_powerFFT_WinHamming_HopSize512_WinSize512_Sum_AudioCh0 > 0.38161
|   |   |   |   |   |   |   |   |   |   |   |   |   |   |   Mean_Mem20_Rolloff_Power_powerFFT_WinHamming_HopSize512_WinSize512_Sum_AudioCh0 <= 0.236965: m40 (2.0/1.0)
|   |   |   |   |   |   |   |   |   |   |   |   |   |   |   Mean_Mem20_Rolloff_Power_powerFFT_WinHamming_HopSize512_WinSize512_Sum_AudioCh0 > 0.236965: m57 (5.0)
|   |   |   |   |   |   |   |   |   |   |   |   |   Std_Mem20_ZeroCrossings_HopSize512_WinSize512_Sum_AudioCh0 > 0.010364
|   |   |   |   |   |   |   |   |   |   |   |   |   |   Mean_Mem20_MFCC4_Power_powerFFT_WinHamming_HopSize512_WinSize512_Sum_AudioCh0 <= -0.139275: m53 (7.0)
|   |   |   |   |   |   |   |   |   |   |   |   |   |   Mean_Mem20_MFCC4_Power_powerFFT_WinHamming_HopSize512_WinSize512_Sum_AudioCh0 > -0.139275: m52 (3.0/1.0)
|   |   |   |   |   |   |   |   |   |   |   Mean_Mem20_MFCC9_Power_powerFFT_WinHamming_HopSize512_WinSize512_Sum_AudioCh0 > 0.248211
|   |   |   |   |   |   |   |   |   |   |   |   Mean_Mem20_Rolloff_Power_powerFFT_WinHamming_HopSize512_WinSize512_Sum_AudioCh0 <= 0.021206
|   |   |   |   |   |   |   |   |   |   |   |   |   Std_Mem20_ZeroCrossings_HopSize512_WinSize512_Sum_AudioCh0 <= 0.003596
|   |   |   |   |   |   |   |   |   |   |   |   |   |   Mean_Mem20_Rolloff_Power_powerFFT_WinHamming_HopSize512_WinSize512_Sum_AudioCh0 <= 0.015175: m36 (4.0)
|   |   |   |   |   |   |   |   |   |   |   |   |   |   Mean_Mem20_Rolloff_Power_powerFFT_WinHamming_HopSize512_WinSize512_Sum_AudioCh0 > 0.015175: m33 (2.0)
|   |   |   |   |   |   |   |   |   |   |   |   |   Std_Mem20_ZeroCrossings_HopSize512_WinSize512_Sum_AudioCh0 > 0.003596: m37 (12.0)
|   |   |   |   |   |   |   |   |   |   |   |   Mean_Mem20_Rolloff_Power_powerFFT_WinHamming_HopSize512_WinSize512_Sum_AudioCh0 > 0.021206
|   |   |   |   |   |   |   |   |   |   |   |   |   Mean_Mem20_Flux_Power_powerFFT_WinHamming_HopSize512_WinSize512_Sum_AudioCh0 <= 0.075432: m27 (6.0)
|   |   |   |   |   |   |   |   |   |   |   |   |   Mean_Mem20_Flux_Power_powerFFT_WinHamming_HopSize512_WinSize512_Sum_AudioCh0 > 0.075432: m34 (2.0/1.0)
|   |   |   |   |   |   |   |   |   |   Mean_Mem20_MFCC3_Power_powerFFT_WinHamming_HopSize512_WinSize512_Sum_AudioCh0 > 1.519129
|   |   |   |   |   |   |   |   |   |   |   Mean_Mem20_MFCC8_Power_powerFFT_WinHamming_HopSize512_WinSize512_Sum_AudioCh0 <= -0.678189
|   |   |   |   |   |   |   |   |   |   |   |   Mean_Mem20_Rolloff_Power_powerFFT_WinHamming_HopSize512_WinSize512_Sum_AudioCh0 <= 0.024125
|   |   |   |   |   |   |   |   |   |   |   |   |   Mean_Mem20_Rolloff_Power_powerFFT_WinHamming_HopSize512_WinSize512_Sum_AudioCh0 <= 0.017899: m43 (3.0)
|   |   |   |   |   |   |   |   |   |   |   |   |   Mean_Mem20_Rolloff_Power_powerFFT_WinHamming_HopSize512_WinSize512_Sum_AudioCh0 > 0.017899: m50 (18.0)
|   |   |   |   |   |   |   |   |   |   |   |   Mean_Mem20_Rolloff_Power_powerFFT_WinHamming_HopSize512_WinSize512_Sum_AudioCh0 > 0.024125: m51 (9.0)
|   |   |   |   |   |   |   |   |   |   |   Mean_Mem20_MFCC8_Power_powerFFT_WinHamming_HopSize512_WinSize512_Sum_AudioCh0 > -0.678189
|   |   |   |   |   |   |   |   |   |   |   |   Mean_Mem20_MFCC1_Power_powerFFT_WinHamming_HopSize512_WinSize512_Sum_AudioCh0 <= 8.590083
|   |   |   |   |   |   |   |   |   |   |   |   |   Mean_Mem20_Rolloff_Power_powerFFT_WinHamming_HopSize512_WinSize512_Sum_AudioCh0 <= 0.014591
|   |   |   |   |   |   |   |   |   |   |   |   |   |   Mean_Mem20_PeakRatio_Chroma_G#_Power_powerFFT_WinHamming_HopSize512_WinSize512_Sum_AudioCh0 <= 0.000007: m50 (2.0)
|   |   |   |   |   |   |   |   |   |   |   |   |   |   Mean_Mem20_PeakRatio_Chroma_G#_Power_powerFFT_WinHamming_HopSize512_WinSize512_Sum_AudioCh0 > 0.000007: m47 (19.0)
|   |   |   |   |   |   |   |   |   |   |   |   |   Mean_Mem20_Rolloff_Power_powerFFT_WinHamming_HopSize512_WinSize512_Sum_AudioCh0 > 0.014591
|   |   |   |   |   |   |   |   |   |   |   |   |   |   Mean_Mem20_PeakRatio_Chroma_G#_Power_powerFFT_WinHamming_HopSize512_WinSize512_Sum_AudioCh0 <= 0.000023
|   |   |   |   |   |   |   |   |   |   |   |   |   |   |   Mean_Mem20_Rolloff_Power_powerFFT_WinHamming_HopSize512_WinSize512_Sum_AudioCh0 <= 0.031907: m45 (3.0/1.0)
|   |   |   |   |   |   |   |   |   |   |   |   |   |   |   Mean_Mem20_Rolloff_Power_powerFFT_WinHamming_HopSize512_WinSize512_Sum_AudioCh0 > 0.031907: m41 (2.0)
|   |   |   |   |   |   |   |   |   |   |   |   |   |   Mean_Mem20_PeakRatio_Chroma_G#_Power_powerFFT_WinHamming_HopSize512_WinSize512_Sum_AudioCh0 > 0.000023
|   |   |   |   |   |   |   |   |   |   |   |   |   |   |   Mean_Mem20_PeakRatio_Chroma_G#_Power_powerFFT_WinHamming_HopSize512_WinSize512_Sum_AudioCh0 <= 0.000064: m56 (3.0)
|   |   |   |   |   |   |   |   |   |   |   |   |   |   |   Mean_Mem20_PeakRatio_Chroma_G#_Power_powerFFT_WinHamming_HopSize512_WinSize512_Sum_AudioCh0 > 0.000064: m53 (5.0)
|   |   |   |   |   |   |   |   |   |   |   |   Mean_Mem20_MFCC1_Power_powerFFT_WinHamming_HopSize512_WinSize512_Sum_AudioCh0 > 8.590083
|   |   |   |   |   |   |   |   |   |   |   |   |   Std_Mem20_MFCC10_Power_powerFFT_WinHamming_HopSize512_WinSize512_Sum_AudioCh0 <= 0.367734
|   |   |   |   |   |   |   |   |   |   |   |   |   |   Mean_Mem20_MFCC4_Power_powerFFT_WinHamming_HopSize512_WinSize512_Sum_AudioCh0 <= 1.753811
|   |   |   |   |   |   |   |   |   |   |   |   |   |   |   Mean_Mem20_PeakRatio_Minimum_Chroma_A_Power_powerFFT_WinHamming_HopSize512_WinSize512_Sum_AudioCh0 <= 1.714926
|   |   |   |   |   |   |   |   |   |   |   |   |   |   |   |   Mean_Mem20_MFCC11_Power_powerFFT_WinHamming_HopSize512_WinSize512_Sum_AudioCh0 <= -0.037892
|   |   |   |   |   |   |   |   |   |   |   |   |   |   |   |   |   Mean_Mem20_MFCC6_Power_powerFFT_WinHamming_HopSize512_WinSize512_Sum_AudioCh0 <= 0.011452: m46 (20.0)
|   |   |   |   |   |   |   |   |   |   |   |   |   |   |   |   |   Mean_Mem20_MFCC6_Power_powerFFT_WinHamming_HopSize512_WinSize512_Sum_AudioCh0 > 0.011452
|   |   |   |   |   |   |   |   |   |   |   |   |   |   |   |   |   |   Mean_Mem20_MFCC3_Power_powerFFT_WinHamming_HopSize512_WinSize512_Sum_AudioCh0 <= 2.035214
|   |   |   |   |   |   |   |   |   |   |   |   |   |   |   |   |   |   |   Mean_Mem20_Rolloff_Power_powerFFT_WinHamming_HopSize512_WinSize512_Sum_AudioCh0 <= 0.01965: m37 (2.0/1.0)
|   |   |   |   |   |   |   |   |   |   |   |   |   |   |   |   |   |   |   Mean_Mem20_Rolloff_Power_powerFFT_WinHamming_HopSize512_WinSize512_Sum_AudioCh0 > 0.01965: m49 (6.0)
|   |   |   |   |   |   |   |   |   |   |   |   |   |   |   |   |   |   Mean_Mem20_MFCC3_Power_powerFFT_WinHamming_HopSize512_WinSize512_Sum_AudioCh0 > 2.035214: m48 (9.0)
|   |   |   |   |   |   |   |   |   |   |   |   |   |   |   |   Mean_Mem20_MFCC11_Power_powerFFT_WinHamming_HopSize512_WinSize512_Sum_AudioCh0 > -0.037892: m48 (233.0)
|   |   |   |   |   |   |   |   |   |   |   |   |   |   |   Mean_Mem20_PeakRatio_Minimum_Chroma_A_Power_powerFFT_WinHamming_HopSize512_WinSize512_Sum_AudioCh0 > 1.714926
|   |   |   |   |   |   |   |   |   |   |   |   |   |   |   |   Mean_Mem20_Rolloff_Power_powerFFT_WinHamming_HopSize512_WinSize512_Sum_AudioCh0 <= 0.019261: m48 (3.0/1.0)
|   |   |   |   |   |   |   |   |   |   |   |   |   |   |   |   Mean_Mem20_Rolloff_Power_powerFFT_WinHamming_HopSize512_WinSize512_Sum_AudioCh0 > 0.019261
|   |   |   |   |   |   |   |   |   |   |   |   |   |   |   |   |   Mean_Mem20_Rolloff_Power_powerFFT_WinHamming_HopSize512_WinSize512_Sum_AudioCh0 <= 0.04144: m55 (5.0)
|   |   |   |   |   |   |   |   |   |   |   |   |   |   |   |   |   Mean_Mem20_Rolloff_Power_powerFFT_WinHamming_HopSize512_WinSize512_Sum_AudioCh0 > 0.04144: m41 (2.0)
|   |   |   |   |   |   |   |   |   |   |   |   |   |   Mean_Mem20_MFCC4_Power_powerFFT_WinHamming_HopSize512_WinSize512_Sum_AudioCh0 > 1.753811
|   |   |   |   |   |   |   |   |   |   |   |   |   |   |   Mean_Mem20_Rolloff_Power_powerFFT_WinHamming_HopSize512_WinSize512_Sum_AudioCh0 <= 0.013424: m43 (3.0)
|   |   |   |   |   |   |   |   |   |   |   |   |   |   |   Mean_Mem20_Rolloff_Power_powerFFT_WinHamming_HopSize512_WinSize512_Sum_AudioCh0 > 0.013424: m57 (9.0)
|   |   |   |   |   |   |   |   |   |   |   |   |   Std_Mem20_MFCC10_Power_powerFFT_WinHamming_HopSize512_WinSize512_Sum_AudioCh0 > 0.367734: m47 (13.0/1.0)
|   |   |   |   |   |   |   |   |   Mean_Mem20_MFCC8_Power_powerFFT_WinHamming_HopSize512_WinSize512_Sum_AudioCh0 > 0.562779
|   |   |   |   |   |   |   |   |   |   Mean_Mem20_MFCC4_Power_powerFFT_WinHamming_HopSize512_WinSize512_Sum_AudioCh0 <= 1.185156
|   |   |   |   |   |   |   |   |   |   |   Mean_Mem20_MFCC4_Power_powerFFT_WinHamming_HopSize512_WinSize512_Sum_AudioCh0 <= -0.050808: m50 (17.0)
|   |   |   |   |   |   |   |   |   |   |   Mean_Mem20_MFCC4_Power_powerFFT_WinHamming_HopSize512_WinSize512_Sum_AudioCh0 > -0.050808
|   |   |   |   |   |   |   |   |   |   |   |   Mean_Mem20_MFCC12_Power_powerFFT_WinHamming_HopSize512_WinSize512_Sum_AudioCh0 <= -0.449666: m62 (11.0)
|   |   |   |   |   |   |   |   |   |   |   |   Mean_Mem20_MFCC12_Power_powerFFT_WinHamming_HopSize512_WinSize512_Sum_AudioCh0 > -0.449666
|   |   |   |   |   |   |   |   |   |   |   |   |   Std_Mem20_ZeroCrossings_HopSize512_WinSize512_Sum_AudioCh0 <= 0.003245: m41 (2.0/1.0)
|   |   |   |   |   |   |   |   |   |   |   |   |   Std_Mem20_ZeroCrossings_HopSize512_WinSize512_Sum_AudioCh0 > 0.003245: m39 (5.0)
|   |   |   |   |   |   |   |   |   |   Mean_Mem20_MFCC4_Power_powerFFT_WinHamming_HopSize512_WinSize512_Sum_AudioCh0 > 1.185156
|   |   |   |   |   |   |   |   |   |   |   Mean_Mem20_MFCC8_Power_powerFFT_WinHamming_HopSize512_WinSize512_Sum_AudioCh0 <= 0.705851
|   |   |   |   |   |   |   |   |   |   |   |   Mean_Mem20_Rolloff_Power_powerFFT_WinHamming_HopSize512_WinSize512_Sum_AudioCh0 <= 0.014202: m36 (3.0/1.0)
|   |   |   |   |   |   |   |   |   |   |   |   Mean_Mem20_Rolloff_Power_powerFFT_WinHamming_HopSize512_WinSize512_Sum_AudioCh0 > 0.014202: m48 (3.0/1.0)
|   |   |   |   |   |   |   |   |   |   |   Mean_Mem20_MFCC8_Power_powerFFT_WinHamming_HopSize512_WinSize512_Sum_AudioCh0 > 0.705851: m38 (17.0)
|   |   |   |   |   |   |   Mean_Mem20_MFCC12_Power_powerFFT_WinHamming_HopSize512_WinSize512_Sum_AudioCh0 > -0.18438
|   |   |   |   |   |   |   |   Mean_Mem20_MFCC7_Power_powerFFT_WinHamming_HopSize512_WinSize512_Sum_AudioCh0 <= -0.452896
|   |   |   |   |   |   |   |   |   Mean_Mem20_PeakRatio_Average_Chroma_A_Power_powerFFT_WinHamming_HopSize512_WinSize512_Sum_AudioCh0 <= 1.187879
|   |   |   |   |   |   |   |   |   |   Mean_Mem20_Rolloff_Power_powerFFT_WinHamming_HopSize512_WinSize512_Sum_AudioCh0 <= 0.036965
|   |   |   |   |   |   |   |   |   |   |   Mean_Mem20_Rolloff_Power_powerFFT_WinHamming_HopSize512_WinSize512_Sum_AudioCh0 <= 0.018482: m56 (5.0/1.0)
|   |   |   |   |   |   |   |   |   |   |   Mean_Mem20_Rolloff_Power_powerFFT_WinHamming_HopSize512_WinSize512_Sum_AudioCh0 > 0.018482: m48 (9.0)
|   |   |   |   |   |   |   |   |   |   Mean_Mem20_Rolloff_Power_powerFFT_WinHamming_HopSize512_WinSize512_Sum_AudioCh0 > 0.036965: m52 (22.0)
|   |   |   |   |   |   |   |   |   Mean_Mem20_PeakRatio_Average_Chroma_A_Power_powerFFT_WinHamming_HopSize512_WinSize512_Sum_AudioCh0 > 1.187879
|   |   |   |   |   |   |   |   |   |   Std_Mem20_PeakRatio_Average_Chroma_A_Power_powerFFT_WinHamming_HopSize512_WinSize512_Sum_AudioCh0 <= 0.04584
|   |   |   |   |   |   |   |   |   |   |   Mean_Mem20_PeakRatio_Minimum_Chroma_A_Power_powerFFT_WinHamming_HopSize512_WinSize512_Sum_AudioCh0 <= 1.655608: m55 (27.0)
|   |   |   |   |   |   |   |   |   |   |   Mean_Mem20_PeakRatio_Minimum_Chroma_A_Power_powerFFT_WinHamming_HopSize512_WinSize512_Sum_AudioCh0 > 1.655608: m54 (20.0/1.0)
|   |   |   |   |   |   |   |   |   |   Std_Mem20_PeakRatio_Average_Chroma_A_Power_powerFFT_WinHamming_HopSize512_WinSize512_Sum_AudioCh0 > 0.04584
|   |   |   |   |   |   |   |   |   |   |   Mean_Mem20_MFCC9_Power_powerFFT_WinHamming_HopSize512_WinSize512_Sum_AudioCh0 <= 0.383188
|   |   |   |   |   |   |   |   |   |   |   |   Mean_Mem20_MFCC4_Power_powerFFT_WinHamming_HopSize512_WinSize512_Sum_AudioCh0 <= -0.251934: m40 (21.0)
|   |   |   |   |   |   |   |   |   |   |   |   Mean_Mem20_MFCC4_Power_powerFFT_WinHamming_HopSize512_WinSize512_Sum_AudioCh0 > -0.251934
|   |   |   |   |   |   |   |   |   |   |   |   |   Mean_Mem20_MFCC1_Power_powerFFT_WinHamming_HopSize512_WinSize512_Sum_AudioCh0 <= 10.196325: m47 (13.0)
|   |   |   |   |   |   |   |   |   |   |   |   |   Mean_Mem20_MFCC1_Power_powerFFT_WinHamming_HopSize512_WinSize512_Sum_AudioCh0 > 10.196325
